{"first_weights": [[-0.6374651785746587, 0.4607638238364994, 0.871875488374356, -0.2189792594200832, 0.07345019485397196, -0.13043259088943207, -0.9442166099780926], [-0.030095829612023315, 0.7607554593642714, -0.8733081179989091, -0.16064104332585855, -0.26851285546848846, 0.518428534061289, -0.5863865879130989], [-0.6574472180004469, 0.7656262546387285, 0.6935537633587199, -0.5379079888589362, 0.8755399328390732, 0.3325476654956383, 0.34331164746132914], [0.13287136883244077, -0.28891909374696834, 0.7430691652865535, -0.3926492182400716, -0.034181583218747535, -0.8929783729657288, -0.5955907564362035], [0.5921173040510987, 0.719640816552843, 0.4106369273124666, 0.5292780457633497, 0.9950008457410979, -0.7941845414372339, -0.6456854356006891], [-0.04610932994947382, -0.7910481321445979, -0.18538976060528353, -0.46562441188739495, -0.49915699733420066, 0.4288484112676217, 0.13670514482943155], [0.01660784477323718, 0.35738186800239347, -0.06846973706365689, -0.07113214859941808, 0.8916010021831007, 0.7743485660504024, 0.2740362693696725], [-0.9623096504841759, 0.1626551036785986, 0.26151554815447464, -0.7597549617189834, -0.5592162333206139, -0.3823367851571502, -0.44258976987304033], [0.24835516583379014, 0.6976360991354, 0.9760806212181257, 0.9872757671383647, 0.3953688857078592, 0.07609534549225883, 0.14924624926792074], [0.6524931277814274, -0.9054734930503177, -0.5873647144527754, 0.5322854039301868, 0.5588222504101341, -0.10333536865290394, -0.15548101153437477], [0.3458628070696398, 1.2137658900159607, 1.2224565954783375, 0.45697451500380176, 1.675377859387621, -1.6138963598449452, 0.40861421789364394], [0.9008954829251594, 0.8797741205840779, 0.9129408300726491, 0.17998041290756794, -0.6255027136674689, -0.053747430840830335, -0.9697184544489221], [0.7959397742061571, 0.7171041484496381, -0.9353053847782193, 0.5379668378228559, 0.5703301576779154, 0.5697847827837197, 0.3658772437123876], [-0.755342924871105, 0.3575947259232319, 0.5220355681651437, 0.2194877434156587, -0.569690903700804, 0.8235895807685404, 0.7968858014460951], [-0.11492777861812553, -0.6120835298897782, 0.8160772660280806, -0.8718250822808873, -0.4070047497473912, -0.4885969292426433, 0.41914293157140436], [0.517477255764833, 0.9023766551991803, -0.5383196484154213, 0.9163075824113999, 0.15547734198425567, -0.6371194858317933, 0.3846982100916774], [0.051858319089413074, 0.2758387279208985, -0.5451130401214812, -0.26822644264058826, 0.24240882070241665, 0.14498628071967978, -0.8083821441730359], [0.7891153503355082, -0.8597382799108697, -0.7405447776921339, -0.8377975962388096, -0.6368651176113205, -0.2642453317695479, -0.9294030411564604], [-0.08729551656304668, -0.2235688897494048, 0.6372598199624744, -0.024653152583427707, -0.8056875963314745, -0.7049313047279526, -0.7350134298640074], [0.5334453132436117, 0.28523344813849394, 0.22421687578796354, -0.0599333225027516, 0.4365350364355299, -0.6717864279174568, 0.8130320133500789], [-0.3646342716394473, 0.5835816732775818, -0.9322400344843302, -0.789806968447571, -0.33873662635459856, -0.797386923892649, 0.9310194958852156], [0.33538312500276524, -0.3827350633993518, -0.6634983141774815, -0.4127607575094807, 0.1175474355695334, -0.7419045574864103, -0.012255300019978987], [-0.09605968965172629, 0.0740200873473249, -0.49021354106939374, 0.7513957975148216, 0.14504846336088284, 0.8738036383210721, 0.9338824272999149], [0.8277900076095608, 0.9284223526882709, 0.6704365171851374, -0.43802430861390973, 0.14143572053045173, -0.07068733372658986, 0.24004893440988928], [-0.0625162996611126, -0.29291053566085257, 0.3930728451167185, 0.0236288408354437, 0.08154163631136435, 0.788527662474453, 0.809731724132182]], "second_weights": [[-0.5524006612000355, -0.38033290422026605, -0.7138942569521421, 0.8539285110354826, 0.7599513727994395, 0.5302786253930749, -0.7578306716184727, -0.8235612297075141, 0.7546675030548721, 0.41425081478206727, 0.6870753112758836, -0.19683974772229212, 0.5503111747173396, 0.06932665591643183, 0.5846439119688007, 0.4408784838232307, -0.44045098669879823, 0.226479879967469, 0.8610498430545344, -0.0035384217991962755, -0.9405494849079357, -0.43070160997929285, -0.5804995677960839, 0.4354691916643575, 0.24649822387726805, -0.32338032643951675], [0.5524006612006588, 0.3803329042201229, 0.6357819981799879, 0.8623656165746894, -0.6135470123013582, -0.9972656783943404, -0.33449530366777785, 0.943766656611571, -0.5522944312048041, -0.41425081478323467, -0.6870753144300259, 0.19683974772194912, 0.6392122494146424, -0.06932665591643211, 0.036264096469593055, -0.4408784838227334, -0.49136943169868746, 0.9646728264262192, -0.21216893841939455, 0.0035384218004403992, 0.27061041575939604, 0.09366808908408775, 0.3643090556855781, 0.5293694818505386, -0.2712542496809193, 1.1634459899773486]]}