{"first_weights": [[0.3779314925785162, -0.5860164430793964, -0.054763888481805134, 0.07095791826240938, 0.8044412202383913, 0.8329813533701103, -0.18631793663815288], [0.43944150577460683, -0.8440041620914518, 0.8391423856847029, 0.8173935784354116, -0.18306496812387607, 0.8534323307350802, -0.16882579603966308], [0.9500844179013423, 0.19617424743222162, -0.21716097551357114, -0.4304499199487497, -0.02809311912281004, 0.6166692588664296, -0.3873283866669704], [-0.5282929328687719, 0.6141956784799052, -0.9686254079371387, 0.3596715993032838, -0.4036185889983482, 0.5209710996687149, 0.3838812370666129], [0.15197734984561717, 0.3800005753977147, 0.9351059147454912, -0.6423784209298933, 0.489069583719395, 0.07249356673035967, -0.6865159234268341], [-0.14750170406759722, 0.906191086877514, -0.6753089946500468, -0.40992178014825886, 0.03704273123924695, -0.7855165933419155, -0.12293765812207647], [0.2986730154048083, -0.6913675732987761, -0.9502948716809154, -0.7195798555408677, 0.5318741249905812, -0.7020757561301538, 0.6356403704398745], [-0.6389643265215019, -0.48874557344056146, 0.6637685202098402, 0.2677643788524031, 0.30257338778884324, 0.9021937453742928, 0.14864584579596163], [-0.9611923910709473, -0.4946874704361938, 0.7028400742168792, 0.48335851082886816, 0.46748573725980863, -1.2730025784497845, 0.06703513483192407], [-0.8498516692789024, -0.014190424023056866, 0.5505840824718984, 0.5952831513940625, -0.09448194378539194, -0.9124032944402282, -0.827539626423877]], "second_weights": [[0.5197908988686103, 0.4016790878251067, -0.758730932691924, 0.2226101604211604, -0.7368457705888535, 0.24465753075174534, 0.14228771450032474, 0.15529384634676824, 0.16701899656824212, -0.30899532971452365, 0.9315341291340332], [0.5254242784471065, 0.5317027723773137, 0.7173066007287178, 0.23946063172251392, -0.6045511060129559, -0.821447096498763, 0.7159970160513964, -0.6933157406040235, 0.6546208223275121, -0.49281225491620284, 0.010731991777796103]]}