{"first_weights": [[0.22565125051892077, 0.1196278064675167, -0.7153379225262393, 0.16714742858781562, 0.8768383947510674, -0.8487922507265773, 0.61014731603249], [0.4356401460270649, -0.037750253683839, -0.15622891814351036, -0.7687288824495826, -0.8042492496904023, -0.6461356859266849, 0.3889378747058223], [0.9282870783195847, -0.43264289418798607, -0.8944466694247288, 0.22760707006743863, -0.5872366075273767, -0.8544672807784357, 0.9156695628438138], [-0.3769851331122722, 0.3236855237869205, -0.303389111406579, 0.1835576559273402, 0.6278759029036265, -0.3285087796547068, -0.3601907232076127], [0.17342737932095745, -0.06977010103840439, -1.4057163062131617, 1.626814233262327, 0.37526209111921116, 1.3926609075661882, -0.5620406574689985], [0.6962289921761853, -0.7886430147281676, 0.6834878044163795, 0.18235721703079966, -0.3330246395436396, 0.768832281586828, 0.9582283814481383], [0.7693520362997852, -0.5629521892074478, -0.19503686220661098, -0.3762105096827397, -0.24133830932498523, 0.9390735029198798, -0.19604669133898978], [0.8968945384179059, -0.8838582409307003, -0.35345875388658426, 0.5119815514518186, 0.32401174313213565, -0.4683781873160649, 0.53551834053094], [-0.22051894434021158, -0.8951559624928405, -0.4707849952473673, 0.39697120897015425, 0.6411143448923633, -0.7078806557909667, 0.8153297391066527], [-0.5934466223994976, -0.4688550631607278, 0.9778974389581943, -0.225081113673407, 0.8149083765680425, 0.7448866720136003, 0.42538563776943894], [-0.2540952444916873, 0.7409129544229017, 0.8167569101892205, -0.20671670509459186, -0.4879439790026871, -0.19748454552908976, -0.7340573160219015], [-0.5951321770468696, -0.6924709587660618, 0.4722229943392225, -0.3781260179154707, -0.31620804278326187, -0.4878822465954148, 0.8144467891202194], [0.8171280335561982, -0.2822444554838382, 0.31908348275481435, -0.3046198390626858, -0.6896612532856252, 0.29710403280760966, -0.6391805806219417], [-0.011553904874368026, 0.0009691427753024673, 0.14768328392615415, -0.06420814118144813, 0.5334899668790936, -0.5677826530042984, -0.40296620985744647], [0.8745565730942435, -0.6174146114882524, -0.08902965340055724, -0.7276796072247138, 0.7337526653446602, 0.7762955917702439, 0.20801899310010596], [-0.7922738094607378, -0.557064300182047, -0.7266215904804476, 0.10287046433066283, -0.3961607535905316, 0.2954310756117038, -0.750571041529982], [0.2648638053538703, -0.8918673548259883, 0.9445428075640615, 0.11317780888382344, 0.15937470178929844, -0.5177998046035539, 0.6091571535506763], [0.7833335959699725, 0.49343003167340505, -0.5055165271440774, 0.163861592065919, -0.6158878032528254, -0.885383672375432, -0.7028456634092461], [1.0897219217682848, 0.17632212802114747, -0.2225193857219179, 0.4381542362152943, 0.37669446511154164, -0.06462414069279333, 0.8359499603672176], [0.05843093568708979, 0.9629608103520153, -0.07643680675168874, -0.3827832440430048, 0.6775451633196341, 0.3471675818163604, 0.969006988743289], [-0.494876137523079, 0.8714800687578164, 0.1831549878076475, -0.21844075954504216, 0.9196070590565675, 0.1720975583519082, 0.7454690276832778], [-0.6962609615196091, 0.4807461931789285, -0.6916893146072749, 0.1537929062866925, -0.8562538737972498, -0.41721475999798363, -0.25225431731810377], [-0.2903281809408622, -0.036993695680695104, -0.8781240275965512, -0.07129815947647722, 0.13376729686723698, 0.08388048320291608, -0.37205328235483015], [-0.807348909206705, -0.4579461534411275, 0.0100007579585445, 0.4062338662790642, 0.285217306266098, 0.9866597494011897, -0.9564777152312747], [0.9479031733474379, -0.7173387986124953, -0.13370373092746712, 0.028586378496678, 0.8938535140924742, -0.9832576442945635, -0.9909365745670258], [0.14080821640657581, -0.9525126902210763, 0.6613641049456234, 0.9086050911624268, 0.18616615391954627, 0.3738721774537417, -0.12906549270015888], [0.4977381875381717, 0.5879201218209076, 0.7165890445628504, -0.9096779829735795, 0.5819059502039605, 0.06233462585879601, 0.3553379732508841], [-0.21988458888757087, 0.7241833609240043, -0.39932366199747665, 0.8338531609392822, -0.4959654068138148, 0.6063449910492011, 0.40045256185061007], [0.7036549703188137, 0.16629644904193652, 0.6211769195594532, 0.7708460299215019, 0.995886664984416, 0.544908462262407, 0.8108525356849812], [-0.5709822209999031, 0.44182180260755577, 0.71429965907016, -0.5930936441388284, 0.8647953449313188, 0.5074960749183397, 0.07594397032389533], [-0.8781893178139881, -0.7385511832257317, 0.0032479427778604464, -0.07298880992952816, -0.0418084516897379, -0.4357336883284155, -0.6726969550548683], [-0.5596640807256592, -0.691844241973266, -0.20790728564428407, 0.06850314269213187, 0.3682820422404809, -0.8268488824995279, 0.355451204543797], [-0.0850861182313388, -0.9137113799544515, -0.04318495417432606, 0.05987105835620437, -0.7629627957664441, 0.6997138693807107, -0.229092326887012], [-0.9823871625730252, -0.4889306897339101, 0.1513026414886527, 0.6539590696611501, 0.032185442881556, -0.8988968326178413, 0.1992530489038944], [-0.6322546875878672, 0.6834385027628096, -0.6322288458644438, 0.5173634077012286, -0.041755966908398445, -0.8426838695244645, -0.4059337795622693], [-0.42314850309561813, 0.5996545802930768, -0.12363308284081653, 0.3515265158139309, -0.8313782711053299, 0.5675243737363271, 0.7337519798931229], [-0.4809630615538447, -0.33735349983205976, -0.15590215902923932, 0.376617559082405, -0.40552922075207265, -0.9859675312716669, -0.07149874642718812], [-0.1849148880400513, 0.3506980841115557, 0.48906351821406013, -0.6150754700799821, -0.7262552024843647, -0.9556982316917046, -0.4407003079876255], [-0.7440850508193777, 0.20746833794437092, -0.7004204855424856, -0.8654589062295921, 0.6502189095205844, -0.9088011750385938, -0.6282258353811705], [-0.06875719780401383, -0.9100906841952022, -1.532273117556713, 0.9146767447197377, -0.7687392939236722, 1.5188548774059576, -0.18899803343353383], [-0.713289265948555, 0.7185577290971685, -0.16075255243980813, -0.1721764147087672, -0.8831177322136687, -0.55975509833413, 0.28947260958352583], [0.767401046942449, -0.3532317170740591, -0.9362334806190165, 0.2257836158219204, -0.7765280308484599, -0.886801010812966, 0.4684236996763256], [0.07724217298233471, -0.7017261769136642, -0.2288906652775513, -0.25451210870533725, -0.7140276178240945, -0.7433361121846285, -0.9048701826240604], [0.22455121959265822, 0.42917996826472593, 0.11186869939166955, -0.24683978188154265, 0.612585960137324, -0.9093834790630542, -0.10663549383934101], [-0.2849562121214323, 0.802499904196743, -0.7178391291964277, 0.2724874424917913, 0.006226296281271343, 0.3453120560914531, -0.72414702830514], [0.021948585483939097, 0.9133212521178512, -0.6201464844399327, 0.8652934403076952, -0.5529245461156227, -0.17405823071777707, 0.9433274535723222], [-0.5803450582181342, 0.6511688845764618, 0.8461189425418427, 0.6921092255038039, -0.34849409633967654, 0.18499840501696108, 0.6746423224097584], [0.8724875809432944, -0.8558894867466398, -0.7032909814142763, -0.9313758453699517, 0.6756199201301725, 0.3138959779393766, 0.5578787928751763], [-0.844597809869539, -0.30587134591797654, -0.7743112268709454, 0.4827516552482221, -0.5167198538158131, 0.42209275371084337, -0.08464745027422345], [0.5995014479384033, -0.5677835149947532, -0.4527480809355786, 0.6336785618606527, -0.10358664013558695, 0.6980689672738718, 0.48770654496665067]], "second_weights": [[-0.478420772398519, 0.006081316429358052, -0.1952968528913308, -0.3146400555914999, -0.20313855186189766, 0.1960803033718435, 0.16521659072974654, -0.13700912650597288, -0.5741853178815379, 0.46494351444418697, -0.3018239030986912, 0.14746467897382165, 0.12875751852314335, -0.24937957137348254, -0.5437329407425974, 0.6686425686794328, -0.5018449803940257, -0.6992523937187769, 0.07096966800109625, -0.44687817644836997, -0.824940822944202, 0.12006419686308067, -0.31034140516750464, -0.07881438343137957, 0.6359475702963797, 0.6856312154013032, 0.7466502552080837, -0.290127338166301, 0.10121508138576515, 0.6904455267065112, 0.1417817514747557, 0.10918386795041557, -0.06446153664901816, 0.7953347321161297, -0.26259990431264724, 0.6236133585232423, -0.4316026381077629, 0.5632810745767838, -0.7427140328489672, -0.2588468475969262, -0.1604461676500082, 0.23227909616937126, 0.08364329335376919, -0.8311487166796832, -0.09061969640634278, 0.05069387673684435, -0.6307021149493562, 0.3898418125381289, -0.15722224610784605, -0.11043895014471086, 0.7153075986213303], [-0.6595956527307809, -0.5696007797579083, 0.010186087381548248, -0.1745364679892547, 0.20332492432905808, 0.3566113660178556, 0.5408912188473131, 0.3549938981461862, 0.05225554337867444, 0.36535806344978683, 0.30378260710681765, -0.14827995716372255, -0.13178664904856882, 0.14457842646980779, 0.029069199433382067, 0.8559699126589351, -0.24160659356315664, -0.7752481835202438, -0.07114933437204891, -0.3600961880994574, 0.4551010502152526, 0.8563324822558835, -0.41840632670809086, 0.07665766625466702, 0.6897442133192668, -1.0529989445927683, -0.2140828637343131, 0.36197261193473756, 0.602513518568737, 0.04390508729473006, -0.885868627056914, 0.9541382901748552, 0.06420822557139023, 0.12656232701606496, -0.9495191366027602, -0.4985433702977493, -0.39098844467718563, 0.6226538187712296, -0.7503634794595893, 0.2583989701339251, 0.8250927073020793, 0.21011620952201926, 0.9659092779170246, 0.6735868013796789, 0.08832236852344683, -0.06575185295557148, 0.7302193586253739, -0.9048735891651205, 0.1436061135887006, -0.315510508475224, -0.8395851926430201]]}