{"first_weights": [[0.9100934913539204, 0.015128178510909916, -0.37190123249423745, -0.5436532209161511, -0.5703325430665759, -0.5243665017936351, -0.9224711574614175], [-0.7562317655026529, 0.672506356389836, 1.130154981994168, -0.5171688131676161, -0.79906460376426, -1.113041364459265, 0.006896929811714578], [-0.060788576969214726, 0.012939135293736161, 0.053247163553810165, -0.8312173298261432, -0.49980111189831217, 0.3318070828628008, -0.2506403776171233], [0.011779525784081497, -0.7814953510088125, -0.44938261625720294, 0.8307055469602695, -0.4205802808294756, -0.0988187704994653, -0.7131275886206959], [-0.7243875228943972, 0.3125618188529873, 0.9548846247379241, 0.7282770220546599, -0.9748713850278954, 0.05920817561658365, 0.6018423763491287], [0.30682149826903116, 0.18681849260005534, -0.8555412861581959, -0.9372792088406054, -0.35646437218369, -0.5341110200410621, 0.6440339302034706], [0.7980953997177151, 0.36445436789867447, 0.4812372969897123, -0.8500812101838642, -0.6971246212321838, 0.8692812579796276, -0.8625851022119371], [-0.8310067036883996, -0.45415745154805515, -0.5324583908670703, 0.08796709471370333, -0.5924303234126878, 0.943274332981985, -0.16229482408294718], [-0.7646328684366895, -0.8743415783119947, 0.10100463096474722, -0.4484864874069853, 0.13239642974487148, -0.13386252910899973, -0.3899331004886607], [-0.9477759594650168, 0.19397127487568086, -0.12431967542816696, 0.026277629806752655, 0.5935735175998434, -0.29342193580342907, 0.5809618137822441]], "second_weights": [[0.6137804284119454, 0.36656995916842994, 0.03394914859931502, 0.6012473980064418, 0.13082447069954103, 0.801001661969603, 0.28813109580196095, -0.2166791980299028, -0.585009466793681, -0.8094655265958519, 0.12548807156611308], [-0.6248672398071317, -0.3665245261326863, -0.033946453263121075, -0.8834053834895941, 0.48683152210557784, 0.25681614411813114, -0.49544598181738797, 0.21668088672794883, -0.7491139370721551, 0.5431806285247676, 0.46417084078803333]]}