{"first_weights": [[0.06043432102146329, -0.702402178732181, -0.25262624168820214, 0.2261445019821502, -0.4863142237607758, -0.487209083704949, -0.8856117504487044], [0.83326557114857, 0.22287367551945342, -0.5422067482317589, 0.6402093590664057, 0.5488607113348278, 0.739736751088598, -0.7297352749203497], [0.7114179635366666, -0.8218111476824999, 0.2810380769295031, 0.0543876195787234, 0.25429630495109423, -0.03457985318194057, -0.8816792192894336], [0.6848114671597707, 0.9259882319966888, 0.8861032348442115, 0.34535056946733156, -0.6022982489103017, 0.2252451205187216, 0.522599716311037], [-0.3655833940673181, -0.9705402574588983, -0.34808124288608844, 0.999933452542555, 0.9560261022909107, -0.07700417251039895, -0.13757539774980437], [0.6788818041621789, -0.19917088740411243, 0.2666999960532701, -0.16997176100037517, -0.9060670434325907, 0.46394230561191246, 0.08311582225065171], [-0.7052858914697068, 0.8386964967647408, -0.35478585815369884, 0.8715017443266017, 0.664861298935284, 0.6996428691731673, -0.724361522269385], [0.39893981255597216, 0.318990397354866, -0.46931690265441234, 0.1727648295961543, 0.42979630413663067, -0.23346307510447842, -0.8791200524773225], [0.02458708898283324, -0.7313971426402601, 0.24215121680965268, 0.35997888610139595, -0.05949735191986627, -0.5937957412716792, 0.2556626136046083], [-0.4070529955681914, 0.7462492461304397, -0.3842548138670254, -0.001461408596911129, -0.12902258930464283, -0.13139782666412203, 0.18271841655451282]], "second_weights": [[0.473854228641053, 0.7268783838310843, -0.3787855516982471, -0.23268706175136536, -0.13827431711284513, -0.222607159510836, 0.5537269096886753, 0.11253576053421233, -0.8620982037510636, -0.5245538810178569, 0.08249270744492533], [-0.9480527279535549, 0.9120562464529968, 0.1649628666239169, -0.6468062062991111, 0.14098283925768892, 0.8700304803800475, -0.08196936508931947, -0.14255730783250703, 0.8314174911480496, 0.9084261319637605, -0.746387788521792]]}