{"first_weights": [[0.28468893007765533, -0.6770814591501161, -0.7014336692455093, 0.8901698557977251, -0.7281108515889515, 0.22003591304983633, -0.5586682981072814], [-0.06500110336105003, 0.5103309130323173, -0.22433191184705414, 0.9187979561423121, 0.07093332132746699, 0.750103430086327, -0.8875682643267486], [0.7857516035168394, 0.8359713232558696, -0.5926855044653799, 0.7333911340236039, -0.6169799870186092, 0.915292127958508, -0.5511212131385959], [0.5182064795464064, 0.8397501943314146, 0.5776150644916743, -0.9659030319646512, -0.523085134285848, -1.0660353657982402, 0.10464699919547026], [0.31785474416952725, 0.0958964470917024, -0.932011333249906, 1.0364685001266996, 0.5755448023794877, 0.9473071571415409, 0.26048940574364327], [-0.9593425804259041, 0.5737407832984354, 0.7163827105099865, 0.8954844163410995, -0.9984372059426341, 0.4203310538268803, 0.7108901921177302], [-0.4827955284636791, 0.41290073405044114, -0.5127560955286055, 0.2889788559765185, -0.9226675428442992, -0.13654828592675883, 0.09862987599094186], [0.029559406322615223, -0.20959805877701765, -0.8626707001153, 0.184889993556562, 0.17814012637104426, -0.592981912724742, 0.6441453811101903], [0.28313618834403026, -0.27871306827456377, 0.19648096909996807, -0.9190336976674739, 0.3233489447697265, -0.010692297603003798, 0.15846514569204234], [-0.7998518508742485, -0.6982650822897614, -0.8805013041587411, 0.9222832630719933, -0.3274501266520906, -0.17663744872604714, 0.5590337402634771], [-0.09478439232783464, -0.5365701732728815, -2.0596154782330975, 0.20879960506053258, -0.20732465843174128, 2.0417075579271624, -0.8149641400021942], [-0.7299321579308553, 0.3366015279533061, 0.5454248276027027, 0.11157357273812196, -0.18114365397184318, 0.452956209722998, 0.03929499008959336], [-0.6073593645077744, 0.1803455798213004, 0.5920371426215761, 0.3128404552632112, -0.4745604043350521, -0.8895702350907772, 0.8974474412858986], [0.4272231708131873, 0.7625142434025054, -0.9566350668865076, 0.1217943021501404, 0.8231352954766988, -0.4394652744581407, -0.381624150187049], [0.5287153989270539, 0.7269966548585269, 0.7687970558145432, 0.5272883892174731, 0.3711971023794045, 0.08617444141952624, 0.492559172578936], [-0.8559756538403087, 0.7323025903265485, 0.24540643001198403, 0.7563503323867069, -0.7666447415881301, 0.6119265586895661, 0.48728642908586006], [0.32862339328453083, -0.8165716798094773, -0.07972964876034028, 0.05630766427362044, 0.4791090114715173, -0.825635411584752, -0.4505127614037885], [0.6135180907495528, -0.7081340098797344, 0.689518983355804, 0.8429705787233741, 0.8293066041914476, 0.15034729369757782, -0.9163423850064356], [-0.6594968219798143, -0.37339613456270926, -0.8158146169499285, -0.5012232196192792, 0.7424739958478266, -0.4528695630737889, -0.22324267331258607], [0.30250479907765326, -0.4093929844932387, 0.8768189269719335, 0.7213887082989667, 0.539894609197999, 0.7733996526579328, -0.8289571228400923], [0.965803005849486, 0.5314284467588475, -0.7295700940152909, -0.8661757449744636, 0.935253208326609, -0.782834538735407, 0.647160713499064], [0.4879776597067139, -0.10608929203577719, -0.3800809884365032, -0.8335460026782966, 0.39628390944792163, 0.8942002934504438, -0.7910544514207489], [0.16576122928223302, -0.21429001549498095, 0.011144001392328295, 0.5436767879005882, -0.2796297846724731, 0.7043112266469933, -0.4602441799414343], [-0.14577888899162983, 0.5925267963076948, 0.9538305757930523, 0.3938890017693515, 0.029942592880207286, 0.577688382304379, -0.9450138659830101], [-0.08078215176879078, -0.5587642297326707, 0.5606440037287854, 0.09348897295386904, -0.7418180504005476, 0.7002614908755223, -0.35650151799975105], [0.2886000449743713, -0.5945208197179653, 0.9434718260075085, -0.5724706754286577, 0.01879849312970007, -0.5193447073688754, -0.0854571525157613], [0.4573711736395617, -0.34634220940838173, 0.6066167944673396, 0.22493996611970077, -0.21592855567649935, -0.37866468328112846, -0.7903386862600195], [-0.30654393300124694, 0.7154401182152921, -0.6113048635973333, -0.36581657032230575, -0.48143324609457183, -0.5066241371011504, 0.2927431758676975], [0.930420178550275, 0.7951965154450817, -0.35254031081195186, -0.18071455320240798, -0.19604284847998443, -0.7210483439767237, 0.5135250850459431], [-0.09796495901035529, -0.821319748151883, -0.5428162125281137, -0.3538049717961207, 0.5108621621159755, -0.39100684841237787, -0.7964465666630971]], "second_weights": [[0.12228628968805015, -0.1829595903784612, -0.15620785846593196, 0.15928444179648296, -0.25355263640308784, -0.01580604416253295, 0.865510631573738, 0.7413227667994067, 0.0058984459340194395, 0.9725574478339725, -0.297756747723369, 0.3126054792054283, -0.22460344869272345, 0.861593878694656, -0.16414485213287905, 0.9168199056816246, 0.5643125935946347, -0.7319299549159775, -0.3145338228544252, -0.05767099394894667, -0.15289279212414986, -0.5251521907826957, -0.6307733212622206, -0.12237466891576494, 0.19950546346145775, -0.012806535653827656, 1.0208911890086014, -0.5877577208014626, 0.005013430074079233, -0.5607755790214022, 0.9747871482860706], [0.2911692783818754, 0.7856451925982925, 0.102307825770783, -0.15936530980970864, 0.2533892204663872, -1.0191885172201214, -0.9096557371214169, 0.08059875852768195, -0.005954975803184792, -0.394262243560479, 0.2976573479826693, 0.02565972413797592, -0.02510512264148086, 0.8250514589645908, -0.6905871135212028, 0.6683823499507099, -0.8837496424134756, -0.11175898255639527, 0.6685842516521439, -0.18881638200229472, -0.18108433356742304, 0.5541360574846343, -0.3549668753169991, 0.9534306119773183, -1.0185139758971145, 0.013756087532385901, 0.18342463456455257, 0.21257221336780363, -0.00501622403815093, -0.3261265806761682, 0.27258101851018546]]}