{"first_weights": [[0.7817998764721318, 0.15018682605543546, -0.47684253034213764, -0.5099803196769873, -0.17089390989603917, -0.16513888932505133, -0.6987801072121541], [-0.4717608726460003, 0.7556084902539448, -0.597818748496266, -0.58159828282679, 0.12733183225969058, 0.007484610798936586, -0.9410937431672408], [0.6055767276446856, -0.8842272798104934, -0.7805345005751251, -0.7536853555341698, -0.9191157172185123, 0.5453314881939006, -0.2727945669379879], [0.6656219998572694, 0.9322839274164985, 0.3020807028274701, 0.29906164586427814, -0.3240345496983486, -0.7868258395232993, 0.21059804418186134], [0.2626626151382059, 0.056455414455661934, 0.3981662635851102, -0.08744652148254684, 0.6809930718246231, 0.2254228303201844, 0.4945265534295029], [0.9224696792967858, 0.3041025523091368, 0.47758137048535476, -0.8274732300242571, -0.2597257914227081, -0.0779963596451684, -0.7139492101192763], [0.7920755341668057, -0.5250948218811606, -0.46149244080157004, -0.8465192476681834, 0.4107670193085213, 0.9733257996291328, 0.29671968169594065], [-0.454885279110677, -0.08393420326970347, -0.8176807848840786, 0.29793263395145075, 0.4600223430798758, -0.643764546848435, 0.6502129871587605], [-0.8988645879967174, 0.3639639563170769, -0.08220415782704538, 0.8139330569023024, 0.014167513410597632, -0.8335041433867811, 0.2666236021676418], [-0.7712309372976642, 0.1665646913688863, -0.7730286070817078, -0.16905826659916778, -0.7522946208300523, 0.08251952778258742, 0.7810815139872973]], "second_weights": [[0.045176614260053864, 0.1350411141815553, 0.9495384538844855, 0.13510045638999504, -0.37237235824798753, 0.20773033403885555, 0.14206302348097202, -0.2539991313492531, 0.7075496015576819, -0.2979440862922098, 0.5169509255555659], [-0.007653938194365005, 0.7714103806449668, -0.12060760732778845, -0.13667480515578234, 0.3366518468459382, -0.20911490793842674, 0.17370341073727105, -0.28867037772926296, -0.818157589560371, 0.5653191139153486, 0.2044104706195277]]}