{"first_weights": [[0.7354655198770168, 0.5394012307618994, 0.6420582655849616, 0.853898708583668, 0.9132105401447204, 0.5148689709495484, 0.4613457618699277], [-0.4145181903545576, 0.6981200788416249, -0.4907878316172125, 0.2572142458036536, 0.7405487746244986, 0.7876215015495454, 0.5974139666708858], [0.17872142100920108, -0.2768583965079723, -0.8032776577154715, 0.828338739214064, -0.35843184163820546, 0.08499849462152095, 0.39989110017285906], [0.9947128478024141, 0.7679739014051512, 0.8976250937068597, 0.8386400176332915, 0.10613815724437625, 0.9205104597997134, -0.9486304360356916], [0.3824645893047231, -0.24131688746666322, -0.586013845706864, -0.16256942028321572, 0.09879519722555319, 0.3091430776549007, -0.6417867478779965], [0.8837817320586365, -0.6029544483709879, -0.7071091596732741, -0.10311013157249671, 0.2972820409395518, -0.5691909968957494, -0.9977566841414824], [-0.17367180961582074, 0.3003921393704809, 0.758049809719769, 0.38854949655985593, 0.3871091299744729, -0.4787964091218271, -0.9589745026578327], [0.8693797597773569, -0.34357908150943495, -0.16421019780788854, -0.04195378883805494, -0.6703524942137188, 0.660625656631518, 0.67553622498333], [-0.21846858601656938, 0.8707037169902967, 0.9233163781635039, 0.028476438733834986, -0.01583674383475775, 0.7275936254623083, -0.2600521744890727], [0.6350924041772545, 0.40347843464717126, 0.019505372903728998, 0.7757964381417055, -0.701727709408127, 0.04798203444011593, -0.08762678998555858]], "second_weights": [[0.5905071920928433, 0.5123261801485871, -0.6152260637057146, -0.04552207708193319, -0.46853737559957176, -0.23577212921891944, 0.6004149010215438, -0.5823906388509399, -0.24268135002243474, -0.3465015259286371, 0.041303719651242576], [0.16832814312535246, -0.3548433784343792, -0.6786264027350322, -0.8139152350032106, -0.23289721745963327, 0.5442376664811119, 0.2361442100781678, 0.9282799573770031, -0.3748574882124643, 0.5915141404147244, 0.09189671411148483]]}