{"first_weights": [[0.7343072285986704, -0.696553249384876, 0.07483930220741786, -0.4166929884393079, 0.10016431121623162, -0.4547793296475802, -0.9742342990665784], [0.7652000804403566, 0.9776896712073774, 5.826857858366762, -1.6674566925426986, 2.2431636635364294, -5.747800495845694, -0.05558768758276347], [-0.5023179858907783, -0.6469835972913516, 0.7612017863306857, 0.7522320597528189, 0.21032268207082128, 0.47219528322351856, 0.09330193621689697], [-0.6611061272829557, -0.6273797473560754, -0.40160172711528164, -0.40455452055277696, -0.39104517432881436, -0.4718477630721949, -0.5445353230023389], [-0.29607007021231363, -0.20404327360539803, -0.2582196769108092, -0.9179559927303301, 0.0801300419963479, 0.1731798724178875, 0.10889991057926747], [-1.5592280987700289, 1.6038038482702763, -3.2916542134500126, 4.034805460227348, 2.2617637145088088, 3.268616825225084, -0.23037783042652288], [0.30539871836073484, -0.8816843147718332, 0.4646514755566207, -0.1887984154999584, 0.12580302763847306, -0.7887127683555496, -0.3192108673636768], [0.7039421068189613, -0.570423671143367, 0.050042354276768286, -0.29536846404880257, 0.6588101453379891, 0.273145133010662, -0.47665541239294185], [0.061437414221716224, 0.36078260670626716, 0.5768616648295917, 0.5586801056148745, -0.32513020320803876, 0.20743842641102272, -0.251568357511224], [0.9522586879429953, -0.5031330220775876, 0.07330406375303289, -0.8503577381339169, 0.4275544135325644, -0.978911554799273, 0.586581288955059]], "second_weights": [[0.6042476807439238, 0.28435694493367364, 0.3075477691432442, -0.7392858784448626, 0.8077585972374066, -0.253107536100469, 0.18276043740975384, 0.5052211731179325, -0.516476814631916, -0.9556721890543396, 0.22555436365200102], [0.4082331189236806, -0.2843561468933618, 0.2254212101527854, 0.42702307498990266, 0.1894076729057009, 0.2531011895268516, -0.1907982218254334, 0.3696156559657714, 0.05480989127278266, -0.9657356787798312, -0.17168259057876165]]}