{"first_weights": [[-0.24114227562153134, -0.3722527256625294, -0.6402495955326108, 0.7057523722133758, -0.29928175415313674, -0.08257433193479025, 0.0862184352198514], [0.16575502911603168, 0.8291417885908847, 0.18591978430896927, -0.6424194014187308, -0.18505333911457433, 0.693736795487454, 0.6502737000636145], [-0.28732733979886227, 0.7435231193417255, 0.32524888073967384, -0.2746931539455, -0.014465738781963333, 0.005901964840835383, -0.6697160363754202], [-0.24311083809324882, -0.012727670712602931, 0.13354790451426962, -0.7904188052878167, -0.2967824223388775, -0.2330011445868855, 0.38186785966641384], [-0.035824954219217844, 0.9949393710174261, 0.013828872232625022, 0.06761634237080971, -1.0100854075221233, -1.1134720471808015, 0.221501212857863], [0.8547751074476841, -0.09221492598643488, -0.6449346852246811, 0.9927919133842564, -0.7024167136104673, -0.5626973102943078, 0.09771955629121809], [0.20730440820190066, -0.33110064820717255, 0.6457909978977905, -0.287933408408644, 0.618359667207609, -0.17970224951617086, 0.9730806715073674], [0.6181215905766233, -0.7555528448277717, -0.23353539456844463, -0.7826500149442122, -0.792620253410595, -0.9807880473561941, -0.8442997863416484], [0.17148113385731145, -0.8599091445395548, -0.9172020427392384, 0.38843204599409975, -0.4701167482155406, -0.3592483005997522, -0.9962320093812762], [-0.8901791408701278, -0.05209676208211822, 0.9877404142069339, -0.8803512419682491, -0.5977082600764643, 0.7913051909724063, -0.8321337779303213]], "second_weights": [[0.6289704860102343, 0.5284938500448053, 0.6600710072452907, -0.1509589986692505, 0.29464713318226227, -0.21726688730625776, -0.9405675300093095, -0.7242546428282273, -0.6920962182069876, 0.31139815078748334, -0.04401390903094573], [0.7239278402357012, 0.05683691427353991, -0.5201914136433117, -0.4685676874437319, -0.12856009772147545, -0.009011974486360153, 0.29629704039808974, 0.6827756170263841, -0.7251485269982132, -0.31139815078748545, 0.9630740407218433]]}