{"first_weights": [[1.1439321604475834, -1.7565298114255463, -1.75815757706963, -0.34211234484004654, 0.2963667173181776, 5.161891076851491e-05, -0.3636899729311316, 0.24648048433938222, 1.56944246264052, -1.2009050505752794, 0.04243219334208236, 0.9648313723359281, 0.5570644468817801, 0.20997901429334903, 0.9245696343866724, 0.5299034810998831, -0.48202592908401876, -1.8718010896130952, 1.0855656192908079, -0.718510450486872, -0.310720697997072, -1.0690956134803997, 1.9620775556934307, 1.8082388455446263, 0.026394846360577626], [-1.2041398760960387, 1.505427961757099, 1.0640640452538077, 1.797060684451318, -0.6552940852294183, -1.6434668628686053, 1.2811231328510306, 1.2987490006008793, 0.034636786198451425, -0.22738138148279002, 0.5340170406341945, 0.9228214125491453, -1.31340397279392, 1.8214619363035338, -1.9258667537041023, 1.2016118431418306, 0.2757300531467759, 0.5736794385863552, -0.7598217218505119, -0.7432016670469188, -0.5136582483951578, -1.6502485562065534, -1.472610304346782, -0.33159097554402345, 0.1507000384375576], [-0.04311455336523561, 0.9664544097663605, 1.4420394928794598, 0.1513014650431494, -1.762540615675621, 1.446686653074924, 1.115173691409449, -1.9488932590638246, 1.474967227674994, -1.7799128328699825, 0.17955706562700352, -0.21863073651205966, 0.8850879049331425, -0.59556381395118, 0.9302421368249434, -0.7669783993510171, 1.112945251363894, -0.24585641432784797, -0.4804154133767829, -1.1208040205235514, -1.9024218343583843, 0.04586178676770251, -1.428139722892065, -0.19611427846624935, 0.1297917275003025], [1.7164551999537723, 0.9644136248273426, -1.4195297530621562, -1.7759002894193456, -0.6257260292084958, 1.07901719841046, 1.316564720707597, -0.24626470859571697, 0.1674315378704324, 1.8001056425787156, -1.890231440315033, 1.0698492235857266, -0.9854414174834442, -1.6818706101692307, 0.07945049495011547, -1.9480492059317014, -0.25560993958685113, -1.6768635591070125, -0.026682088665355676, -0.8368156122034042, 0.3986817772494211, -1.5238123616732204, -1.439557164231415, 0.5986669506085487, -1.541537744187393], [1.3130423396492048, -1.5891841371100914, 1.7604864438577028, 0.6991972733642791, 0.6937096250223244, -1.0422791687834392, -0.40576476349645435, -1.9168928964024334, 1.3929099749541278, -1.3061358050704728, -0.8639412366874014, -1.771262190284645, -0.9432121527890392, 1.1619848415142822, 0.8537050524460028, 1.8106046815855918, -0.8250460766506044, 1.347904231076706, 1.3500864737017597, 0.9095954192077892, 0.5079130967234565, -1.7390261947302186, -0.3227155069806082, 0.52004353401792, 0.6155459248161108], [-0.025337939924887108, 0.7022076075717542, -1.5413429205545384, -1.5073134664178074, 1.6109138099431175, -0.006197805970309786, 0.5506972129258916, -0.10988769795310285, -0.3714627201666511, -1.299640313395424, -1.4056401343331026, -1.577829253078854, 1.0407454339496827, -0.28027204250559345, -1.8643919919530083, 1.001158016151433, -0.7505133727559192, -0.033714477055758585, -0.12036784937157291, 1.4393706613439885, 0.17936503647552454, -0.611699986480898, 0.4765315369716593, -0.8079447689301824, -0.39669381462127723], [-1.7747430809207383, 1.0420483893592416, -0.6925212504700818, -0.3633981619458792, 0.8975667226663089, 0.15813636780284193, 0.49073385167754086, 0.7025023560662833, 0.922740288268032, 1.2186982868635727, 0.013094770259304769, 0.5143581426578555, 1.014676163529393, 1.3769905409269978, -1.0107226984581372, -1.4128362347665382, -0.6390056667503081, -1.1352444819843577, 0.5934296443776194, 1.49943820760008, 1.852940650570505, -0.9662359680843396, -1.1478145682879026, -0.2116511657301984, 1.8196378776954383], [-0.8404866318847048, -1.5532164262800061, 0.5346109265947138, -1.584395310012945, 0.521901418948807, 1.6345735177922396, -1.4806394548304989, -1.030328718495684, 0.44777677557808254, 0.39005529235377606, -1.8144235932907158, -1.8280669074704954, -1.5071027792673215, -1.4862713078939567, 0.29080751660472093, -0.27534127701099526, 1.1353400790700885, -0.033724334567714884, -1.8491653630844698, -0.16471921364692899, -1.986302787044075, -1.3520952733114235, 0.5137668147133764, 1.306760372711797, -0.41265478859212523], [-1.9325010769666913, -0.1635276671654538, -0.4369728540133407, 1.3684790599394914, 1.7167926218409455, 0.5215980668398411, -1.774278170343644, 0.0265421905730829, 0.24997191822717788, 1.9146447738196866, -0.9283543547909444, -1.8923209498215896, 0.5390981710152614, -1.6276221890685652, -1.175497733977058, -1.7558659006504078, 0.8990139994340532, -0.24555210882965742, 0.35301892294439613, 1.2399304630194175, -1.1938082325596369, 1.130259723718565, 1.511030034483809, -0.5097262165639493, -0.4161813382434186], [-1.0240054039275421, 0.8288942665111823, 0.21218409251656128, 0.033182555389079806, -0.06940418996937761, -0.20411394374370798, 1.6399148739427474, -1.7601802330187237, -1.0294208613043079, 0.7337761046125681, 0.5714316669777793, -1.5671460429154995, 0.4307295441563226, 1.0998787611585952, 1.6757662088770804, -0.8843340241752439, 0.5965116001588658, 1.1345111881031142, 0.19504001405709234, 0.12466580469530657, -0.7306278704956477, 0.054484607970995955, -1.5541565449385029, -0.5508945297978051, -1.3598137485171362], [-1.143904151097607, -0.7752752651534691, 0.6779868983299496, 1.310226567039631, -0.8677741240226281, 0.5579205132014187, 1.1245670421254308, 0.7945171329122396, -0.7580655236321959, -1.2208510041790777, -0.07371671543618935, 1.7501522457117444, 0.6854994334585658, -0.8168009699599235, -1.3423376565305394, 1.3191960955452324, 1.1895324981538042, -0.8149416939944183, 0.33709824282363343, 1.524280931742256, 0.5842856184082301, -0.3486517475299473, -0.9780452404837813, 1.0656753660301408, -1.9833277040252402], [-1.9710527668893887, -1.2669949533500227, -1.953429719549492, -0.6141449519365171, -0.512256029495758, -1.024839905466017, -1.9873122253342903, 1.9584510536256634, 1.9916261398977932, 0.9289239552417771, 0.2846157509887176, -1.6954304474338198, 0.37226052190327985, -1.4527520179890545, -1.6982378457313012, 0.9936499092537745, -1.6643621331506768, -1.3522156591613501, 0.540972185033937, 0.033530274118338005, 1.4082883681152958, 0.7923084240710387, -1.1562626310768318, 1.159898207809602, 1.9200204063097361], [-0.7153575031421441, 1.5740721893903962, 1.4787723325643096, 0.6300671582080838, 0.6351973986482556, 0.2627429065169984, 0.5334397018218878, 1.1560281944475408, -1.8665471972985184, -0.37855487693478274, 0.734276136100566, -0.517061723960795, -1.3497088728242108, 1.7817951047533864, 1.2362527835395405, 1.048492257255722, 0.41588634139551467, 1.5462717220029796, -1.5807006570140394, -1.7044829936111272, -1.6128152041991926, 0.8174426882453196, -1.3833111578544282, -1.150460733707939, -0.984003529093289], [1.4728482205570217, -0.8223811676469354, -0.8568661252918078, -0.1615733063609357, 0.507529894588226, 1.1739863542920077, -1.601510559778394, -0.36647231604775354, 0.4884000967084454, -0.24441083030536817, 0.4934415073756262, -1.5335721260375932, -0.4117836985014435, 1.4047324659941727, -0.9795641174491301, -1.0828509445261805, -1.1678125884087698, 0.26215656894243994, -0.03815220696416498, -1.4231847146809102, 0.9056124291142154, -0.1323111828996465, -1.6978180114054153, -0.21437864461459769, -0.15378343956487908], [-1.8769850214023458, 1.3567580387003921, -1.0396485064820342, -0.7473082221555036, -0.5522669289307494, -0.33599607839226675, -1.3610336730093098, 1.8043973044184491, -1.047754422894491, 1.7826013802075542, 0.6631720611742024, 0.7938939442104019, 1.5315240475335896, -0.8838357915189449, -0.749746904864369, -0.475885902006764, 0.3723799472737267, -1.446813306691308, 0.10717786608795087, 0.8853630331348363, 1.3713129048056112, 0.5143641906483409, 0.6280335211144779, -0.3778206248050999, 1.6127024301865958], [0.8614991074191313, 0.7179761300080231, -1.6915994311343918, -0.7643791284883128, 0.2557830620880687, -1.046364825028482, -1.6089745497995664, -0.8656700215871601, 1.6309542915687536, 0.40419557812809964, -1.4056576511615921, -0.887257378227265, -1.8994841567642633, 0.6814993722267867, 1.7224928141830698, 1.7256987915396336, 1.314757375515588, 0.35262536717136406, 1.2265629225154178, 0.23913129131803335, -0.3276917051361642, 1.5413275422978283, 0.372997272538867, -1.9429316546910025, 0.7373271117005326], [-0.27733511097631214, 0.5302092939194093, -1.125039467436005, 1.9615995988876165, 0.813152396103983, -0.4920264045324628, -0.8376023942230115, 1.2663634440636908, 1.6764497101199427, -1.1387065752858765, 1.0558541130961951, -1.2982526914699772, 1.4365087986537737, -0.29213347325291306, 1.938511597048305, -0.8988253816379246, 1.4104272929835706, 0.817488713726339, -1.882481167396751, -1.9631694053596072, -0.9319747436142283, -0.08672199385501075, 0.9912356384134011, -1.2402993855272617, -0.9535540739957777], [0.6131918805497345, 1.9513324976940907, -1.776581905969819, -1.9625666017944494, -0.8353960692903569, 1.5492450969754608, 1.0251074653087726, -0.40865018490386296, 0.2552548155402011, 0.9634724785452977, 0.6032764423776239, 0.7280207148197801, -1.0027371819954596, -0.5079745175360607, -1.620647448663358, 1.8371858087481638, 1.9259168049741104, -0.7896493454796881, 1.2239450134820506, 1.551488356271343, -0.47236215830011846, -0.34636469389772234, -1.9826046632542136, -0.01946848261430901, -1.611303633696096], [-1.241059839375405, -1.8014284362417787, -0.67732520066309, 1.5089131631597288, 0.19858161183834844, 1.66637764648634, 1.6378264116105623, -0.8669653750048087, 1.0756609023416055, 1.5772322571343937, -0.04438213554062182, -1.3276587717373507, 0.6717264291256845, -1.1675393256357702, -0.18782195058931636, -0.9310117063351616, 1.6533072272482103, 0.612375330742572, 1.820253744712881, 1.7907682054857506, 1.7632952167516238, 1.385389278509599, -1.3769855428826105, -0.57895589621078, 1.3394482454876975], [-1.6157877445035758, 0.538508138759587, -0.23572972391103544, -0.28519949642566195, -1.8965134681464402, 1.8145859048425346, 0.9435945276610643, 0.21607267726187537, 1.6636185539687063, -1.7449122934717811, -0.1291125148311191, 0.3506726865218792, -1.8533967535310936, -0.4489380915030355, 1.153385892749291, 1.6087632256528648, 1.7033682970504778, 0.9130591725897558, -1.8836179307522356, 0.27909589477356395, 0.7914675250077574, 1.0121197127192196, -1.05636637667449, -0.7271085086989482, 0.8980859969354367], [0.44829303077695415, -1.8104940466167008, -0.8233997861670308, 0.12225287006532215, -0.6944551204862844, -0.09079872336077244, 0.6297389065809142, -1.3080525832448322, -0.1205245527005279, -1.1920409183311358, 0.9737096316759504, -0.956859889100192, -0.6460900453073694, 1.268440077329338, -1.032450412142943, -1.473485716868351, -0.2923378659144042, 1.456411583745374, -0.6912693745881594, -1.5226733223828077, -0.2113412161070128, 1.7354031276215944, 0.7124103464349724, 0.7320072548067791, -1.8127744779025676], [-1.9680153762704857, -1.2364925047806328, 1.7199041802186381, 0.6869453401501279, -0.2428948188241492, -0.5106692944759053, -0.5474965967525025, -1.0155449329334076, -0.030780991331770927, 0.9870601249877221, -0.005271218640070797, -1.6252184516790715, -0.12098223846990838, -0.5681294213451906, -0.62942540825926, 0.19091407325525242, 0.9535944611575644, 1.8044884554314318, -1.991239907275413, 0.7193887579950018, -1.9090703691732207, -1.168474034593474, -1.4760165146417075, -1.6640588707273123, 1.6091517154234953], [-1.4754499952660496, 1.42245755816925, -1.1298071506792295, -0.9225735234237928, 0.9138328394009951, -1.8062375298491364, -1.464746372036619, 1.86532197288574, 1.0552198641719563, -0.3710115530213145, -0.6154995187551127, 0.938440821376155, -0.12698676553244415, -1.5649162844625721, -0.1904358821750622, -0.5814109858587514, 1.2008106793878315, 1.1343296814124917, 0.3440118414386872, -0.47352361273796867, 1.8198463387204573, -1.769168624263089, -1.1548216568183203, -1.050259262070613, 0.9806017134929129], [1.2353041993637357, 1.0555238069077946, -0.8666733340493653, 0.857394622128633, -1.4976072654747594, -1.8866270629228408, 0.748417111669145, 1.1800446423097128, 0.7050468210790058, 1.0829581832123234, -0.45237246552161375, 0.885836108235418, 1.1854102894737748, 0.047167263611774694, -0.11227953946096521, 1.5642203493151448, -0.6017179754101987, -0.5930749553782562, 0.6754023265268382, -1.225990023663247, -1.8783687195024223, -1.4455414185027964, -0.7014874806382543, 1.9606265193757422, 1.167397143187383], [0.6607134035866659, 0.15437370363422231, 1.1686623722538287, -0.11970642002099723, 0.027087140741448357, -1.7196165029128594, 1.0557068438029062, 0.5171152188143213, 0.24364507084624173, 1.2915881000710492, -0.5929925851311925, 1.513565737654582, 0.09725353375583908, -1.8838062506893731, 1.2525914382739904, -1.840780662532097, 0.9713234439821102, -1.6023805825589235, 0.43708073034860273, 0.7289649988183906, -0.3124180185604627, 0.08936814463639373, -0.3616605993141946, 0.7929508170061486, 1.532234392310832], [-1.1659745769191086, 0.5122883408684349, -1.9092799433230516, -1.192929397707287, -1.5690995722897232, -0.9129319018986631, 1.872325374817629, -0.3375688161970165, -1.7557038444543698, -1.042178252662952, -0.91344848228497, -1.6953045665034108, 1.4292759698258426, -1.3096564993590896, 1.9101096616416124, 1.940516762133375, 1.261662968385717, -0.8006068234429611, 0.3129515405481265, 0.11229090577029625, 1.5773538284130024, 1.3385495815815647, -0.6690473310438828, 0.8006556964448259, 1.7553872417558976], [-1.8858166796335525, 1.7087620111427055, 0.19749600179811644, 1.5928699824998933, 0.046256159344685986, -1.9423827664361881, 0.1994743854106625, 0.9416570914564303, -1.7204074827087117, 1.1484256325278226, -1.2010303802549154, 1.0181276745395174, -1.4670882670776075, -0.2586458452292274, 0.3029734184037887, -1.0093541076847459, 1.790413777068281, -0.8703436867098068, -0.9828112894907922, 1.6868329499181092, 0.8873467829119165, 0.9067160502190446, -0.30171350664176927, -1.3726049363567214, -1.286086410822417], [-0.38719411941742166, 0.7324374687880667, 0.02520616430121573, 1.0665282410751271, 1.5553313023161737, -0.6532402099570004, -1.7006113606970426, -1.8239332167935716, 0.4545554350993348, -1.6697398358943567, -1.1697425342169987, -1.9926762374906242, 1.1674777623230885, -0.9535786299349648, -0.9877553050197773, -1.4534007985074051, 0.8169093504112088, -1.703695095909801, 1.2558548372236837, -0.07941308137179642, 0.8191071278796757, -1.7858134613539878, -0.2729526898961277, -0.39411386819251065, 0.3924524309508976], [1.8554280380747818, 1.5388096513402196, 1.4466446235887065, 1.1942089679561834, 0.45887126162639685, 1.037072441305405, 0.7786205820941976, 1.5816814593450117, 1.8397537783157176, 0.25057669858934806, 1.1421621860196578, -0.5916735696175764, -0.8495039141752616, -1.70716358191738, -0.9347359984221799, -0.3652742588230078, -1.439162252859139, 1.6255319730950526, -0.04450151695960176, -0.4717061593783561, 0.41905536009103, 1.3128532647964593, -1.1096341148027393, 1.3820942979370174, -0.861182380045185], [-1.795469024584608, 0.417000615326268, -0.9318191790128144, 1.4526614217313634, 0.703071364455388, 1.4010117984349668, 0.1935140721467914, 1.9189026913467992, 0.3179936771569631, 0.8533313142769146, 0.5624995479279374, -1.6820449539012208, 1.1944740392080688, -0.07369900823724232, -0.3863020849772032, 1.457068322891885, 0.643445509801226, 0.029426100748068028, 1.6311165955619824, -0.13173829935884837, 0.19765557130715017, 1.2336446991840038, -1.6421315787228672, -0.04262153225744451, -1.5640000634569728], [-1.9579477405419983, -0.11130752896692855, 1.062331239722892, -1.2895727791189544, 1.6395935881118442, -1.2908098852636962, 0.3229434616324569, -0.28899165245585523, -1.5171440472501965, 1.001063273712462, -0.9864903625669466, -0.5040429196865454, 0.8967779060859005, 0.10901951125208778, -0.3847674579857723, -0.000820195799870427, 0.22996015110744153, -1.9295244674089809, -0.4030107276014297, 0.6942330966485998, -1.4777507560298122, 1.9675713700887256, 1.828944153564832, -0.12929738543776118, -0.6924673811294482], [1.1158802725308974, -1.31723777256785, 1.6639348523392716, 1.7196289809542191, -0.11721320266326778, 1.0002820843308833, -1.6187871446492452, -1.9399815062908927, -0.06404206306778859, -0.2790411250012251, 0.9990795666972269, 0.4962321101279459, 1.4125324480637862, 1.4506806024411376, -0.07588641579926214, 0.20164598477854612, 0.6512061655904994, -1.0093888857559095, 0.9375419667876767, -0.9953842154574681, -1.9199946497513019, 0.9426809578376039, -1.2219422844632069, -1.1782605254074578, 1.3020068825825812], [-1.3031975122936703, -1.6079879633867529, 0.32472494777909144, 0.4298974724579204, 0.9487781559145552, -0.9974032474399931, -1.082330514958892, 1.834611697999663, 1.9872776903536664, 1.364953673502754, -1.491472461144857, 0.09159023214069151, 1.9527276596959637, -1.1798590416255446, -1.9657571622010859, 1.1563366882999653, -1.8160117271409997, 0.06325196283850355, 1.4763234077708574, -0.3386267673993129, -0.8337769589211678, 0.6945316484481288, 1.5560370828532044, 1.7867045769546863, 0.3134491377955099], [-0.37038317313709906, 0.32676502831803306, 1.7050027992183536, 1.293033662753423, -0.5740127564443618, 0.7323607688288424, -1.8724917787966329, -0.6121992016293286, -0.7114446700357713, -1.8060306555784134, 1.4108136588080757, -0.5435616164749542, -0.5809786122647091, 1.7013520658921215, -0.81064874909681, -1.0456888261659276, 1.2381002813360413, 1.401993559781245, -1.9309382638440953, -1.6056828442506927, -1.4905003278245046, -1.2650346149488734, 0.7879653521469565, -1.5334790112051122, -1.2210359983712034], [1.4057855748252546, 0.40646604960908683, 1.8797637650152346, -1.6660807421459216, 1.935117412951756, -1.6154157476955056, -0.71344140919426, 0.6458474202507023, 1.809435649400443, -1.8772881633875533, -0.13700788926789606, -0.4208919351604504, -1.2169007259378466, 0.12389925306924425, 0.6956091136281652, 1.5982136114929983, 1.7392312302473074, 1.5009576870011494, 1.7184617478055348, 1.135026971653404, 1.303558937786802, 0.15186428870985524, 0.7621374976531139, 1.8255904944676773, 0.2343888777365676], [-1.0770946058031345, 0.31043364938402995, -0.06454190986197549, -1.6337749773122991, -0.1367094777521671, 0.9956018554362732, -1.954045046640158, -0.41822648931052336, 1.6907787057025905, 0.6652668015483982, -0.9555376099667956, -0.5027691775103719, 1.8771525887362077, -1.820622836283563, -1.8756435746480862, -0.7932383809286252, 0.05901906799125985, -1.5318643818206374, 1.2432483098012803, -0.353620221691898, 0.4420443754241018, 0.20826031285036561, 0.9377786539574029, -0.8219980794620134, -0.4617686415633026], [-1.3448844740680046, 1.3207419320786309, 0.37094720368435286, -1.8020086362316161, 1.9263160964448323, 0.38904629759041043, -1.319986882652098, 1.5887987417574063, 0.4976008552605726, 1.8984967860086384, -1.1828204516404768, -1.406895751868608, -1.6908842462324052, 1.215896475416077, -1.330276279227663, -0.1556527566859116, 0.9162253052048803, -0.7215633318089996, -1.584528493386525, -0.3884995467806672, 0.26611755274798443, 1.053834337875755, 0.7231092369013248, 0.8825243668569934, 1.1596342439125118], [0.11381149651252526, 1.17620891855003, -1.6120383225928434, -0.48836015805290084, -0.6163692496640899, 1.2577235973792187, 0.24538532013321704, -1.5178952554984069, 1.979740932367565, -0.6050671787140784, -0.4019082227460964, 0.9514886745733262, 0.2956159816157487, -0.5073787887757495, 1.7294578465861663, -0.596701340622875, -0.7378414987926766, 0.23552891556000424, 0.15011221732095487, -1.1199236503818097, 1.252638073917634, 1.3832540807180873, -1.3734493719204666, -0.3224481418749705, 1.5586712284387219], [-1.0692032791418438, -1.9276099540248812, -0.7482052550571328, -0.7823573037862832, -0.6451474532805412, -0.4462588110412986, 1.7912161201484693, -0.03173788142024598, -1.0905025175113603, 1.7270850335813441, 1.119646611695045, -0.546410868641704, -1.7288359599586303, -1.5939250460639562, 1.4194913076808167, -1.870695232385953, 0.8793061010431611, -1.474645372527658, -0.6617051544144151, 1.3240217191527592, -0.7145638793799366, 1.1408953635093984, -0.47631850587896407, 1.9545231568454993, 0.7696637318811489], [-1.8212862311167661, 1.2017094933846622, 1.691229728683233, 1.476734058751737, 0.09245231565477863, 1.4128085678607454, -1.7224025992910175, 1.912005530752554, -0.42062651159733544, -1.5355742361442384, 0.7045310208715845, 0.9844702587851294, -1.526377191789167, -1.7516915390538275, -1.9339192997736905, 1.7859071413434608, -1.7231245268020041, 0.8299131004919404, -0.6986866557090832, -0.08776856507690196, 0.6075931131735381, -1.982361943925482, -0.9559379959331162, -1.9235671413629716, -0.9070703220870029], [1.8022125595988836, -0.946556644197396, -1.1811254001111389, 0.8060729395127676, 1.6221115848684897, 1.82173104193756, -0.5283472249629177, 0.2378846618953218, -1.913443529381698, -1.8377651751252404, 1.9300475636691723, -0.09018664049533388, -1.9501441283154437, -1.0966754727799446, -0.23726886291766508, 0.4684713768845207, 1.8774844120005376, -0.4341461536630943, -1.9783612643531359, 0.30684304312262756, 1.819836705117665, 1.2502074525651237, -0.5964917466738228, 0.914551023685475, -0.38735839216058904], [-0.9486251830086269, -1.504594473795281, -1.428492855343796, 1.4810206261580598, -1.4132439489100384, -1.4637987800622743, 0.4672945165630437, 1.2518851975419591, 0.23779552622815342, -0.2749783787396496, 0.1915368150875401, -0.4152868744569271, 0.5116495760759597, 1.3649437915221234, -0.61926655025245, -1.5748960990073995, 0.7794677799229673, -1.281106836584054, 0.5252129638871359, 1.7922776117273183, -0.8896347891342197, 1.2408224180869392, -1.8409025693849825, -1.3317655149595005, -0.9270750356789658], [-1.3038015800210074, 0.8577482045966174, -1.8991137067383947, -1.5642721363501877, 1.8386081083778096, 0.2885901355943676, -1.404457624833776, 1.728854331752003, -1.38469958091999, 1.2964020303156547, -0.11015783309939288, 1.372860605315457, 0.5694253790656519, -1.4770685740059804, 1.6856348586905205, 1.8593235792678982, 0.35774198933409235, 0.3779562067148713, -1.1961664047597635, -0.46348598157538884, -0.8711518813289778, -0.27101186002149036, -1.8061941315493277, 1.2801295069402567, -0.8107823023869253], [-1.7315099394769882, 0.44882071361078113, -0.2163375752783227, 0.33657049730079164, 0.9682290375448737, 1.1031169228225433, 1.655946783399335, -0.6415141244123069, -0.999287408627867, -1.4904597390312202, -0.1205348063855243, -1.40545082793469, -0.5354673272179183, -0.5893520910251575, -0.8362617502107043, 0.1782222115164424, -0.5691604728491018, 0.19354588963865904, 0.7433312599101591, 0.40580233170017804, -1.6350335245722023, -0.5854533036946522, 0.5412630313723861, -0.9076735029411483, -0.28441792461733345], [0.6143242279808306, -0.9391613175367579, -1.5457124350077747, -0.8029475443402811, -0.9655934925562542, 0.7869783004893149, 1.9901415243228406, 0.7579693476534127, -0.3877807598637072, 0.5189598880226628, -0.3620047108192556, -0.20950521619685175, -0.5090889719497509, -1.4728357342075136, 0.6638394011414737, -1.1660963718897692, -0.9569065867108363, 0.2084796636127397, 0.7649398326581308, 0.9899933761276432, 1.5524514856438167, 0.9098218528376376, 0.07088694835400525, 1.3305819967806225, 1.9513843077387818], [-0.18443867037941428, -0.9106666364199261, -0.0038428231228984674, 0.21118208791594043, -0.06312535427020752, -0.3556804550075003, -0.7316438789592308, 0.22059140282813308, -1.7931525681156393, -1.8865631941657066, 1.8466168022874865, -1.3065617343177507, -0.6786708436067512, -1.7683710487000883, 1.054533476092304, -1.9661383267833317, 0.7167936532293263, -1.7125270758365814, 0.80135669231556, -0.9139573013505605, -1.9575119086166322, -1.5322573341888122, 0.2238418867519563, -1.1823527539418466, -1.5882028233129577], [1.3254545467221088, -0.8475069513399404, 1.211298657791696, -0.996140871135912, -1.4998483030888188, -1.6618626208406226, -0.781454771830567, -1.675156675045326, -0.6779034111512969, -1.1912591353897564, -1.8818335386384948, 1.8706486275875778, 1.7124345465816697, -1.2924612823325174, 1.0936337872165325, 0.12372388934220244, -1.9147218374781487, -1.7463101192403265, -1.9951973805803502, -0.9282016556850278, 0.7176556016003197, 1.260261013005942, -1.1918550015465281, 1.2158904855872381, 1.2222694971507149], [-0.42006670992162065, -1.901761550099931, -0.25317613586292137, -1.3441465066071854, -0.3071546893523775, -0.6266813433434567, 0.1800995388490048, 0.8271329538707202, -0.688711702972687, 0.4943692083988691, 1.2864693387458057, 1.1489057805782334, -0.7288670360583768, 1.5403193378873845, 0.5214149802657214, 1.5491120192005843, -0.44833748219301583, -1.2418663550364588, -0.8320752863616427, -0.9179384290102389, 1.2139308567548883, 1.987951830705936, 0.45779263761425176, 0.44165440519265, -1.637770939140169], [-1.1796137372710818, -1.174064703484161, -0.9943520404274997, -1.3163502517566257, -1.4613998618741733, -1.0127789994686853, 1.8815315298112116, -0.7209267809523864, -1.071895066521836, 0.12033158629883667, 0.9519678758409407, 1.749975168055441, -0.12568757612800158, -1.9779973884710622, -1.5956637371250133, 0.5908834321795672, -1.7204815372008164, -1.5092298711851933, -0.019007918128697197, 1.799181900146471, -1.224372449924464, 1.4622271384791032, -1.3249920930028047, -1.703406960671682, -1.0369439872052841], [-1.791160520773066, -0.057595531671667685, -1.9706748360988635, -1.3603127154301917, 0.5731744374232789, -0.7938239503755846, 0.3520933419336626, -0.7077649578453199, -0.7830493539184072, -0.9908300698875084, 0.5196071118430209, 1.4883411554093124, 0.16095189828356604, 0.7656681114863192, 1.2122555986662034, 0.7496966725322092, 1.5250968196595311, 1.6547670182941638, -1.8690725632352234, -0.1352503859674113, 1.2942394165636777, 0.42852659257286924, 0.8343526641976111, 0.0894849719686368, -0.6875711600000677]], "second_weights": [[0.03366561159436273, 0.03306268914682473, 0.04109438663677349, 0.002416091396775562, 0.018327681806538463, 0.00030770900547890593, 0.037561784153346454, 5.449019229514337e-05, 0.006265641937164199, 0.004284838824365703, -0.0032746655658782383, -0.0012770119854317108, 0.014508637841485409, 0.004765864046031908, 0.026327401321911324, 0.017435402890859753, 0.03844233611625249, 0.017557121677726398, 0.038151709984449, 0.022328557263095912, 0.0005290544871838064, 0.0006760784495436915, 0.02434324286944191, 0.02751975234468558, 0.03828873432903862, -0.027665509779123687, 0.010803702394148905, 0.008758540410152534, 0.037359495536480644, 0.024380699837750697, -0.0067008853203134825, 0.04367731965566031, -0.0031413666682066, 0.002957998534232964, 0.038441800706094195, 0.006350848334385152, 0.02495894113578024, 0.039710612498678424, 0.007307840450864506, 0.0015250010756585857, 0.032553558954419116, 0.0009512502252853333, -0.006492421552993255, 0.0028530365865750097, 0.0313101111643303, 0.00017670916136359574, 0.0003580839421901239, -0.013064547476958899, 1.9047203053818438e-05, -0.022951695851943094, 0.03853335765552571], [0.02991471218956964, -0.005960382029216346, 0.006814221066844646, 0.0009290197996414964, 0.03356369270514267, 0.008371207706543418, 0.0346896974377341, 1.893629100282486e-05, 0.002441658223374839, 0.02727399515376892, 0.007041863874289201, 0.00249230289366667, -0.003866346195474257, 0.0006603978567090037, 0.026395581354391788, 0.0236779006144847, 0.014199314522909689, -0.005646928654276955, 0.03525747864091868, 0.004881713106693928, 0.0019386542696017226, 0.0006903680793264124, 0.015559294958312198, 0.02309639807843254, 0.03488882955268191, 0.04623409526753369, -0.0011601239846624524, 0.009707491581466861, 0.033405148873555085, 0.02118190092776551, 0.022629856968568843, 0.022752807469219507, 0.028248597269812215, 0.0008916770598678514, 0.03549388434075566, 0.004038933836396228, 0.01866563357308741, 0.027064251524414884, 0.003495835453226386, -0.00020504083098901415, -0.006637892464447669, -3.9901965894314485e-05, 0.005189647245064944, 0.001692322617957601, 0.032972498846048956, 0.00012803376233847379, 0.0011954540174304862, 0.01812161528884638, 3.942349392549728e-06, 0.038349081685503585, 0.03552756715440871]]}