{"first_weights": [[-0.8143297343341029, -0.3263716274240367, 0.9808368740011327, -0.15591513013214758, -0.82391878574047, 0.8896476654395676, -0.1957223598038116, -1.0098741534220395, 0.11824915828637111, 0.493119241595426, 0.4140412586199168, -0.872748151041877, -0.5543035533169969, -0.4241315842378537, -0.6868277525068793, -0.3293103043527842, 0.15884442305646196, -0.8820500471985913, -0.022433284907080006, -0.8963130401336068, 0.3620346144482123, 0.12226389854923714, 0.23624530960008536, 0.6006320845696327, 0.5329423707726327], [0.981827639354041, -0.9458081820133064, -0.5370107494414768, -0.10498758718931302, 0.9102918930952221, -0.6525544087594696, 0.7535458589542563, -0.12380673009397547, -0.06944272736192202, 0.13256271798928657, -0.4352409447731812, 0.24500665731282173, 0.3231137161462267, -0.14098451083991564, 0.2421733562898162, -0.7956902006788448, -0.12360317917995009, -0.12387757387513844, -0.6319425143210252, -0.796879693730811, 0.2210020917662848, -0.1372328043928817, -0.9416288508782594, 0.8980710184360103, -0.4417288688455339], [0.9956089402492143, 0.4243618744242388, -0.3718198187989023, 0.40053445984551067, 0.7499573413295245, 0.24794589940444772, 0.9559135819317568, -0.4973445078883068, -0.8775422000433478, -0.4916254138746064, 0.8977038058552859, -0.012087840284990051, 0.6882412677896421, -0.8356843813459256, 0.47035658332742575, -0.1437389073976742, -0.44625737625394923, 0.7528042072991906, 0.7468722279406896, 0.6781586338277961, 0.7230007639819768, 0.044602103260263024, 0.9662178810624438, 0.29487225664580186, 0.5563125552188484], [0.6673785555805775, 0.7118348015703094, 0.8905127422810643, -0.22322020309251564, 0.0518227748900312, -0.8092881221262318, 0.8899479973544155, 0.8343079279374208, -1.0312209905810916, -0.018822334866765388, 0.7561521007537334, -0.1999087024273648, -0.7014281430329736, 0.3603555568304751, -0.5913705715809606, -0.841569561585986, 0.5200396050395782, 0.40783814459855716, -0.08220611859372243, -0.18030504847622, -0.44190445036091364, 0.06998198252433631, -1.0154534865833433, -0.8523242328171057, 0.39584068783032006], [0.5022469737674562, -0.688886110742294, -0.5012384847353931, -0.3927997259696701, -0.4271018179568272, -0.6584833553794032, 0.7203636655239939, 0.26544443378727195, 0.346335095406046, 0.4335861729914027, -0.8477642520479813, -0.23752746371325312, 0.7278822304335861, 0.6956180115088997, -0.12482647506721052, 0.6276858121810119, -0.38618414490658415, -0.4355459256635892, 0.1695326699601814, 0.7139780524729963, -0.17628070730698292, -0.15743733175914232, 0.8091368393442476, 0.9881853171041375, -0.14433157586713702], [0.012891922456929071, -0.12883773117882802, 0.32696120858501093, 0.8862421428049576, 0.11437942328331416, 0.006754235417083424, 0.715533064563324, 0.2164801928483748, 0.48667492065709006, -0.8832762526496581, 0.16534563026285168, -0.03247420106202054, 0.6949157188629603, 0.884523711638141, -0.5028351967634507, 0.8170535001189404, 0.26687652690660163, -0.45587985303195255, 0.8086038358832333, -0.8616532579698266, 0.8138788434165138, -0.3304926695053937, -0.5622931418974944, 0.6766125414450427, -0.053616650771136316], [-0.49318372935945914, -0.7100498796874571, -0.9701848190468816, 0.7476215133842584, 0.5456292146009104, -0.7734106247650392, -0.97604966588866, 0.31233500370749123, -0.7814589517462927, 0.08346691739969916, 0.9440975674180369, -0.4303900865093654, 0.899187738916768, -0.8638429068127621, -0.9745085794513301, 0.8700817934157987, 0.45325216724984085, -0.644674775436373, 0.20172901103847482, -0.6704730189303155, -0.8226978797306224, -0.23621561742519903, 0.70539842308785, -0.1844919953140849, -0.14215704264473375], [-0.5213556001952149, 0.4892205948873225, -0.8831987448997994, 0.7128111880247099, -0.4574116605327149, -0.4728534284883597, -0.9221162316362328, 0.12378940980985477, -0.39862103347517297, -0.2024777219805676, 0.48396658728327496, -0.8414381457697182, 0.6043462616900136, -0.6280071316081086, 0.7172632361521871, 0.31282496706505303, -0.7889394162316273, 0.5368316584187423, 0.9977856718690641, -0.6444186961038254, -0.0817580990926715, 0.5785469810328631, 0.9623605219698509, -0.08302114889169669, 0.8279262569736052], [-0.2763546710767809, -0.7904094642040113, 0.36391094681733627, 0.7738367691662366, -0.28129108105331496, 0.6061167321702385, 0.4959460175141642, -0.12616066234614406, 0.9846260677160781, -0.3229565917462746, -0.5926615951845202, -0.801540326640454, -0.9185166299490922, -0.6194241403949625, -0.598651646395055, -0.2497646333851781, -0.30454711956400615, -0.2150067511103653, 0.3574113137314647, 0.6221727927350706, 0.5647652842956931, -0.4106644494034939, -0.07723814048792345, 0.6955924939626588, -0.11172550762031665], [-0.8422692537580366, 0.5546609171341402, 0.899671015546337, -0.5338919527909147, -0.8005496338401493, 0.758384986713408, -0.7342238391651319, -0.0931550598881313, -0.22638689758571448, 0.12411718177392111, 0.08355967646036845, -0.2825770511447744, -0.7709635720529273, 0.6391054211673027, -0.78736963548483, -0.1858870651914223, -0.07988118079952763, -0.7571713039816503, 0.0931281667782415, -0.323047857301513, -0.4962270495912534, -0.04597960436928426, 0.03387120550321681, -0.2340364686876203, 0.6201427525103635], [-0.990542725175581, 0.1352763844446571, 0.31505256560143713, 0.4806168866563179, 0.3371368761672477, -0.4468094169389807, -0.9784495037712462, 0.7551200886449274, 0.10239611466318746, 0.35226149155055336, 0.7738800541919266, -0.10576532513805594, -0.6222191243773043, -0.46703966363472127, 0.21599011594059217, -0.030722305153273774, -0.5047534203443549, 0.9183389341288017, 0.5979674923058405, 0.6062308305428422, -0.3638466607044998, 0.5222565537269909, 0.681807576969713, 0.24959902709284318, 0.4448858070042578], [-0.8686553801414553, 0.18858708052076104, 0.02813835681048932, -0.57484835523813, -0.42210194593147377, -0.6351121720740212, -0.39519826635933686, -0.1790572522651475, 0.48499737237328316, 0.44776420560524416, 0.3018067978103109, -0.3869626039090365, -0.4514251733977602, -0.2243028628451744, -0.3580901020194218, -0.9157944166397793, 0.762867705313632, 0.4020145159322263, 0.3345360381242195, 0.5108166519791664, 0.6111191122038856, -0.4413146276572801, 0.9866953392645059, -0.01317529201424104, -0.32651277990726013], [0.8691211772110847, 0.7457673298084684, -0.35135401436193814, 0.11019634824302059, -0.926015573429297, -0.2505508486162647, 0.3066638375872346, -0.6584450141905686, -0.9622439705638454, -0.8977219773460826, -0.5563799349712777, -0.08412978340268416, 0.4373904902813581, 0.24444376423608866, -0.2503882326639799, 0.049670076956258136, 0.7342159919467197, 0.660430199169363, -0.5012092577185431, -0.25108871922988396, 0.48213311527618546, 0.9168104028596581, -0.09464484390921439, 0.7259490979649181, 0.16762396092817508], [-0.3502922968720955, 0.9808371980390751, -0.08823066814141159, 0.2647646173427968, -0.35502903462028385, 0.44855989981657785, -0.562468958214135, -0.2988770756323193, 0.6595246795748178, -0.6227790730553155, 0.3188205550796591, 0.817746259912533, -0.02369804265739936, -0.10701006183359545, -0.9922207321973773, -0.12074850858079567, -1.0074309841774476, 0.6851017347723767, 0.7444484886659286, -0.9639210074905874, 0.35466565957180135, 0.20656437376451361, 0.003634380778198111, -0.8006688743166931, 0.6843778242146091], [0.34360539079099034, -0.8059969801884104, 0.1575238290934026, 0.23999063402928159, 0.3211268950028692, 0.7880358742467825, 0.8686488123240826, 0.5924163860155098, 0.3040107190246848, -0.7021888847193185, 0.8881173158918828, 0.8579500709689973, -0.7921044558611754, 0.031850988372339725, -0.6436454112202906, 0.9213220607703942, -0.09662321623273161, -0.5351121339929273, -0.07914982700598529, -0.6097435014062443, 0.6660332084162911, 0.07186493208384387, 0.8672709931677371, -0.23697765243654786, -0.16119327479110396], [-0.8874329518596361, 0.28480715675074897, 0.23176873506702958, -0.6410811417517007, -0.8661689677716787, -0.907197838741011, 0.261157599073534, 0.834256446236758, -0.9494449252615461, 0.8089974953563587, 0.7128323529628555, 0.47262330522209883, -0.06819263483755512, 0.5067522376746635, -0.3298693843353073, -0.23442023634341794, -0.6189782816749182, 0.6428424771072923, 0.6257194624085636, -0.06798468743089435, -0.41910014899601, 0.08283000002593147, 0.5328880843074072, -0.861927413321814, -0.38491157160300615], [0.7761390437822081, 0.7056734172185898, -0.03877690631731304, -0.7424458586896494, -0.1441211380321857, -0.7904160310380339, -0.7514158112951809, 0.2971404360646185, -0.7796211139592231, -0.8524089841170057, 0.544245684510855, -0.7624389178605653, -0.8456870476925407, -0.04026444862227657, 0.45991785310808314, 0.0021311997103499914, 0.7789589465188524, -0.02262814064583869, -0.20912935073740108, 0.5682622662315114, -0.15497908031050026, -0.07126548850599043, -0.11354852101302192, 0.08883889933704424, -0.25505075438336855], [-0.33929829965075325, -0.5870091155262498, 0.10194118949112528, -0.36725868672867856, -0.5754078416731083, 0.4958666221664904, -0.17050810761085095, 0.9672076782595795, 0.9363374042678196, 0.06572918855016054, -0.5540375459052652, -0.4058113661491105, -0.5428029882963344, -0.1821723917301173, 0.009518231342025297, 0.3503479279137302, -0.8616261131928383, -0.5437645102966875, 0.662925329523172, -0.312929974535744, 0.5387190551333818, 0.6411516014943619, -0.7214013872431904, -0.2674058202393366, 0.9733823768210456], [0.357756503480972, 0.6466290692527362, -0.8147851674910925, -0.5279874435555122, 0.41860450646393305, 0.956529715449763, -0.2544371514112045, 0.13387501860608617, -0.29660078330390416, 0.2808548892327282, 0.7592486773706866, 0.8444569914614711, 0.5291047244168446, 0.6957201774273115, 0.9515839262334542, 0.8378257945771942, -0.8795995495172787, -0.6940392023976172, -0.018867944538122048, 0.06839450161253056, 0.7036971212395913, -0.4861049814202106, -0.5427927030379436, 0.2131405954075336, 0.08100343625131892], [-0.821226582520122, -0.1602159168433494, -0.1388891919093797, -0.3821864860207321, 0.40538309889024754, -0.598560513540091, -0.5795689059540677, 0.047547005792781774, 0.32280594458964584, -0.5753646017909742, -0.9773370505993749, -0.9426602816244274, 0.10820212196265905, -0.10889866161017281, -0.22371260002504723, -0.8507228269431115, -0.22143964845989003, -0.6657574735057149, 0.6638836824860965, -0.312568249853709, 0.24537822861720296, -0.3527447956597652, -0.0749651983473792, 0.692081437807488, 0.4137951736079769], [0.7042618694802713, 0.20717902322957993, -0.2216672810927852, 0.2082748108042294, 0.20556407470470942, 0.32279369275220604, -0.26277684435781884, 0.6575260796726684, 0.14909696871520256, -0.19625217548172144, -0.5700844740289486, 0.04959798835699498, -0.684260359215207, 0.4094668609824685, 0.6732299818326816, 0.17842885379369366, 0.941612632847325, -0.969165186749133, -0.43685471265240017, -0.7781235046818957, 0.11970876912520155, -0.07561907352063, 0.8206588205122913, -0.5177244885712108, -0.4098838870411747], [-0.7940400908982179, -0.931043950156794, -0.021465611645268414, 0.4121649345799366, -0.49765997092460124, 0.09731417735607106, -0.9469656468130901, 0.9815109976570102, 0.34883333158281105, -0.0048355036335732595, -0.4063042937170042, -0.8135805147933356, 0.0806728518734381, 0.08519530584737199, 0.7607044260456243, 0.5909677552827451, 0.3984491296216449, -0.3253168090981116, -0.16581899785172755, 0.9718337023005744, -0.3658636602867132, 0.45978441261324515, -0.8725602147890709, 0.23567230757870836, 0.6097365854639591], [-0.464818259296499, -0.7345756870006793, 0.5535958396404689, 0.005987987950463997, -0.19289085791642424, -0.9794673349266438, 0.691519568273931, -0.7850749925987682, 0.013062867943978592, -0.654312224098396, -0.8515802924020189, -0.3579974642429116, -0.9152908343723062, 0.33269399035873476, -0.7056952807890889, 0.5264033980432783, -0.780779750609987, 0.7477508875055668, 0.8417263278213606, -0.06540242149763521, -0.1119544464821535, 0.07905337327863621, -0.36316724242322923, -0.34468567694511215, 0.9738603668876167], [0.4454978530908942, -0.14691702040450463, 0.6393198759242114, 0.48719469431342, 1.0144142952207127, -0.32848505026312413, 0.016792024085752196, -0.2405935429786581, 0.6795413295578727, -0.895795197150503, 0.04791444466604001, 0.09105574416527108, 0.6511445638748186, 0.7243581140254074, -0.7751670951477961, -0.7122707805949923, -0.4813142300342959, -0.57269007818678, -0.6921473175614824, 0.14012244634433227, 0.022351518420201204, -0.1309800216245176, 0.38278189645682814, -0.7462431868185663, 0.5702285806145468], [0.398756352735934, -0.04380399322588223, 0.4236202802934839, -0.8970653507116086, -0.19606483505164193, 0.07465517671257794, 0.5267487595964773, -0.31852921925380934, 0.5915094906659641, -0.4725900935295293, 0.16221605972950745, 0.909946406120292, -0.9305090763107877, -0.5164712303599386, 0.08120142606718017, 0.5410776516754197, -0.7823557303656147, 0.30620369858908975, -0.6844803238204759, 0.10541156955132866, -0.13459654661244463, 0.7573183414774494, 0.7506260332320686, 0.31672208614501624, 0.5800896698712995], [0.6654912192862852, 0.7782294071237922, -0.3769815312918664, -0.46776525400402547, -0.6875276861304874, 0.24405187277883808, 0.31785196440039487, 0.269510937588571, 0.4424712792257963, -0.11619181975206264, -0.36410703951711826, 0.46070665270864136, 0.2973296495435469, -0.9161738082710087, 0.6108878801071034, 0.22264328479491163, -0.16123253191250866, 0.07751181353310055, 0.22677463236599496, 0.9201404138215759, -0.9475458648841917, -0.4991974829886514, -0.41205103285200767, -0.8951488872481503, -0.42057549488296087], [0.7766830525368046, 0.9968528713921262, 0.5883617696146146, -0.9477386551677451, 0.38611700810405436, -0.170233755679639, -0.5785302942491259, -0.5202761166661916, 0.5471627216078573, 0.9989937035188589, 1.0164512645987287, 0.40950247675664875, 0.8509212931809936, 0.5811157193262388, -0.6312740791074976, 0.10007539813523117, -0.706181426808171, 0.7302035725672124, -0.8835144843032656, 0.4896248797427415, 0.16531792661237743, -0.18364102958521328, -0.9220509416845053, -0.48469894546000214, 0.40213888328344255], [-0.5909981304381557, -0.6845406942799992, -0.1824138506657192, -0.7337360769587893, -0.07660467262782963, -0.7916165836175947, -0.6608282812707079, -0.45684618752368844, -0.1015131868217568, -0.089253459095231, 0.29986290481207223, -0.2804319858860922, -0.5406777225556287, -0.5921159236529404, -0.3409861908344899, 0.38738994736641763, 0.7168088854406012, 0.452334626528724, -0.012544677627226662, 0.43021433808394516, -0.5808584626596299, -0.41030058287891386, -0.47320640965319577, -0.6894784991633718, -0.16905540390992302], [0.10298408691579689, 0.31999772973684365, -0.35775062406800195, -0.22032308981231227, 0.01529192181885705, 0.2603759210762238, -0.23332956089502446, 0.5885489776822735, -0.591233164806507, 0.7531932923444866, -0.04394419130948667, 0.7146525447001342, 0.8595810256930421, -0.5325528606375012, -0.3947493328901366, -0.4389701667680943, 0.4726193504663976, -0.1893123684494764, 0.5313491300479034, 0.15867913814741383, 0.6755179457486593, 0.8039191987802716, 0.5511597239653788, 0.17235707794762808, -0.09712942095204631], [-0.1270753277271144, 0.26245073383591844, -0.27444847192528726, -0.5107522752659469, -0.41879284524653043, 0.9461165579204376, -0.9477310711210399, 0.8295169979260293, -0.5559568630797302, -0.3260150795625281, 0.9528606872484082, -0.5791948529651019, 0.19137178022910753, 0.1975401642049676, 0.572989029710454, -0.14448388638509, 0.22101611243933064, -0.7879266497801893, -0.8059459438960688, 0.7622566477317462, -0.3765906162390313, -0.8473983973399767, 0.9816996354133375, -0.39569855199407666, -0.8126889508695889], [0.821498025315451, 0.7500104371949627, 0.24382638249964003, 0.00502680161382149, -0.24610842178549366, -0.8162216693378918, 0.914833561647271, 0.45885878413431197, -0.9101965636727514, 0.5721672068378539, 0.8933075390011811, -0.8591209703093639, 0.7566230752557014, -0.01792442554801532, -0.4701167918667013, 0.5573815313606567, -0.7775310462871661, 0.33046975926816485, 0.03870001427294912, -0.43033704185411564, 0.5053527801155295, 0.9048492250785224, 0.9377324981284982, -0.03348622492114102, -0.8583019769415485], [-0.4964606735744047, -0.36653368452586915, 0.8247264840337569, -0.4486304215966492, -0.01827266837067509, 0.17759515185166688, -0.2891501709252258, -0.26206185870609155, 0.5942885963717293, -0.7935775089421124, 0.7258663159435098, -0.20482378696270787, 0.498226863184195, -0.19242407194175337, 0.4826213086978461, 0.1945671114857659, -0.6293057219531606, -0.6214080405572984, -0.09224629148572071, 0.15011613669136994, -0.3791107351270233, -0.05265012152245698, 0.8184756550828906, 0.9737111451630646, 0.9437938446582295], [-0.5297555877465921, 0.6292012319822323, -0.32797071452324006, -0.8621908134923473, -0.6765526896075428, -0.31884394165212243, -0.7714902752476602, -0.6286006618677897, -0.012307435864340247, 0.10685102654997569, 0.7785139992785582, 0.23631004433949235, 0.20179561582389516, 0.044837893348082206, 0.32902366960743845, -0.02026215144221281, 0.8773425831400445, 0.8499568775552314, -0.7927683660292241, -0.7291946738529589, 0.4629435482969559, 0.39014533702914644, -0.4070638167548981, 0.564261859473291, -0.13254781981914174], [0.37797732148416385, 0.4745874207150324, 0.0625455225146023, -0.027900030233697356, -0.16311072688462028, -0.8459077377914911, -0.3493047465609127, 0.7585122338590511, 0.7627284392074689, -0.46559328009599477, -0.6614906069854712, 0.8185153816190132, -0.19042513791807414, 0.7706430730305552, -0.666988389414823, 0.5272731568035067, 0.6609057021371995, -0.5815352959108142, -0.053062287966253695, 0.6720417031062975, 0.2305699697971874, 0.10936384094711438, -0.8396181988087787, -0.3488354442237284, -0.9761026082688185], [-0.5962269102049002, -0.6449646144792973, -0.46630140814123816, -0.30860716604782185, -0.4226814854337872, -0.04209930300308597, -0.5017401130394735, 0.5283089478372907, -0.09826980921058878, 0.541914774066876, -0.7072146582774419, 0.49617930299449503, 0.7910104197861467, -0.011097430998335977, 0.98003767005997, -0.034470098352466054, -0.15952780911295178, -0.09462714793563477, 0.653733776744391, -0.4293421357251991, 0.4703411799139024, -0.5977583917925526, 0.8069883273751307, -0.9506670881607721, -0.05842568988445752], [0.5661585485013302, 0.735981919698948, 0.3226263106831227, 0.7113737952898513, -0.2084068355961266, -0.7457033058533142, 0.5112258229200566, -0.8441819341376388, -0.954743767154395, -0.5509783391634956, -0.7069400717188036, 0.47067735458469456, -0.34686581161554586, 0.9520335078973059, 0.17856857544750399, -0.8286302936573321, -0.10023568872970112, -0.8720060274076638, 0.6554361744020887, 0.029226887091668464, -0.1084613617030713, 0.3976331460066698, 0.24953961650270665, -0.408992897220944, -0.8045285567548164], [0.7808352453802212, -0.5526057887082714, -0.9729256584925815, 0.6701601042124701, 0.2364759073381336, -0.8967318823971746, -0.370843480708904, -0.3819366398190578, -0.9919739146555736, -0.3406450339394471, 0.02377725648530741, 0.5332422910794037, -0.949051371640778, 0.11400794373323693, -0.6437125491956482, -0.5185935685505496, -0.16542557660157725, -0.6944962139981297, -0.4360886497665774, -0.18319035589264976, -0.41124742266278935, -0.14774128851001175, -0.23329344505297464, -0.17266260571292988, -0.8172181063037836], [0.7681648846368156, -0.9360274213775984, -0.5214425711320118, 0.2542504048779609, 0.1509274264795323, 0.2395009451309575, -0.14922255075740407, 0.731527430786695, 0.6638244468516833, -0.6030053879099361, 0.7736479563251404, 0.6251277219325031, -0.6160288829387278, -0.3133678525514556, 0.4484166085496226, -0.8684288559331821, 0.88958747536575, 0.5016966725179213, 0.6730861619437507, -0.3498755140908617, -0.9533189569790749, 0.1145442273431351, 0.7703550356132797, -0.4234917319882258, 0.6706814212124336], [-0.4966131449251077, 0.31637933830150233, -0.5720213712726087, 0.4102895682233766, 0.43420895252806685, 0.4290179754015867, -0.2659417803784218, -0.8668914973758668, -0.3164209679776418, -0.8827309778560737, -0.5497386745275212, 0.6302047752968278, 0.013159583865208753, -0.11508045784318577, -0.4307685887666413, 0.7743242295114419, 0.10422520053113023, 0.2777095320636466, -0.9712678849848565, 0.5044941584607582, -0.08037947531018595, 0.5520397111747818, 0.1065034436568941, -0.2662437713014511, -0.41064361466938853], [-0.0858398011712742, 0.10248870150231257, -0.12724011671215965, 0.9418223854076947, -0.9307960531452442, -0.6895526470912993, 0.6334854249915143, -0.961484474253356, 0.5309490522478415, 0.5406539184164327, 0.45685292205533184, 0.516293063682679, -0.6071312308391822, 0.11957431113979312, -0.8322017483709863, -0.5887126049260761, 0.25862676105292487, 0.796159450712361, 0.9690018117891829, -0.17778822035726502, 0.4420495438217447, 0.5238363390668903, -0.8803385111204002, -0.8896403206603769, -0.22837267477728224], [0.5680680082248915, -0.09698004954493451, -0.0074115752298213235, -0.10089839159243669, 0.29676178840174733, -0.16617301105619328, 0.4237267143276539, -0.6884219723895785, 0.045248603614637464, 0.4602885731727243, -0.9343099029998757, 0.8705302856452042, -0.4091135994141428, 0.5803124717542979, -0.7145044157842821, -0.9304597288926193, 0.7464737161803094, 0.06423843491537465, 0.9346372710908943, 0.15304084500482557, 0.010358014932584689, 0.14797812413951442, 0.9413356586452066, 0.7498009887179816, -0.7425328089365671], [-0.3014954161160046, 0.37093177501173513, -0.6036044311224975, -0.005668635167505491, 0.8598440272438053, -0.8012432954730059, -0.105406406465814, 0.7334640585315391, -0.7139063186059722, 0.20525356116278273, 0.4571113367010176, -0.3514870872922713, 0.13649107792888687, -0.7064312299782027, -0.1869546116479054, 0.3872980432048869, 0.6157505349331119, -0.7019880850952164, -0.5626372056520546, -0.4752068982157622, 0.8483637380686903, -0.21302343362528747, 0.212958631861914, -0.10353473297029374, 0.46207289212831104], [0.9032938526735438, 0.718898681077826, -0.7174865068862377, 0.19738029180430666, -0.2859255226789105, -0.7263390482528349, -0.8113197686468931, -0.08239593217068461, -0.015981963243796766, -0.931294635927231, 0.951823758426135, 0.05040121443244525, -0.9806560208421493, -0.2535163626951606, -0.49717813843276826, 0.5656711566506537, -0.2979576198400947, 0.47326321898688933, 0.9606043279345544, 0.6662053131224029, 0.5885718541902775, 0.41426256642311554, 0.9412551931168678, 0.8802437491018593, -0.9271497630852609], [-0.03171647303968394, -0.8746736978939323, 0.4311457583039133, -0.6819378096342448, -0.428796907054594, -0.06769261965171956, -0.07937730146101454, 0.42258773098758395, -0.2606838416367326, 0.18185243392397193, -0.8506185922852569, 0.8334988935290738, 0.9273810533018798, -0.5199072921576138, -0.2789722312739605, 0.5441476059460189, 0.6927447150469198, 0.05980426730703161, 0.5345614233748709, -0.6948262554817851, 0.328781683262495, -0.4461201845117402, -0.35296918354597223, 0.0953559808676881, 0.5859799707566401], [-0.6436257267634928, 0.8725255256705583, 0.15317823126822075, -0.49040911303026014, -0.0621985900242448, 0.34620882830361255, 0.07255476175763675, 0.9758200556189002, 0.8602039138340897, -0.29705132175797977, -0.9084753775916856, -0.6188932679606333, -0.4886981834801044, -0.2088228204612013, -0.42541771927901395, 0.9426146352880288, 0.8732184235412824, 0.6755846739850883, -0.7843914266334896, 0.1610279942948496, -0.6490439329879939, 0.052208234489842645, -0.8375854283528651, 0.004086502689872672, 0.1369974132542975], [0.5582022366358141, 0.9465233193506684, -0.21261212626705042, 0.5548638508033705, 0.8495131546199074, -0.7444036326476943, 0.45403009123502475, 0.6320172480947046, -0.3280600355183399, 0.9968045872524304, 0.7425164399326255, -0.6886568571567181, 0.876261862559608, 0.20989071997546008, -0.7277612226465711, 0.16985594272886786, 0.7783114035184772, 0.14101181413195335, -0.7372274367721628, -0.9536660567057048, -0.8560908928897937, 0.1561793544104693, 0.46113382741523257, -0.7046680987393401, 0.2703341331025109], [0.7806915875820197, 0.9740125778748423, -0.30239892052685935, -0.8131030836484985, -0.7840731136299106, 0.7848751422220398, 0.2765361802363994, 0.22818208399456877, -0.5869265695557496, 0.5068139766321409, -0.19558715391241416, -0.10665500737765311, 0.33502298973643735, 0.45655494409609454, 0.5203737098398808, 0.6999555620865178, -0.9608842181969804, -0.36599576428533137, -0.24830702097972773, 0.7747857919876567, 0.08980620363304471, -0.7343856949390712, -0.6685543880609947, 0.7318596466244273, 0.46184409417473393], [-0.6540075806710134, -0.14234739595283374, 0.5987501184004885, 0.7818359682469607, 0.5571027836166339, -0.9935652675226543, 0.5889815513917601, -0.704395594295124, -0.9577851293827285, 0.7118841007464426, -0.585542734262442, -0.02868328268167019, -0.7761667654288834, 0.5744305308979317, -0.08726758246997332, 0.09776117098184942, 0.2310135932703606, -0.23882747638125693, -0.3077046418728494, -0.781448103758604, -0.7016699222893732, -0.15474457701123284, 0.2291617739158587, -0.5865759373991948, -0.2575676311675924], [-0.4421483005542498, -0.09649137490022097, -0.15742900976385954, -0.09086245175473144, -0.39940576909732217, -0.23083020872463025, 0.45799382329934757, -0.548172180587357, 0.26412590269848213, -0.18426618560212285, -0.6144490940110834, -0.216749808571045, -0.16293010370519467, 0.31755421795305916, -0.8865718526517697, 0.708990193127512, 0.09679387053436059, 0.3954045269876208, 0.05610395862244771, 0.08728903548403534, 0.6564104919169272, 0.6047508812562583, -0.4335778110090904, 0.1302957353444497, -0.5234999684576312], [-0.09440529336795232, -0.2726489669905495, -0.03966519933931941, -0.3122171641834204, -0.3722341409838877, -0.16498541123195468, -0.7200290331256015, 0.322151289275732, 0.18612346968789847, 0.1265885630823026, -0.753007213960022, 0.6605972977774944, 0.2997844147276497, 0.803355657134163, -0.4885311394524843, -0.3535058727313891, -0.15788238891378936, -0.36175275375610827, -0.09849568356333528, -0.2268287965453886, -0.9088545982679765, -0.6958492672654235, 0.47984971221191, -0.3094626350094799, -0.1172580337962974], [-0.2689076614729931, -0.12886453787627394, -0.8588544934323369, -0.44698499203472114, -0.5139845117249066, 0.92896014265942, -0.4000926267745362, 0.2862766060801297, -0.03589177018082914, -0.9145147855577705, -0.2932815224398492, -0.36966944517768197, 0.3212212092660591, 0.9927770855003879, -0.1707087383634491, -0.9458028296224095, 0.7444743556283248, -0.8814131032345658, -0.30720167174830093, -0.2346321587965275, 0.9598288361647792, 0.9732665809480885, -0.7204952060708767, -0.06893289934964432, 0.41279917437305946], [-0.17139396043321703, 0.9233063778193796, 0.835991486401747, 0.37546590603292695, -0.47472667106650407, -0.19356949531097742, -0.5912387830685393, -0.608300508656196, -0.5091837053911341, -0.783776606501631, 0.3083729171049022, 0.3380517579833011, -0.38514751491320665, -0.13459496009545552, -0.9492336321496856, -0.2316458295756154, 0.29885909295221363, -0.40672660130230315, 0.04848817869612714, 0.4072494150024412, 0.7779344704035137, -0.7652862407718684, -0.5786582185788248, 0.40489340429948656, -0.2671227355616931], [0.1790791687537546, 0.5859767342721929, -0.482433664847246, -0.3833271514049668, -0.6083992365933956, 0.6075147243184984, -0.5621258848065964, 0.6197780187082558, 0.1376934765162997, -0.20546267692035175, 0.48304380845644795, -0.7084659923406837, 0.6306997202903988, 0.518480011672182, 0.8989415729991604, 0.9783094381216161, -0.2566114021167627, 0.14557773937392007, 1.0074271661741143, 0.28576128210227875, -0.5629851903879663, -0.8468192687602722, -0.17096769702986464, -0.9148942891061941, 0.8790234035208382], [-0.2757707361860478, 0.6951884381227807, -0.7050895628000998, 0.4578655232661304, 0.5973638849914126, 0.7350624967986734, -0.4006135647863491, 0.5722251569602708, 0.21049507031406692, 0.7786106812061647, 0.8543743286136608, 0.29224578217145414, -0.5736015509975246, -0.10888542995365418, 0.4863523302848181, -0.6694630116682152, 0.014515359091713313, 0.9145151206328411, 0.10426642033131828, -0.26096387500888335, -0.03401988698434891, 0.38269472208593847, -0.8935590044509247, 0.33653767406338103, 0.7417634768253506], [-0.19585360420337325, 0.5873164527193399, -0.520039152741872, 0.7113985163188596, 0.6165939755001676, 0.14413226006636523, 0.5051687842515249, 0.5983467753055404, 0.9666551144044949, 0.21354777427153993, 0.051618423357789656, 0.789217617960549, -0.36816451964587227, -0.5169640207907904, 0.825172519500894, 0.8841975843956091, 0.6706618928986807, 0.5573450455641806, 0.1694058809488735, 0.020600974912364626, -0.4506614652878761, 0.1652813896958989, -0.7274060231316123, 0.16579301048631112, -0.5232771056904861], [0.5996723166821109, 0.7664282172722727, 0.3891105216078902, 0.6238043645313872, -1.001834053084376, -0.47919911807776283, 0.9072064850320548, 0.010341887048804602, -0.10665641843486075, 0.710185770026096, -0.293156197021995, -0.83851726934646, -0.19743213022947292, 0.5113536673928343, 0.044444956068782175, 0.666587071079499, 0.16812550878696653, 0.800989177630462, -0.8973826022375179, 0.05140577099753837, 0.16221589489557822, 0.8304290173821424, -0.4660379094990821, 0.5345774312523179, -0.8675671350118612], [0.14183743371283852, -0.26215131015699605, 0.07375678576091423, -0.4915824654017238, 0.4953828954483845, 0.20877457061669338, 0.23500781109863442, 0.2929868614810615, 0.9727721152214853, -0.4104094848230569, -0.4305624318499521, 0.7286473693483895, 0.7253066934276773, 0.350163314728562, 0.33250888843102205, -0.48570363720696813, -0.6182604198689123, 0.9833554171612796, 0.2201594380877567, 0.7237076969421278, -0.5267756915869507, 0.3187286747195824, 0.7103814728412998, 0.43393959368330565, 0.05119035184779867], [-0.2366048828974724, 0.6893400863251634, -0.4980498007201249, 0.36528331387906215, 0.4870103480562198, -0.019865765622473858, 0.9157208108673253, 0.01382367990269458, -0.3841629210314694, 0.928736301360695, 0.11500388505519402, 0.037813093879648, 0.5979989875986637, 0.44220256845461026, 0.6975452725572384, -0.1997231439623745, -0.2097416094798349, 0.19252672972945398, -0.4106212505150306, 0.6660987036272379, 0.27608942953719945, -0.1445317593689246, -0.41741162126470216, 0.00680732011618746, 0.8362378984508176], [0.45605176756834814, -0.19153950259207986, -0.89917712657408, -0.828399316335593, 0.2051016661737175, -0.6508253739986873, -0.09166848151311692, 0.7855844812036936, -0.5722891199129961, 0.5258300179480163, -0.5564949654841586, -0.5554545221360404, 0.2387240185857882, -0.44113348763760357, -0.7055774109919594, 0.13687319382842475, 0.21765857835354477, 0.3235420715989753, -0.35286951611779316, -0.9259825857727189, 0.6830352217030453, 0.9465583140710284, 0.9191569848868725, 0.9125271945967955, 0.37213745758338623], [0.020913088035756904, 0.9948159702157884, -0.7781892006970267, -0.9273747018493145, 0.8088346639698006, 0.065276305191894, 0.000890469876299175, -0.2686474511254466, 0.197799371194489, 1.0042025909263261, -0.7941956541373334, 0.7628095180391683, -0.518139492539452, 0.5398791025525769, 0.49750897930985605, -0.1770041670527167, 0.7354814264727313, 0.5018721199681199, -0.6759115224991241, 0.3744391063439203, 0.3058830797141892, -0.7111158509075638, 0.004179808669628275, 0.8004120960579761, 0.7432512806773203], [-0.8914316739083851, 0.9404711274463112, 0.6002787878158145, -0.40345685846345664, 0.25362202450546756, 0.27478551257852385, 0.5540341883098094, 0.03737203928503673, 0.6559448358970136, -0.307854268656951, 0.7212041614983787, 0.22041904463992013, 0.8838610952094028, 0.9939335136945068, 0.6216086171457825, -0.1265254232784233, 0.17011769248486971, 0.49960946331062106, -0.5889018528878264, 0.13140170832361614, 0.29270627276276584, -0.2891647702423739, 0.05086834856035117, 0.516230693335419, -0.40871173664701765], [0.04314731736161388, 0.5629787266752133, -0.6984370215735555, 0.4797287647377939, -0.9097645426921109, -0.6589771356581409, -1.047952631456759, 0.5767411709810918, 0.6382319804325961, 0.3713392332789855, 0.15328874247144877, 0.2202423102571386, -0.19579476435202658, 0.4454953798133889, -0.8472926045725604, 0.2664269296881643, 0.6025199181910579, -0.8494351330611417, 0.769387828509158, 0.6729130007308547, 0.18986396249513174, -0.5150920928133149, -0.07589146115107602, 0.7818802889011656, -0.9430186758944824], [0.3715397588769345, 0.45734960946683756, -0.03595640968550151, -0.08055168807304605, -0.1540568395445418, 0.6282645092958187, 0.8386203531514341, 0.14556289354231974, 0.33902722751473874, -0.9251976866784717, 0.9826548898146479, 0.5327239891091915, -0.4174381250870938, -0.17648894629572026, 0.9652497200563919, -0.9937492978106806, 0.7738281089259702, 0.7809198270708122, 0.3217046656123138, 0.16282595443484504, 0.11294589364127389, -0.8388233562353897, 0.19878186315099053, 0.04563079697929074, -0.3095354014621967], [0.9673406840412035, 0.9117815622579087, 0.06478370833476456, -0.7309868492277689, 0.3226286600321709, 0.3216691258138021, 0.9582908276101666, -0.8273608299240047, -0.9681117388165701, 0.25431793093328936, 1.0156302584133245, 0.0620563877878576, 0.6337309922519625, -0.7946127733050486, 0.013143502660299733, -0.9269055388122613, -0.10316441659608194, 0.507421312009714, -0.8374551781245004, -0.5152604070359207, 0.09188461130358114, 0.32688348338717904, -0.004355639220149139, -0.9017496265471653, -0.14911769779770012], [-0.44005583704948464, 0.637935623382727, -0.25430192000466584, 0.43125400817783094, -0.44842184040736804, -0.5920633634183947, -0.21171845574284937, -0.8655267257273125, 0.38886380400763015, -0.8529704510234466, -0.9182178092722232, 0.11007464089473766, -0.06523277827997764, -0.8662980596659177, -0.4314764960391302, 0.6004124154309316, 0.7157689410976493, 0.5588253619462897, 0.9037830864529534, -0.672068028066597, -0.202907469912979, 0.890398839067593, -0.9226818671478819, -0.7672747339356895, -0.2130190094384163], [-0.8171511566227995, -0.40826266314400167, 0.9906442859517045, 0.9984308215490546, -0.5889380821418646, -0.03652203237379215, -0.2373283422859466, 0.7257903054594852, -0.11776079869747155, 0.8164275645025443, 0.21231025030807532, 0.8532756917335227, -0.18391610958318022, -0.044607820420915656, 0.3130587018676588, 0.8886728958541886, 0.7910837886627916, -0.8382407271013319, 0.6636285746955485, 0.18199636324564797, -0.9898406201064996, 0.3037095979043372, 0.4758808246385898, 0.12131364212680529, 0.5392404665504708], [0.13924824921200396, 0.729558213407644, -0.80027545447642, 0.4793602561373693, 0.31953943219869513, -0.10562106068108011, -0.5693690407776952, 0.9025858038842898, -0.47826625971732273, 0.1485439024228318, -0.10031760813961929, -0.5184277294269717, 0.4437074477684338, 0.6111904691783383, -0.7828737721100604, 0.1421729875795667, 0.3261104931313414, -0.8482547856512154, -0.059547253625191726, 0.5166887054618151, -0.47621482465080456, -0.6345466837058642, -0.7116006285656691, -0.7136754448802952, 0.46734206709254034], [0.7271398014826659, -0.8934541684213849, -0.3253048418729877, 0.45572237637770757, 0.9576149413120918, -0.7423911522926252, -0.662391621861775, 0.29907493858957496, -0.8562343841245748, -0.42857107899684105, -0.2009965118830159, 0.8980489694387669, 0.2884606930635466, -0.34719452944104967, -0.32443641450691074, -0.5852590115957184, -0.7500464631203518, 0.28941310224421835, 0.09728149743264677, 0.632367239139575, 0.05475945943759912, 0.40436888151334155, 0.4340702409716467, 0.4220676989478025, -0.9264669373968863], [-0.01513237390175143, -0.10160916619135828, 0.4518132115885336, -0.10872268252772155, 0.21705696416624448, -0.8578414232901469, -0.08653772648779534, 0.1539101273840396, 0.11971021530522635, -0.2783407459441793, -0.00758922943454458, -0.45107150695553605, 0.44605819029822696, 0.1742452093443456, -0.23659053182186576, 0.06426216051303874, 0.32525008311736187, 0.9864659063074132, 0.12560609925589794, -0.6640900636676189, -0.685358386185547, -0.30269137172975596, -0.926547251320983, 0.8922972572638411, 0.3172962778318745], [-0.6992615556388619, 0.05665833951023263, -0.883075078313659, -0.44729256372447007, -0.531763631121079, 0.0006737901563188749, 0.8455618952364906, 0.6845876817655554, 0.2940271623327853, -0.47122078193414174, 0.4941142781983168, 0.19657881582103387, -0.3301742777009665, 0.7307893841292866, 0.15015645225840346, -0.2912300819807713, -0.7874266625597629, 0.6546882747870107, -0.21710527695946505, 0.9761541968841205, -0.7970616073248865, 0.8171532787435805, -0.3591265111527091, 0.5049035261998159, -0.0057379258219654485], [0.4538214738785987, 0.40869285831894997, 0.47155078786407, -0.5692675928639952, -0.3397785807139012, 0.12262859167779258, -0.6854402222606537, -0.16080238370719338, -0.22250549255454363, 0.4314295108523871, -0.5210115116096632, -0.3544586636300129, 0.6261350382808182, -0.48407370716282144, -0.021053216184458552, -1.0473268797234085, 0.8925658355796247, 0.5771136387331711, 0.09133070357700629, -0.17416302766053854, -0.5245313592808124, 0.723393815707672, 0.994424412627856, -0.959116328226305, 0.2653050171802537], [-0.4841262593528638, -0.7865260385881457, -0.16842312723460987, -0.9498908254052887, 0.6841297182371247, 0.13139813557965271, -0.11940054551787123, 0.6966693762778333, -0.551196151609582, -0.3548877561211789, 0.38816137474304424, 0.03876668833554827, 0.300683234675401, -0.8769801746325605, 0.7993910769603352, 0.3755409057368763, -0.8207052645501355, 0.20961576366348164, 0.3019769119970246, -0.8830307351272207, 0.5464246322229804, 0.27610043374630555, -0.9859628926966619, 0.4953740861033039, 0.8746142146251414], [0.6130498777995977, -0.002165028376665793, -0.1637422709513397, -0.5947853404284518, -0.3235223999133439, -0.14322961541124668, 0.03953729401198449, 0.5619246134578568, -0.7790171148692557, 0.384527346031764, 0.2532748681712483, -0.6009763920867021, 0.7492535383201541, -0.2427980180886754, 0.8873365058911028, -0.8948047790596858, -0.866248292630291, 0.33286339306327534, 0.6453016452889135, 0.3287495099641538, -0.7856975145142502, 0.3883635284946646, 0.1521462396997139, -0.3056339795725421, -0.6995850248464293], [-0.2635704622287039, 0.5672239762676152, 0.8986731038197598, 0.9828965536527265, 0.9305243910233835, 0.6784263907541104, -0.390943728827534, -0.2928911603342263, -0.8968636807534855, 0.8369023914026366, 0.41774634407029554, 0.8815424509926993, 0.5235810417723316, 0.9053475615952415, 0.09415839700254812, -0.7354518023331796, -0.5220932077031322, 0.047786502856800875, -0.27606121538465983, 0.23523868339442347, -0.8511367188547752, -0.771987941766464, 0.93721630390709, -0.7614025152680386, 0.34785928907037145], [-0.14977268580424885, -0.46100998691514783, -0.546145361478039, -0.36660317834188577, -0.821156360514651, 0.29014080125277397, -0.8816119653248836, -0.7457054306490027, 0.6136814458691505, 0.11630935889092169, 0.39408278681445413, -0.6592861028649565, 0.6821872671029784, 0.11120571179825012, 0.49634191145904183, 0.967017674583746, -0.08730338737537835, 0.4951807537794055, -0.4920145382789472, -0.8583581828410715, -0.4422808556938508, -0.32503657915966383, -0.10379006249785741, -0.780210068772318, 0.6921524069338565], [-0.08107367685645997, 0.4487684039405108, 0.9937970274733849, 0.5896062915704101, -0.9843763121166346, -0.4769557317516804, 0.1959758563129173, 0.9827835756638605, -0.15224093178184808, -0.5934684446626941, 0.013610033939946012, 0.17381914367800017, 0.012624693491269526, -0.8872328062316392, 0.8409439559928508, 0.3444170065583398, 0.6963914093423873, -0.5587548454019252, 0.4593705928478172, 0.1462525916686254, -0.2705927592228457, 0.9729640130253606, -0.9081217171702797, 0.8374837947533751, -0.3065314488152108], [0.14719266603389358, -0.8814842566814662, 0.22620830169662476, -0.9733116663037528, -0.3175592913706912, 0.43511694060051465, 0.2796621402299653, 0.3842805531012623, 0.47655689839862814, -0.03118210852391841, 0.14576906309736995, 0.762734273652029, 0.4296715843776029, -0.12723491052162625, 0.08375676018511119, 0.5547229251957422, 0.3635090523011883, -0.6455867177218425, -0.759778429835598, -0.4605937665285969, -0.16819733385971894, 0.5449133907987401, 0.7738151013323714, 0.7166555530976177, -0.7638367708872219], [0.8382036792888298, -0.08341161298442894, 0.5416419918232908, 0.9942160393959922, 0.4731428415039311, 0.4931423149495384, 0.9601979976922178, -0.35012866432306305, -0.3438659593217569, 0.44826482280875884, -0.937664504619814, 0.8276545114243333, -0.6420899748003004, 0.24569129328724523, -0.7695888110859275, 0.6565136999041508, -0.5631841478392272, -0.06709884958622667, -0.4498157730820311, 0.7550175278752579, 0.8964267022066882, 0.6749136226725068, 0.9911386114573676, -0.5356482429580092, -0.79621261470744], [-0.8869687068111722, 0.7473228579026263, 0.15365725672293323, 0.2669572445294069, -0.8485062310735774, -0.9452338197802976, -0.887771305729238, -0.9508360576475156, -0.16781386693423847, 0.2879968568802805, 0.6047339642017673, -0.6282979532294184, 0.8707114082845673, -0.08373606816745656, -0.3003677093765109, -0.40153646287822103, -0.6558669624747409, -0.9211287800716328, 0.5734794465982496, -0.08072762982799762, -0.8236318051141625, 0.7672994095793205, 0.6805973598600494, -0.697799600096115, -0.9217642116585765], [0.19073749319442768, -0.36720775345180134, 0.5795344958259406, -0.6687870602064292, -0.19880246220952283, -0.5592569260283491, -0.9674233662040886, 0.9935708148977088, -0.28502539614577543, 0.8543470888275357, -0.6024262717215337, 0.15691650294838394, -0.398360626323212, 0.08824357463177308, 0.8294285569172622, 0.018666172721724907, 0.2394836924435049, -0.8658378905844349, -0.8281062049787012, 0.7751574729945979, 0.8074636454813929, -0.09791384824460703, -0.5629151438373341, 0.7453527116438392, -0.6497291869500641], [0.42996798805076053, 0.3534071969347767, 1.0000328414081743, 0.24982987752610228, -0.7350372061284208, 0.648323271814641, -0.25057972668698913, -0.14811548722705886, -0.5997833729271367, -0.29630953284696954, -0.3161009396720115, 0.5867771861678632, -0.3640021501599233, 0.8870972085320101, 0.7217391889424256, 0.5127528747611606, 0.7371203299860299, 0.12965604299040898, -0.33732748048026723, -0.42529909486234924, -0.1897161060904631, 0.24675740410520305, -0.39716403444458703, -0.6529890276885618, 0.21278069479002723], [0.6751333378348834, 0.15772398869132834, 0.7152757786416898, 0.5569430163446965, -0.606628306036376, -0.8210914201221667, 0.21909230565749382, -0.5285498770300087, -1.019214902673208, 0.4077957182077301, -0.7041232382736691, 0.6553318332617204, 0.6976589270739862, -0.989668509057424, -0.8925847244174678, 0.3951228258578628, 0.6373396116371828, 0.45121704968270215, 0.8452602740903769, -0.4084277992872203, -0.1201279734421519, -0.6789110007892477, 0.882338768079113, 0.8314427794490953, 0.004539472702984109], [0.8602953459101292, 0.08582572077012054, 0.6287626770812352, 0.22776858526507657, -0.6532764197765485, -0.7138505304041903, 0.8777057713843386, -0.6022325317254174, 0.48805388644337966, 0.8663364546436971, -0.8451872071592028, 0.47620521849182995, -0.15643991107509642, 0.6242955771544548, -0.5445539480290637, 0.29138017691205786, 0.1529927922784982, 0.916922642462778, -0.2741252752587232, 0.6026576882901509, -0.2833519234080678, -0.9144978196051075, -0.9763002236468459, 0.5827485353487352, -0.8138148812771282], [0.8348034330620929, 0.36155751188885266, 0.639656968473095, -0.6534680980924912, 0.4741026708659818, 0.7504379409743593, 0.8776895502488495, -0.3938309789313569, 0.2903189901482777, 0.5564435740676449, 0.14613014357738452, 0.14832969952054817, -0.046201243868601194, 0.2845422651006205, 0.005255613774518757, -0.446586325596052, -0.4858234618438723, -0.05072533543953969, -0.29966842010291606, 0.5806197884255951, -0.2974004609669053, -0.42175175377716545, 0.844819230974051, -0.5615254566573941, 0.8771845476615898], [-0.3654109606662355, -0.4367703512303781, 0.8565436553872801, 0.7264767550983199, -0.17470612787769169, -0.9996841194705737, 0.4921186520143669, -0.1002235287781246, -0.9547578556786389, -0.2702321682234299, 0.4382839913247309, -0.32987154085282, -0.32987003610750154, -0.1367640689233506, -0.8430520775422484, 0.26966270548272003, -0.005434837323242658, -0.7150972847670576, 0.7905617416082036, -0.6040014248951922, 0.9268751429059758, -0.45186567177478926, 0.7177459870523053, 0.8539456830816695, 0.2601381211392056], [-0.933614117918883, -0.6873574880444955, 0.8038743856145926, 0.5766703511560672, -0.012149268222346386, 0.41604077726966965, -0.3639628951792488, 0.19046941378068633, 0.47092036751249816, 0.7221416638420934, 0.9939755073845311, 0.37625940615471104, -0.36069939572550735, -0.20121624430778562, 0.9321070795141878, 0.7471228245837429, 0.45869503360898334, 0.9702212493944826, -0.7668700614739589, -0.7998459465649339, 0.1316634697401756, 0.22446496423145232, -0.656453316043715, -0.5090879179994134, -0.8488678704265642], [0.5171460594408411, -0.5926140277495441, -0.6844745341208645, -0.6586126597822499, 0.7348216651561466, 0.874172653251379, 0.21243258110243457, 0.2896481563406204, -0.6227206167693203, -0.013727014993303517, -0.5022871410649109, 0.3917855953326711, 0.21641585484670395, -0.530014573193923, -0.15461618634842625, -0.0013448332079443257, -0.8222459826905586, -0.7430047616577887, -0.07448283086200373, 0.5628433942535362, 0.9106251846963895, 0.21115248587928667, -0.7229569476228158, -0.3331165976616583, -0.2891885617377557], [0.06553517099331645, 0.8293528322172272, -0.4590285735560136, -0.9680288280859137, 0.37252417410830346, -0.12789422758571561, 0.3629995386537868, -0.4441515932287234, 0.48716951211886733, -0.8162852503589458, 0.17480224916024023, 0.3535747236147749, -0.14676344090031496, -0.9189363158384046, 0.4818850302212585, 0.21530799505394208, 0.778075932375156, -0.0971653115165174, 0.37685992694265097, 0.34725168638874565, -0.7481003412054558, 0.8996216801849132, -0.2553733206878711, -0.5951659166799682, -0.2943752181549777], [0.42041480617342175, -0.3323610829991355, -0.4710288100353622, -0.9084414481608084, 0.5857247691784715, -0.7084215787449395, 0.8639026758081791, -0.6161258017180429, 0.2891281661929741, 0.1100704278372828, -0.2320907661196102, -0.8782511864223959, 0.4827718171056886, -0.7398031353634524, -0.04552850342149898, -0.7478606893363138, -0.338339276342726, 0.014731225366531745, -0.8976249751180582, 0.7925956872187068, -0.3651317231132176, -0.6814924290920616, 0.23449245941556313, 0.537082783595869, 0.6275547245671261], [-0.28818733104320776, -0.8359138619175946, -0.024682366386090664, -0.5178318109591505, 0.4876197859608748, -0.21077730041490464, 0.7396264294700544, 0.9740585258989538, -0.6346893147461765, 0.09034405428096912, -0.37642853796422554, -0.30733989348576224, 0.9837367365361825, 0.6966096433915139, 0.46386941931790454, -0.28210711614034617, -0.9773271710904085, 0.935324565879215, 0.5774822732744063, 0.05902286310130034, -0.5735174750329692, -0.8130193527984477, 0.18578120430786862, 0.8682510874682683, 0.6792578231231347], [0.6331897245667601, 0.6319909809896715, 0.5883958343706107, 0.7940831645936192, -0.5269555298732626, -0.7500130842008662, 0.7239871061740147, -0.4829733850315018, -0.02360821440312811, 0.8649904401254855, -0.3599517702621466, -0.7757624557463195, 0.7700411614502133, -0.026415687037413593, -0.06237228523412432, 0.1206595194586288, 0.35434896325168835, 0.33456971206569847, 0.5115581721501651, -0.75253068463135, 0.5627832750074246, 0.9174715777449493, -0.3962002246478247, -0.6508038253726672, -0.41529764728216406], [0.03314599709017882, -0.42035434877172734, 0.6904327148912266, -0.17131798016890992, -0.427881424063688, 0.6797405498805259, -0.36042448190863174, -0.7908628818691533, 0.06184332824628532, 0.08804711463203911, -0.8410511448018125, -0.43191079674394595, 0.23693423755382592, 0.9351227836732064, 0.9220452095883149, 0.7398357470690401, 0.8222558894773422, 0.5289404335187555, -0.3907099635054666, -0.10745961589684612, 0.34676333745597515, 0.744344901903767, 0.03768092822884462, -0.9121740976588326, -0.05013550508436845], [-0.5065386474407595, -0.362502216575676, -0.7516825709659497, 0.19414549688708554, 0.8913082065422343, -0.08335989520193153, 0.5185083013804002, -0.7479606936514498, -0.9326380130799123, -0.3045256989501335, -0.4067786446333051, -0.007594773102480827, 0.6431974656828888, -0.4577351028287789, -0.9384547253616534, 0.474770170499225, -0.5423005872421789, 0.2612744171110381, -0.051703432601065955, -0.2963316585090102, 0.4733657710546947, 0.5801312583817982, 0.16388285152353085, -0.8037995312219263, 0.618811119240089], [-0.22667784517313996, 0.869980169514398, -0.2932129769070916, -0.6773303621203314, 0.033550810979216784, 0.45651104885573685, -0.3069507931812171, -0.30634392190641385, -0.6211501463316144, 0.5775012676912779, 0.12139842381390174, 0.7231066996913657, 0.7704262803860528, -0.5010112388583349, 0.4364990553072222, -0.6436876909562221, -0.22113681221917664, 0.5153609878237139, -0.66655134485095, -0.4757204550722713, 0.766393722946158, 0.14068042195674163, 0.5587017771052597, -0.5218516309200555, 0.6600765614556356], [0.39079032652636014, -0.5770120522922652, -0.42744225619043036, -0.27273740405680774, 0.7379398932692208, 0.6219909768301328, -1.0830856397920274, 0.9903032632756742, 0.7493339106259234, 0.30713313357139277, -0.137521069713317, 0.11959151635944591, 0.07382444892589331, 0.838445748911145, 0.08429959084545427, -0.4605776010713638, 0.3242807959721702, -0.5259877110002487, 0.08749819382991826, -0.29921394877468016, 0.13656864150696907, -0.825416256687277, -0.31557386060257514, 0.37880849104072517, 0.5346969757676502], [-0.6227596764611706, 0.06742130051377823, 0.2762226336856634, -0.9113323026136579, 0.2749909373409099, 0.5715091853061144, -0.2514749733396706, 0.6251201911376633, -0.7686180175689165, 0.7614630961241683, -0.3574089269051635, -0.07210837545601527, -0.09835428399594028, -0.3150046444451806, -0.715264975255949, 0.6607344829970666, -0.47217973515666106, 0.6183035519343701, -0.9507455750287972, 0.47645992903567314, 0.22915741414723503, 0.8846403475771569, 0.22793076253082648, 0.7538126223102176, -0.8062092199758624], [-0.8420516943196695, -0.8133328366106279, -0.501816445351927, -0.41787718255668166, -0.58716273027553, 0.5584541068292057, 0.9826956642020113, 0.19739039918672668, -0.061405839041887955, 0.9091581903613739, 0.3641860480445551, -0.7572480106996747, -0.5393971289162272, 0.16495015296639515, -0.5134022034161075, -0.4651344673240182, -0.7020630097535758, -0.12564479731719777, 0.9755270919043089, -0.4806002195763175, 0.8220832899207686, -0.9943044695081178, -0.1371713842443051, -0.7280309409630763, -0.5992859816285346], [0.5157356792553179, -0.7295468468971825, -0.8989388780566395, -0.5209800545555846, 0.5061378165292246, -0.34480801412073203, 0.4412829163150347, 0.4166961770288918, -0.9080947337948468, -0.3209635478877264, -0.18375890937394987, -0.40995009744448463, -0.507734495236482, 0.4748663846545622, -0.5565969853143353, 0.8751129510154738, 0.10422728038663504, 0.9779513176677345, 0.3824147021647663, -0.4203146973726947, 0.8828007582637872, -0.9351668656301708, 0.9329890951150779, 0.8270776508057578, -0.5810160775523737], [-0.3082003521024103, -0.510048680588719, -0.567314024342464, 0.18432142213961641, 0.4019413187563027, -0.1380572911173816, -0.9902638418891316, 0.4115488027817966, -0.7197047040518099, -0.820058499501, 0.16965549960950682, 0.8896921925082942, -0.5405319910564392, -0.6977258372509338, 0.24451470122015087, 0.9057674804846473, -0.6245124313987513, 0.03302953946708544, -0.9597543010493054, 0.521057850257709, -0.4957611922058979, 0.16939901985961575, 0.0035016715164302346, 0.34601715480821654, 0.7208121625267684], [0.246630881583008, -0.7671691390704197, -0.0058790539427073804, 0.23757606898547431, -0.5300885940987644, -0.5918327511653044, -0.5429624204774517, -0.2571976948663285, 0.0730406669662019, -0.8918438737405163, 0.9652098420370228, -0.6956184211970506, 0.66201184244433, -0.8519661001166691, -0.14968389180655584, -0.16048772964273364, 0.18632962010243104, -0.5082023904554362, -0.9668887825527231, 0.8992831833191144, 0.5443569472804481, 0.5670931274595316, 0.7711374320800184, 0.713561994703254, 0.8810120242924998]], "second_weights": [[1.0346252805204417, -0.6490525065472182, 0.8546626236139836, 0.6650201463741233, -0.7516379272135004, -0.6778520110211804, 0.6500393993265738, 0.8027770437748813, 0.42053865873786594, -0.5574813543028545, 0.10528344300782756, -0.8239028364862876, -0.7728920101873338, -0.8465569273640905, -0.4746540813124139, -0.9505149616962901, 0.9624210928744684, -0.4399807071467616, -0.3711172756843307, 0.9389465159233469, -0.12288932540554934, 0.7233921508346823, 0.12016136281463541, 0.38903766054489924, 0.4265433142399778, -0.3692072518914406, 0.4145642792700089, 0.4398266721783061, 0.6272492075449979, 0.48724825638752434, 0.1756715858448877, 0.6269387540844579, -0.9341714578956963, -0.7442331907500983, -0.42055458974674703, 0.2597820114620482, 0.46861288391184774, -0.42605765684424424, -0.9965260704875425, -0.5154327361171313, -0.9161860241748774, 0.6756218594989959, -0.13612549003894894, -0.25002562211394536, 0.9334927570856444, -0.024822208666157496, -0.7843933635296966, -0.03782328583670492, -0.7200635468622271, 0.7745610979796883, -0.008074966015658934, -0.9068401100186188, 0.606134852753786, -0.9550117064451268, -0.5203469953481807, 0.6923847767244111, -0.7667349034907918, -0.05224507713841432, 0.915815920032516, 0.7156037446772542, 0.699714732019872, -0.635264843488626, 0.6666873315751294, -0.13140783206477968, 0.9634857327754884, 0.048441468722340356, -0.39725152447330236, -0.6999997256642827, -0.9551210021353812, 0.8252848843747088, -0.9653452257239045, -0.5537309072130575, 0.3321947448723027, -0.8834673166440421, 0.1152473310182141, 0.49065247235063364, 1.0087450306883778, 0.24053686264657834, -0.8130137696464947, -0.6263651376053717, 0.6070676404728369, 0.534661625324763, 0.42301982346330674, -0.9282090589733616, 0.26004975931627866, -0.6754482332165535, -0.6031694402697194, 0.34290335555307705, -0.38573232963173265, 0.12794325459322273, -0.051296108116207766, -0.5393194099962002, -0.013707935800890319, 0.24554157953296138, 0.998065281429504, 0.8051161196701416, 0.71091267546824, 0.38791739424119975, 0.7581569554883969, -0.09803612568238806, -0.37566462673360446], [0.33919556081825963, -0.42765855732994407, -0.020227512136944265, -0.355734825211567, 0.5716164329482616, -0.8934235070290837, -0.010218627282297292, -0.2565761466159748, 0.44704714303314613, 0.7204418788942086, 0.037531058195968706, 0.7059712585771967, -0.8830558010971117, -0.5561845940626834, 0.8192551035888643, 0.3515492060332331, -0.1667431680310432, -0.006450790174362015, 0.03276356262780705, -0.16697277009350475, 0.19307016536125793, 0.21492329597879525, 0.5061432361071744, -0.8142229976826447, 0.38360733977208306, 0.5987718494902459, -0.5382415504769349, -0.5432032243015726, -0.8714918748919733, -0.8486526258043432, 0.05494266366535464, -0.972743292862725, 0.25813793117962475, 0.8481901848460004, 0.12202709838035604, -0.7431366456428437, -0.27098610750622343, 0.21381205279640916, 0.9957008881236322, -1.0708022363946426, -0.6970282952524548, 0.27513989935842414, 1.0032260948363219, 0.7088054711362552, -0.12003650406646713, -0.5358853995844869, -0.4119349594441408, -0.8456821847899793, -0.8246343010752946, -0.9382351903188391, 0.03468025586893498, 0.6691530146005127, -0.053873843813314407, -0.2964659272579615, 0.26989171077989915, 0.9128907490362792, -0.14062608192174994, 0.14216165577980228, -0.28579381703484785, -0.10674355979003985, 0.2681206748470303, 0.9090294111471285, -0.49585482217070737, 0.5511203572196284, 0.9993315677014849, 0.31220117198231373, -0.1420750511192788, 0.6314331306078794, -0.8893304792719947, -0.9396719184541716, 0.7588029252641874, 0.23793434554809023, -0.8414656469710012, -0.05626006025059524, 0.0085320765171397, 0.3785510037067317, 0.43020435080437736, -0.007744458797424929, 0.7879374742548889, -0.4805476127807235, -1.1651369046142763, -0.24342503574328705, 0.6499189439275198, -0.448578027102064, -0.011614538515592535, 0.998589187046813, 0.17038839530012292, 0.24337698116103199, -0.8242409313301687, 0.797304703566802, -0.12192710290914825, -0.15801632984913963, -0.8629250317865177, 0.11512751917932881, -0.8292440190202122, -0.8313524302298662, -0.9874119468147359, 0.5871111371409832, 0.37078465974168956, -0.5806637302656822, 0.5796011033394736]]}