{"first_weights": [[0.4854699660315631, -0.8057833228880469, 0.4577004312098676, -0.03933873526812648, -0.5140448383366261, 0.9440605425008051, -0.17418817900882577], [0.7516360313924786, -0.0960981481052673, -0.020140845280513478, 0.7073821104434914, -0.04132956853737768, 0.03553184541738341, 0.2640834287509298], [0.6935406131541544, -0.7377100270685247, 0.3814988461614319, 0.9921658719055695, 0.11007630077389682, -0.24404392657958093, 0.14455130557250925], [-0.7717872039248266, 0.17894371069166493, -0.8467474891587692, 0.09642523032598116, 0.8735066130173641, -0.19340073501671617, -0.9911149760259443], [0.8499717329706483, 0.6548580861274627, -0.47181389676120905, -0.5930335635607075, -0.2533601622635888, -0.8105328774331079, -0.10889420804277611], [-0.843621558392629, -0.2173360532852895, -0.9193388591188654, -0.03535257348141263, -0.9094502384801892, 0.16280144562905585, 0.7555162924007812], [-0.7344968728854726, 0.5596793506120913, 0.1677680557106882, 0.07390526808493134, -0.2806044483629685, 0.1954000356106023, 0.1502333362313169], [0.3536691363083833, 0.8943624031683873, -0.45802194676370483, 0.5827345292921344, 0.441546480804436, -0.08915791220853422, 0.45344114917796885], [-0.9386363839825405, 0.553334351017351, -0.10844670519237139, -0.3754875053170638, 0.9112975953483268, 0.2934327693626543, -0.5128118847963172], [0.5103859377162747, 0.5810426786212721, -0.08838446501463793, 0.9618502845839434, -0.77717109279302, 0.24497893607002297, 0.37625400801844866], [0.7547632837069961, 0.8470161208254826, 0.9578933693704795, -0.6443609150473362, 0.1485147276975549, -0.5254062753870592, -0.008861579417926035], [-0.5172869254119554, -0.17183221733990905, -0.7654309622270121, -0.22052446812152152, 0.6235851623818894, 0.36172247157750453, -0.9728567213938665], [0.014998071594132025, -0.9544983598407275, -0.8848576970507138, 0.7197703145656803, -0.27870842903239823, 0.341248742171973, 0.012789712889066641], [-0.3157403650875681, 0.5577593952618458, 0.6801282894518268, 0.5296325990663007, -0.28481764498091544, 0.2834245528240895, 0.8524354335856019], [0.807837515573564, 0.0062998251126273885, 0.04743570435064104, 0.9852177938988584, -0.3210350119143204, 0.9830418177624292, -0.39211390679862945], [0.0791150613246723, 1.0150057614957069, 1.1490463533257955, 0.23017062800680493, -0.6783224755756758, -1.110761616269118, -0.06335217583062137], [0.9230115465593665, -0.577639173065696, -0.43579987367716244, -0.37162656361918045, 0.5974842962146705, -0.25636324192685467, 0.663459282413216], [0.16876784041103216, -0.5352875889827639, -0.8187241789708257, 0.9515533764691002, 0.14240277754246405, 0.8197242806822842, 0.5955961040504498], [0.27177827987175673, -0.5893941599421695, -0.42438518036071016, -0.47170725384795387, 0.7292523535257447, -0.9794359843040905, 0.2800205779718241], [0.7819079981854004, 0.5390021205500128, 0.24633994704608905, -0.07625492660329956, -0.8520738111863524, 0.10885132735693585, 0.48033078730982826], [0.9614043842782092, 0.4416359352446717, 0.016830645284124035, 0.6908069005198285, 0.9239682271282477, 0.029992971007207325, 0.1881862791310398], [0.7833007641102305, 0.2326260128468963, -1.0527319902525136, -0.7495679798538758, -0.8544719562831651, 0.4127496145206838, 0.4350150745422704], [-0.027062530894334486, 0.2698509201925686, -0.7058849278475519, 0.59513444010303, 0.5586950704212833, -0.30541693874395154, -0.3338319766514011], [0.25003649290357655, -0.18365376802504763, 0.7803908928478012, -0.05933557580157145, 0.7932780664346188, 0.013625655519331703, -0.18293853524336146], [-0.7415621573740132, -0.41960591681161796, -0.44726767583998117, 0.36954172581626765, 0.3149332881293925, -0.21788668790237686, 0.8755762902077417], [-0.008222892342317031, 0.738600433410838, 0.7285805614271671, -0.7931674158231656, 0.4783602920913951, -0.2603708930410045, -0.38674726467746745], [0.20996346219078468, 0.9143486734843763, -0.026803303204477144, 0.23928196140875438, 0.07649555201160789, 0.0428859175635033, 0.7377005946763446], [-0.4626354883669518, -0.6901529400388503, 0.47024224687505817, -0.42950086500397594, -0.5681729760792342, 0.05636028878223298, -0.1481163209459742], [0.21887863728639803, -0.3631955931279911, 0.7320188121402013, -0.07663730006636092, 0.7928722675410218, -0.7548533814560122, -0.3596882154731171], [-0.31371649754526754, -0.6330744808303064, 0.2378237430248029, 0.6971947723566254, 0.6492099989165931, 0.8763282939985062, -0.23574834497204722], [-0.8151088178149717, -0.533452854427084, -0.07423292136020732, -0.9954714561112203, -0.7701597708471892, -0.6589329344223018, 0.9492499224288999], [-0.7614430452404288, -1.0947412921304875, 0.46151702698846425, -0.9344755337183258, -0.8199562313119934, -0.26810409125111534, 0.344500120196295], [-0.32154483403213846, 0.5821900220702797, -0.6284233037024688, -0.8713101286729992, -0.971814437924202, 0.4170439420295126, 0.6771646986808277], [-0.8965173545671709, 0.12148119571247097, -0.26546299410825935, 0.6723155570887017, 0.9848047479653186, -0.6326775253367013, -0.8074890716340658], [0.46153835804981713, -0.5320616376245267, 0.7921445727125922, 0.8155251456946461, -0.48490125831483777, -0.5298778360840428, -0.008921753314094229], [-0.1756542459819116, -0.6406998932588154, -0.3553051822793515, 0.07656173354438461, 0.959828885666653, -0.05837859716340045, -0.060593768778871106], [0.7381543411564127, -0.732415833650625, -0.8890351050621987, -0.39068227822048374, 0.42320079559458446, -0.6121930704471588, 0.020366890973720908], [-0.8054749149872618, 0.009023650966226926, 0.3886773620076973, -0.7099590504846629, 0.9774340067781886, 0.5790994250537382, 0.5957823335685026], [-0.6473683387007636, -0.1605067153092755, 0.3028618434408484, 0.8030269545772868, -0.5682458663509188, 0.4522285125764237, -0.7581987989437875], [-0.06443432785597514, -0.5859535047928592, -0.12079307234950831, 0.38938619092016546, -0.026878672760339395, -0.49390031529835166, -0.5698117059795518], [0.44343873839594083, 0.9348457846048114, 0.273064212418685, -0.15877178722106344, -0.6554614460476271, 0.05307898427408186, 0.7136147683191129], [-0.07605281914449247, 0.47582180430649723, 0.6173846419688764, 0.6639333406561413, 0.675167663688985, -0.44539927200892665, 0.07680410429091167], [-0.7936053755413643, -0.4985406268065477, 0.34097122769107113, 0.6905947103370977, 0.8064392071525066, 0.625418837030565, -0.733897356892005], [-0.20243544313835454, -0.3729775122309135, -0.11372230474032205, 0.7005407094167488, -0.7439461490374112, 0.7006755860002299, -0.3911847240398585], [0.3183845236619358, 0.6958617562935381, 0.22912226883635678, 0.1102047297012807, 0.9184920650803146, 0.8351739770071713, 0.286721046659858], [-0.7619232878851956, -0.2505001126051066, 1.136512197595502, -0.959465723867348, -0.08939489317396139, -0.605849166929381, 0.08733214431227314], [-0.013594756818972487, 0.19912678349224966, -0.8106405403118857, -0.12706248020423816, 0.6753483292201485, -0.1657219998365682, -0.7090815423994579], [-0.6676482568087454, 0.3597518762340248, 0.8846491212979959, 0.5462378246981654, 0.05384361455456865, 0.2946674388385142, -0.9950025563352443], [-0.1835794476888157, 0.7327896499588064, -0.600602290617583, -0.5233146259548421, 0.03793919117108673, 0.30186388746647713, -0.8849581190235376], [-0.19782885924525392, 0.03847655407133985, 0.6331517465322738, 0.4338303600306975, 0.06120419967526588, -0.446750314857681, -0.9104684459872038], [-0.8444922252770288, -0.6720432875426409, 0.3735964318200177, -0.2847826753297766, 0.7987215275639563, 0.07628778994205991, -0.018816231203289145], [-0.2551947336998579, -0.4320426726176023, 0.7396013664332199, -0.5151881385769419, 0.5779308337067406, 0.9397782305080966, -0.14761807008866135], [0.8163209054624684, 0.3698073379603041, -0.5186003757494352, 0.7193334627062581, 0.9726473352643288, -0.8564637079653349, 0.7455946982301735], [-0.9857185340840818, 0.3245241752625306, 0.6581822513902594, -0.26957632042577473, -0.3343965907146508, 0.36593378965033163, 0.5868260315177222], [-0.8294079561198328, -0.7204831988999649, 0.6550734251396867, 0.4371338457181724, -0.5064859530005674, 0.6333369427845873, -0.5917853596307626], [0.4325369953481435, 0.4242510469519527, -0.9920041253258711, -0.8645897852668034, 0.3332883754289846, -0.6850780761323458, 0.9647950319803007], [-0.3331917396675159, 0.051914829748967994, 0.4222901920463453, 0.7161629141833168, -0.0110045721624501, 0.0769616001900677, -0.336194798312754], [-0.19090745719722793, 0.8702776217713492, -0.3418612786461595, -0.623852594735357, 0.1205897893188632, 0.8345871322279396, 0.175589553793804], [0.9388055474372141, 0.8154830290887831, 0.6376864198499574, 0.1617289713206178, 0.22733098981417244, 0.7907644282647559, 0.26355363901412665], [0.30852799647883566, 0.5042204371908237, 0.3116206687547156, 0.021568004409914687, 0.5766564061675525, 0.6277314000676462, 0.9165245390741728], [0.8503320185977286, 0.8975985368513208, 0.7864097394860281, -0.8032481981847956, 0.8038787891011745, -0.0026087959971250463, 0.7953549755005429], [0.4471298336638158, 0.6455614812991011, -0.27033153232321816, 0.26607652728690523, 0.6555148924989236, 0.1517354172243932, -0.5626900035785991], [1.0237610382431235, 0.7794697216382305, -0.302058919346492, 1.0508462036576065, 0.8102279179782186, -0.7881924394316318, 0.13152924964699267], [-0.32495377154384664, 0.9352993819934918, 0.6030450415593405, -0.04596117981710024, -0.8771861331995687, 0.1772392363476305, -0.9946709705883625], [0.28907183359333344, 0.033902642522946766, -0.9650364444397217, 0.774443655341653, 0.5937967152139318, -0.4220092391253345, -0.3003221787655213], [0.7639441050761671, -0.8705402451707618, -0.4281278989218673, 0.1832930217722526, 0.4501855165846562, -0.5506833824856519, -0.2918779681517165], [-0.05241886733656176, 0.7924718344758341, -0.33382197607642494, -0.32692324744385615, -0.03264675709388598, -0.20888522657512798, 0.9469946223772578], [-0.46234070708870645, -0.8944087999662411, 0.7725060410995427, -0.40570946834142146, -0.13715505186324461, 0.3850014700388208, 0.43019541061677274], [-0.0038432799821086494, -0.5355828236454858, -0.9522791928452501, -0.9084443930729165, -0.9478895048771763, 0.03530034912786806, -0.855227894225268], [0.10326743334254584, 0.4041973423264362, -0.227142029216316, 0.4507185920932184, -0.7088565675331766, -0.89889629346221, 0.9632040840515419], [-0.8138402114968235, -0.04096709286456487, 0.3314860597998924, -0.5544996071682062, -0.3721475979702986, -0.46214990553312185, -0.6580408267245988], [0.3386712756525472, 0.672651432346479, 0.5605376832995272, -0.9281570229803433, 0.9859332259222082, 0.14242546973403103, -0.19551011694731812], [0.8316713555771728, -0.6209261979766977, -1.151363063805552, -0.3152191988204631, 0.17533100017907172, 0.6297597691782647, -0.598230123625966], [0.5444849251026926, 0.09395787820267451, -0.38760240331609247, 0.20140452821753613, -0.11670100868160901, -0.209517373417936, 0.674160651555844], [0.39844197633851763, 0.08150539440680347, 0.23010993643829228, 0.7933384858992174, -0.8525633663057389, -0.8410935913544552, -0.9583840110251317], [0.337067887267829, -0.5633466268210019, -0.676084776652178, 0.3447490757228482, 0.8269216336832179, -0.6100294390905541, -0.4655014746264323], [-0.21210918880519603, 0.6526384614976244, -0.000997694696043272, -0.04788650459867161, -0.5778110657272628, -0.748491170894604, -0.8719077853608688], [-0.650412120675989, -0.5857486647773746, -0.8139997403180856, -0.5320971121330835, -0.10013208999546008, 0.3983708396863985, 0.8403558707642178], [0.23203067363728347, -0.4358540728298812, -0.20546029507608687, 0.9888851823424996, -0.5117982796708531, -0.6366450321836565, -0.3406986477473095], [-0.971989653159809, -0.11199257867892037, 0.9494026430650159, 0.1672998286877812, -0.2202791705701899, -0.5082203155220844, 0.015329079827684177], [-0.7126677320588584, -0.932783778125279, -0.28604692099094886, 0.7133371362687475, 1.0165498735368157, 0.8030881988320548, 0.8669435362850527], [0.06901900993620827, 0.9986491510992208, -0.5012698252595631, -0.4389663199654269, -0.8441265388220396, 0.3161668773454587, -0.47609178436317673], [0.9463690664384109, 0.6030182075576409, -0.4340406829640056, -0.7880787485704163, -0.3375807080334773, 0.022032498162874867, 0.39085664230524364], [0.9194164573475303, 0.4565438039981007, -0.21028010509922757, 0.19303961198717023, -0.7052502370509148, 0.9525795837996405, 0.5723774759599478], [-0.258112157578936, 0.7910435280981933, -0.7128115019975066, 0.05346014910982471, 0.8551181450854433, -0.1294035148430337, 0.9490646943331429], [0.9334041427815394, -0.2803738601935264, 0.9384229004640594, 0.09975529486778667, -0.6236762763892865, 0.964255302049503, -0.6771050401101153], [0.23685420568822857, -0.2748152773324879, -0.2384814045735757, -0.07769784956927483, 0.6111568326867265, 0.5474197658338575, 0.03764788636901706], [-0.8050127989036766, -0.3584279393356553, 0.22897944605847909, 0.6505984448118909, 0.45096594395209744, 0.9560341477354111, -0.6582616376738233], [0.17064309616791146, -0.7280591954782012, 0.03144011934175908, -0.9646504255514519, 0.31521316925902115, 0.6842076931409257, -0.5613888851170116], [-0.6852231976367615, 0.1855534387782558, 0.5326572148013908, 0.639868084186302, 0.060142516780240296, 0.42879088729263004, 0.6218528115311464], [0.41785233234208197, 0.45440680891421725, -0.4869966858424868, 0.08600245302353904, -0.9171082559939607, -0.8835188118820125, 0.8927402666780493], [0.44706662190856483, -0.6949848901232694, 0.8561870941903966, -0.22921015091526886, 0.4124540125700886, 0.4703644955244386, -0.599421962791975], [0.27594327445624645, 0.8085107419902098, 0.19970765759510437, 0.8260464693219773, 0.030405703706671682, -0.7674871554772555, -0.40706517557001054], [-0.5674817307445716, 0.8178200261130708, -0.2409859758135522, 0.932747564876726, -0.2886754262868194, 0.6172468105828512, 0.29378867877907267], [-0.5313901811321757, -0.46615269132313775, 0.9155367376861847, -0.5470090349947601, -0.24134776510114975, 0.6201324723066481, 0.5170024155007491], [-0.44052133206918964, 0.3464766467223088, 0.7238186529643944, 0.21557970395250403, 0.27027005730821596, 0.550129284742543, 0.5530521910562609], [-0.09710060305454796, -0.07915459113628066, -0.418620968313339, -0.6398633132860838, 0.015432207953531462, 0.6223766449282513, -0.08343398057158165], [0.8216425574458721, -0.21544174155933127, 0.3329842609581426, -0.1739796879666764, -0.11973556119443862, 0.8445340641416592, -0.30493840223346713], [-0.9071790806944965, 0.7365587157742876, 0.27705136620651377, -0.8373067958140431, -0.34366471712052415, 0.2957460840824197, -0.08132950080242426], [0.5358754353802238, 0.08049215166034052, 0.9532823026982984, 0.7264253516255001, -0.8787161009255045, -0.13261394049944664, -0.12953717568328527]], "second_weights": [[0.9470592908230112, 0.6945048854189484, 0.6641701498536823, -0.46743864246795286, -0.1868350300933417, 0.3544064042429842, 0.09328949758195869, -0.10576534063076379, -0.08354201650346528, 0.5241203107138276, 0.021287007888375693, -0.1597984929432094, 0.2879045287072606, 0.13912842549717586, 0.34936722927370667, 0.1788287994027882, 0.0781260992929429, -0.18873835116491697, 0.6579577926037601, -0.2954364843645884, -0.569749484177806, 0.15974773625435307, -0.5573403519814477, 0.6037774802184824, -0.731612376274297, 0.3408225404821995, 0.6765577134647138, -0.2015627582020322, 0.15402377353644953, -0.4974783261063911, 0.43828894557317444, 0.08660144086805938, -0.11724104285104925, 0.09651511034083596, -0.7324170564428354, 0.01615606055553873, -0.4288467293431384, -0.6647617800640161, -0.26999719742148726, -0.5584413939420252, 0.47240460808826695, 0.5696492900359806, 0.23642626704568184, -0.12478512501465434, 0.6750797413484192, 0.05130436107337557, -0.5567628221414416, 0.26877157943695507, 0.14995173061336867, 0.1431535741952201, 0.06315048235745455, 0.7967228642637788, 0.07429491498738407, -0.5018462103626307, -0.7972773658349944, 0.8319640008449838, -0.9158719083759387, 0.365556677995805, -0.968615060237828, -0.6434848145507029, 0.844521808121644, 0.06252608332137982, -0.07143150631398251, -0.10054251790658021, -0.046986107282906545, 0.3618726942986945, -0.3473104065334771, -0.3638683584241736, 0.7470407212463446, 0.15407578280492573, 0.7951389378543616, -0.23590748616925628, 0.4107326556032984, -0.6611860160796331, 0.2188167683585832, -0.822044806046192, -0.8015535524159194, -0.5165602208584019, 0.3012418975873905, 0.07887268727604829, -0.023928567269326993, -0.10266579544357203, 0.12533065533693533, -0.13048143550575508, 0.6244992491471618, -0.07950519578582861, -0.4298602211566378, -0.6192370272231223, 0.04274443485643809, 0.7731400837832988, 0.8702592121108248, 0.8112888825592303, 0.0426345964170063, 0.6052700918691424, -0.3263024835917989, 0.2830863992818018, -0.01719625763281294, -0.8082319362275444, 0.02841123123690426, -0.6549529863530407, -0.7612774255938141], [0.6225692958206643, 0.08109051526017254, 1.000699899097387, -0.3886058081559771, -0.44888235243779767, 0.9721747247674244, -0.7696990533234587, -0.366525417678034, 0.05158091057167192, -0.6705368671180112, -0.0692774657553556, -0.2780963115402418, -0.4312460160766757, -0.5200416308827822, 0.21792253707679565, -0.1774671201884499, -0.6503678228904446, 0.18831096578422546, -0.1057537631599259, -0.271627911213171, 0.8863598024889991, 0.2522104797006172, -0.36250155678734597, -0.8277568935580846, -0.865708837959541, -0.4923049130506626, -0.41812467543163445, -0.28325442278840224, -0.15456522806739703, 0.5580740808703255, -0.9577523979005196, -0.09385909863830098, -0.09350337188292525, -0.035510058785005974, -0.613458787104985, 0.008239629458648269, 0.6687213855606093, 0.6809121971660095, 0.1326948269034911, -0.28490389865506227, 0.1422207933620636, 0.8266640437893414, 0.41533728009095794, 0.5535920797426891, -0.9329622347160715, -0.0468514570922081, -0.17485762434855578, 1.0140706570486615, -0.08563397507494795, 0.15673216015109248, -0.03766073055393601, -0.7456577269701856, -0.059583118060784854, -0.3855255174390288, -0.5652395244151943, -0.5641145671661394, 0.16875164771283924, 0.9021957281213348, -0.24787314804578592, -0.03229948620260735, -0.8611619916705879, -0.06913315608827048, 0.03943354645769317, 0.4345591281797254, -0.8237174528173954, -0.3056550814227159, 0.9156699366818553, -0.08702615939547816, 0.14645726257695024, 0.4342491101720589, -0.36819045835557673, -0.43553922262690414, -0.5229821599375803, -0.6224763066263153, -0.40843337573492716, 0.030644830469230833, -0.30653495401550823, 0.42741779519970224, -0.5127135216091108, -0.06614085188039251, 0.060528686498969836, 0.09633497541130491, -0.08654203098076008, -0.04283435200429836, 0.6661501515766824, -0.825839917087136, 0.303394238664108, 0.735252910626337, 0.011825173447415049, -0.04071567894324593, 0.5262762701672221, -0.23835332214076255, -0.024840358215118027, 0.8154325653188692, -0.11733529334876386, -0.6096658130018533, 0.01679526734316276, 0.33284110384666454, -0.03317916030392708, 0.9386519166627569, -0.11314896194723648]]}