{"first_weights": [[0.44351360795217604, -1.634909601882175, 1.7154765032804418, -0.812843576015584, -0.4378225955016915, 0.659742084347421, 0.8932148328593192, 0.6841516594066777, 0.7260591693770695, -1.3728151838038372, 1.7020233902995048, -0.3859246794276577, -1.6251404427372724, -1.1370768042655086, 0.5368793252020537, -0.5379662823628868, 1.2201421463058777, -1.0261782692423556, 1.424983466163223, 0.08730611337148199, -1.9391484777486727, -1.5672038233005408, -1.991260744297061, 0.14774602381999988, 1.6361919243923688], [-0.047046057309886334, -1.6506489705692973, 1.3712891192100842, -1.548328709374241, -1.1725613484740396, 1.2015409170909623, -1.3158868621963038, -0.3776247569022424, 1.1830575537375356, -1.4814150128430499, -0.4609385093092476, -0.1999576374174393, 1.4478327828085504, 0.5147357411920098, 1.0267947301872338, -0.6585244688704839, 1.2697405999334672, -1.613895748780858, 0.3917984751172258, -1.244745715947802, -0.99089866725828, -1.1254756577461473, -0.5514167026622327, -0.30311256976491036, 1.0981632717977483], [0.12078631503377994, 1.6325941875718022, -1.309104722795028, 0.45178686279798996, -1.5458477308856342, 0.8625508612785185, 1.223155390369504, -0.29271300774883047, -1.1406531230849888, -0.6137594988726126, -1.706424443872785, -0.5114815476028864, 1.6315115024548994, -1.0897982060603273, 0.6094483883751479, -1.0345579742298738, 0.9144083361765171, 0.7284765729834246, -1.3696363708095165, 1.4524987780210377, 1.6581789261272517, -1.0213287822186394, -1.9974230437880796, -0.7476592674126464, 1.6866692748027905], [0.5969910662269965, -0.4970636980174937, 1.764371884051233, 0.860104648138498, 1.090659884392002, 1.5481746133466532, 0.3811640284569654, 1.2876841452069718, 0.1980533054206726, 0.4320675220284694, -0.7021291457941176, 0.9809370854251019, -0.17267336934309757, -1.4968241405566949, -0.9801042398768532, -1.7225021969978889, 0.8413529221666851, 0.8064015229699464, -0.8370318582935333, 0.7106754856894779, -0.7173399577159442, -0.14486144880621726, 0.28033267122942773, 0.8982969780176613, 1.421861282937042], [-1.341821784598621, 0.8357520164501011, -0.9914710393582278, -1.1887531389525527, 1.5553505085500363, 1.0102500957031233, 1.6348302587938517, 0.4609650701307884, -1.910276555401724, 1.9711224428232725, -0.7192224920679288, -0.21811566172840965, -0.8604161284244178, 0.8084476860240702, 0.5478499024163774, 1.9627733426397442, 1.0476938705470618, 0.0838683136169438, -1.0606961062695492, -1.8178268629981782, 0.4913850429065244, 0.5642640886826755, 0.9550707998107726, 1.2482996935090191, 1.9741726070659988], [0.6894805709898675, -1.277483386123415, -0.904594420245016, 0.7372341752684463, 1.448932613389874, 0.11916332931705002, -1.4230428718951824, 1.0092099233398788, 0.6825758824878779, -1.2132029525671413, -1.0597502906786231, 0.5093956521006132, 1.1510592520094878, -1.533694099968164, 0.6350856219846296, 0.0805539558863621, 1.7708690217060894, -1.5430084631583074, -1.7300037161968156, 1.5331612271106412, 1.0967402010029412, 0.8718567546218431, 0.27920748622873703, -1.4482985902153993, -0.8572152617459377], [1.8221364740216333, -1.9138734171000096, 1.387225131620052, 0.1866628551206332, -1.1668282888028, -0.29620763629151925, 0.7950698647986737, 1.673652440521306, -1.8326829726343978, 1.4281779739795857, -0.9540071855047886, 1.3510382734914759, -0.4012137410749196, -0.9624312712438422, -0.6113130978327546, 0.24809143618984522, 1.4432038439646433, -0.01583604004817639, -0.23491522272058216, -0.7341532850682831, -0.9472738777591869, 1.7090906089643696, 0.28994055530567564, 1.602531823979814, -0.493106367112846], [0.21456200535384268, -1.9676343082217949, -1.7498549141028485, -1.766510804220715, 1.8428654640769824, -0.5342362522888724, -1.5469050200073682, -0.9928910927654383, 1.1807307050538742, 0.7368204599309266, -0.0511735283106209, -1.3214302938751006, 0.2971761021712903, 0.05558888719862441, -1.2256239879705235, -0.2926291746305471, -1.5828235200622052, 1.271256841864022, 1.107981947453217, -0.7057415659423243, 0.042497905913900035, 1.0475123575574057, 1.5770545216068506, -1.50933281262206, 0.6305164652064862], [0.9963096193973863, -1.5911244501245356, -1.1217283081071558, -1.72272612354052, -1.1082137862743742, 1.693619245111198, 0.5289326333745851, 0.5204537130100231, -0.8344455555939392, -1.7711355700789317, -1.991871752045718, 1.8986293425114775, 1.7071046447989993, 1.182102332280064, 0.6801772917606649, -1.1281540319854413, -1.0291360481442207, 0.4674751555469045, 1.0460440910759532, -0.7216452984230409, -0.4668894750647141, -1.5000959167233083, 0.18530643923464768, 1.6983616945626436, -1.686789232936434], [-1.4314272333894182, -0.12842797175106188, -0.9635545228071518, -0.7280743535671459, -1.2091451122109325, -1.2516548554990132, -0.04263665819587077, -0.09911445513951814, 1.3059131286391414, -1.7805308858672932, 0.1573958320732544, 1.1825010832429508, 1.5384360181043786, 0.8296483319823196, 0.737177327924241, 0.39331245697929856, -1.5450105604762283, -0.6442609425071072, 1.0562252430970531, -1.3802451637054378, 0.004313683936853139, -1.9489940868433644, 0.3060779855953814, -0.8195244884998195, 1.915726899224336], [1.9263480225214504, -0.12649552770008002, 0.7821607685263924, 0.5083835257505687, -1.0551155511364834, -0.2930795702881735, -1.9519215321078422, 1.099865210647119, -0.3540636254443234, 1.1545842202543632, -1.904547613096407, -0.4418487494968381, -0.7455573896837329, -1.6141125095152589, 1.5019236241136624, -1.526086354900868, -0.68523416647582, -1.5675377664286305, -0.6763736810759503, -1.588477396506484, -0.9702318367570013, 1.6846158519489571, 1.1808481684692138, -0.5620996706744767, 0.6990878981008863], [0.9526630767066002, 1.641905070796573, -0.3348751446957263, -1.6336483811542653, 1.4656948704411545, 1.7421766573590836, 0.07039737857456962, 1.161486871911772, -1.5775040272994392, 1.0250401112641903, -0.48965168850835167, -0.8306406034620045, -0.6096912648352794, 0.9370055672487754, -1.454666153231172, -1.9289138962433663, 1.1644232665910876, 1.0913015331399996, -1.3317908205166098, 1.4742484277980497, 0.7312893418188321, 1.9660262802379387, -0.2983808560839227, 0.10010820974439066, -0.7604218160447979], [-0.16835079114788135, 1.1075173968125165, 0.016478147429831273, 1.069645943670316, -0.3418946120117437, -1.84282148314362, -1.2790067733790838, 0.1933299408850066, -1.0324315868667693, 0.09035172888280096, 0.09518293615625242, 0.8088813078693902, -1.7416829832288399, 0.35944010685443933, 1.638052034715256, 1.9387189224675927, -0.9401009028350006, -0.07354292796290801, -1.0537851335991406, -1.735849266011933, -0.027703265725752484, 0.4464076406082942, -0.5565555194206425, 0.04830015265766191, -0.3895384492051195], [1.0393117501491387, 1.7997954621266887, -0.3291386588615878, -1.7576883128622975, 1.140444307803624, 0.34356829235104885, -1.5717691800583418, 1.1646610477975927, 0.11041613697773753, -0.5506449004964276, -1.4661029528131888, 0.7165269158533657, -0.9050629095896285, -0.2998413197975679, -0.6738371406103445, -0.03636727318766938, 0.018790282253832894, -0.16874552719975522, 1.5660029198417873, -1.2773830886753432, -0.36783543646108346, -1.188754890766225, 1.0342962643962357, 0.029001357858936476, -0.13682598601584597], [1.0282702907107648, 0.36482923120299937, 1.4095781110147287, 1.525114005476181, -1.1170208044276972, 0.48228819067166656, -1.3965667593906543, 0.1453385862096196, 1.5820500462351281, -0.3651042120043962, 1.0107372672516708, -0.4948919381131765, 1.7814180094029604, 1.319994150347634, 0.5938542242386408, -1.9741895522092283, 1.8960390315940077, 1.885318744372157, 0.7970829120717878, -0.22961034382782938, 1.1455992058949471, 0.22008223679962227, 1.7255644300322168, -1.8552791453515043, 0.3233635905454044], [-1.9637743458827648, -1.9542559627995477, -1.442209650229628, 1.7015523988572003, 1.9203081169276266, -0.6732205654941773, -1.1601989047078352, -1.3029123599659622, 1.0404944950523556, 1.5626269066127878, -0.09638521426226873, -1.0289501287336722, 0.7425957184045667, -1.0971808848332552, 0.8061980679655643, 0.23105191143943782, 1.0084859205690582, 0.3526838554652251, -1.3431313230733886, -1.4706459655318342, -1.2140407854037938, 0.6584600369707008, -0.5329792292356857, -0.8583485746508565, 0.793901098399755], [0.9626736834172851, -1.2992480152645456, -0.594240110524189, -1.7915610443537713, 1.1062816523802732, -1.5606133499764514, -0.6526942639680969, 1.1958767640634518, -1.4857071240081166, -0.9781344307490326, 1.4250721010558847, 0.2489847718659413, -0.1338523479328975, 1.9652765522940665, -1.510775997235923, -0.1970468670209929, -1.0923393477879297, 1.340692534638002, -0.6479819885117134, -0.6510868136086402, -1.674105160689294, -1.0785465580119553, 0.45468694177492963, -0.779857299796958, 1.7488606372309448], [1.3584482580644242, 1.3768535357497278, 1.9740445471654047, -1.6111897755875744, -0.679563375780817, -1.0861523535022544, -0.31891936817232325, 0.11224432878267944, 0.8980744316049162, 0.9241259015857164, 1.7864000364397128, -0.3122694626558196, -0.2314261684159604, -0.2810745287133136, -1.073139169975628, -1.222284868685023, -1.202239359771478, -0.1279087978780183, -0.5338533019227957, -1.1835320424921265, 1.0871882178814471, 1.4068589842995531, -1.638071173617447, -1.0212102234697913, 0.27121872091461996], [-0.06328424474036633, 0.5861739501958979, -1.5032024352765412, 1.281312130935255, -0.9256359502233845, -0.29593670002310357, 0.015891538755113663, -1.502279784277202, 0.6155779927324191, -1.7170470955639805, -1.179392446474423, -1.1096792741434267, 1.912798152940445, 0.4589115827804554, 1.864543832962715, 0.8031928022861823, 0.6000611029907922, 1.0552084494228284, -1.3825101078965256, -0.31015748087489214, -1.004619166437551, -1.1976031627606405, 0.23974046281344386, -0.33487291536744246, -0.9644059587706998], [0.2606377704978667, 0.3767947287380189, -0.1351887490076358, 1.708377209197, 1.930820199145998, -1.1252883263634046, 0.5571971105094962, -0.5395983274468872, 0.5020948555625406, 1.3899258932017418, -1.9026832963369553, -1.1021066315559398, -0.4303620771490706, -0.4025559502997657, -0.7903853276280408, -0.025521156507952624, 0.6055870278803169, -1.5646812096422784, -1.226507242094698, -1.1185845882999386, -0.3872028073487639, -1.8431188698935825, -1.9801062422014768, 0.7058477959499878, 1.1936953919127582], [0.8188882969638515, -1.9267864056221438, 1.8227165597218804, 1.4958407267595009, -1.6881563342735777, 0.53557373633009, -0.15785552807545308, -0.5265598600840388, 1.159688934659235, -1.6137158758308945, -1.3326690743514122, 0.07059291413573622, 0.5807046569857195, 0.22764162314996195, 1.7659244228470983, -1.533730361746879, 1.1717050700847709, -1.1201251128790337, 1.0301164154306395, 0.4298144465932973, -0.37733956256985296, 1.3210238542088204, -0.4694123737214881, -1.3641343469569829, 0.8933823370585179], [0.47187120866335747, -0.5959376216609341, -1.2487585029852255, 1.9184349228062911, 1.5254879211489116, -1.7221380997598745, 1.5183372754245141, 0.9462459437320511, -0.10838536029290205, 1.784744099962175, 1.4982315485314976, -0.6274873635452436, 0.48164360439730913, 0.31499802871511534, -0.2364956651814859, 0.6548658061010293, 0.23776519179550265, -0.7226298585638573, 0.08534225911191584, -1.1467190834356131, 1.2512349628532102, 1.563963733018351, 1.6218737547938193, 1.0041100754493333, -1.3867815801244945], [1.6889720395200687, 0.28563248514353834, -0.49169417041427277, -0.6224976555019128, 1.0556838040379473, 1.4182007865265476, -0.06065348194462741, -1.7914615370907698, -1.0378891504237355, 1.1531169974444087, 1.8000348353476185, 0.11637234464815871, -0.8301599932637059, -0.6307312378937366, 0.31188758325049915, 1.87255725292809, -1.5157704932030271, 1.5604394612438792, -0.7419351229301285, -0.9154830029501068, 1.1013144534377435, 0.10378354069886025, -1.9992552440796592, -0.38041438012384027, -0.4614759257730753], [1.9025687298992922, -1.858460639912335, 1.7893943638662895, -0.21111203176766105, 0.6248285248372212, -0.755889690961319, 0.4747587714976756, 1.2790339180719208, 0.3040038297368546, 1.740231236295885, -1.9582712588297038, -1.496538245696693, -0.47119451441527155, -0.6301237142752328, 1.0581074526213299, -1.860235313878271, 1.3516769966508297, -0.5581920533235885, -0.740167868369014, -0.4766927820398731, -0.1575661433189104, -0.6924450656550692, -1.6210094291076045, -0.770712077909501, -1.4740931019074703], [1.560807237247292, 0.8652116728281729, -1.8970810103766662, 1.5191418048941017, -1.553329789526946, 0.928584133890837, -1.1999543156174353, -1.9641755571070059, -0.2934234924368205, 1.4694677495961488, 0.03926037241343375, -0.4565066157833622, 0.6615590604946983, 1.4596430514428238, 1.5154482518631434, 1.673175852097782, 0.7848800906935182, 0.4939778862558648, 0.863599526740138, 0.9100223238610934, 0.5603402430985199, -1.3082648532062413, 1.750096848307601, -1.9987062571799705, -1.052460384325246], [0.8594207982104822, 1.9697157074742502, 0.9548250680697731, 1.0412905580021845, -1.3943870245649774, 1.6982446894538594, 0.5827082376879563, 1.3887056356507173, -0.6545062322148448, -0.7137033986190682, 0.7710715989096426, -0.9097870391943755, -0.542335041245524, 0.3985109110516206, 0.8541075735798969, 1.6059985274252195, 0.43233000131195276, -0.5074531252014768, -1.8526310292384902, 0.24628074523955334, -0.19163827885863124, -0.801267505824145, 1.4890463403826986, 0.9247234132427656, 0.5524469107293993], [1.3155326075680274, 0.21623293767108695, -1.7139598607754296, 0.7648589220553696, -0.43615439952943996, 0.841944634546742, -0.3408900211673855, -0.7420835221889873, 1.2654379328045755, -0.3230770474408278, -0.9260338024616493, -0.2705859069416859, -1.9995914012194171, 0.9404073882215143, 0.15875854271841902, -0.2318863793222494, 0.8433859089912562, -1.7312295277206926, 1.7519330191829914, -1.3774363413015203, 1.7458242930192909, 0.5278010224662647, -0.8192879118327712, 0.25275325380521685, -0.36398342480798895], [0.4522689576317154, -0.5160160976751009, -0.4169151579566598, -1.6198373810255762, -1.9337895548997996, -0.15920909416537726, 0.9897764564466298, -0.058504117489594956, -1.4401329718251616, 0.9189533019383305, -1.3114615966515646, 1.9873441797606866, -0.7540086703723671, -1.8294537017285604, -0.7093323456764329, -1.061394164127724, -0.046633500890971215, -1.5263671318915664, 0.03226870712611918, 0.19870341124153712, 1.1027211294324517, 1.6593640149061737, 1.365519256682624, -1.1967932983507512, 0.8169957669313019], [0.9559916442081716, 1.9972408248620783, 1.7125248422883632, 0.5774510819865654, 0.2783334298638979, -1.8250352670314478, 0.5067600338567433, 1.0195040850591848, 1.6655962760987593, 1.209846038909179, -1.5876467684787026, 1.8396966608828254, 1.2285924628744385, -0.9257787274487829, 1.3819109778026195, -0.9000967281905743, 1.571540213181441, -0.9258161511492197, 1.367695332815254, -0.16262668195223648, -1.4506892177056054, -1.2705053329538882, -1.0072740848393642, -0.743900745096829, 0.4576571329358471], [1.015089911685652, -1.1875013683729776, -0.4621527590875486, 1.097350826246613, 1.184284472094174, -0.5187825478089441, 0.5359322624318362, -1.2512793340470867, -1.5924537575988345, -0.5138061229737424, 1.3459166001305742, 1.9546924385545748, 1.1717337763201316, -1.566469841380804, -0.6920967518845444, -0.5734794485231143, -0.6481167962007065, 0.6771838812809551, 0.26067600511657546, -0.8458198912484796, 1.3998845430182187, -0.7172192525626732, -1.7537240969808359, 1.9429168616975432, 1.6648198670029775], [1.6177385640667092, -1.197121012865658, 1.8069003687916, -1.867355535379124, -0.12921011292860596, 0.16166254811873057, 0.5009512096974437, -1.2010563272110346, 1.5861542313124282, 1.008947602950087, 0.1300021866393273, 0.16715295313725198, -1.3830326055382562, -1.2374654724710235, -1.2915458960941832, -1.3551214474759221, 0.04482513545759107, -1.6861192494791464, 1.3002098184860726, 0.6024629315891014, -0.47789652633341234, -1.1509478707287275, 1.061724843700723, 0.1331158732546323, 1.3201176913635673], [-0.41399421411387183, -0.5486757632187839, -0.9826967136325823, 0.43563675319375683, -1.727336899398379, -0.38937666010041294, 1.3373915699818237, 1.6978316872063857, 0.03223253329387273, 1.9294129992892484, -0.01653234127737674, 1.1806609682812659, -1.0424395503694635, 1.7276565022585988, -0.8829173748895547, -1.7161660791964042, 0.1987000109321986, 0.19388872803684554, 0.9873213000847193, 0.6932152126667129, 1.6044272421649282, -1.6873853350672345, 1.803185422774655, -1.977562099354118, 0.08459731504049649], [1.1065332103492753, -0.5396397516922505, -1.3892700358392285, -1.711119491278128, -1.6549713160477455, -1.4567987842757069, -0.559379993576114, -0.4848081838714256, 0.6173948597628746, -0.749795440284723, 0.5234237988627647, -0.6057309574431323, 1.9891824004687435, 0.6488726392674748, 0.5940216144825229, -1.5449773233322563, -1.0866076321966203, -0.5076726697794428, 1.9807111695281325, 0.26911708378476473, 1.3337090846726436, 1.105540931726605, 0.8201048768375596, -1.58872185384771, -1.301246314958686], [-1.9799968227742526, 1.3188940706661327, 1.574864638700477, 1.5704803361713022, 0.06717876176305786, 0.08066599809435404, 1.0339609929874445, 1.0471506201554133, -1.6999490577725715, -0.07099975936918791, 0.35093670116739906, 0.1870866785016113, 1.767044035418651, 1.5077419023536685, -0.9234944717066403, 0.013506850434889316, -1.716096965356319, -0.14808928856812226, 1.8612282016650061, -0.3868770066499346, -0.7286989700748548, 1.604409638125965, 0.3188011687740627, 0.3250005838874268, 1.0793545101803648], [-1.948334816212458, -1.6615909875303085, -0.31795913624062544, 0.32205002556262974, 0.7686899570488165, 0.9148503746397632, -1.1694947335107457, 1.7141713266373455, -1.5085675623617347, -1.7285277978779243, -0.8847547279755272, -1.394028497398161, -1.6618585649523332, 0.4191778044267527, -1.8378421728914294, 1.2830925870134502, -1.691020971412698, 1.9872270640371166, -1.7608955852641026, -1.157078896345368, 1.7268964094564172, 1.0329981263513854, 0.6083422588518335, -0.6532207092523433, 0.9060850982106424], [-0.004671836208195471, -1.4087064043628692, 0.31380782411010577, -0.1573125056604309, 0.48611466130289255, 0.031562852042131134, -1.98582349358028, 0.32034273569452615, 1.7230684998802508, 0.05316521662260427, -0.899163130435005, 1.5974571683114744, 0.9879190814843648, 1.7470923063047328, -1.4682766862933447, 0.9859443879586609, -0.4858859704115798, -0.4738143210642169, -0.1058814228415541, 1.0373344983066386, 1.3258745778184513, 0.7421898049291777, -1.517660055551978, 1.3721056377233953, -1.539171031901079], [1.280905303769961, -1.7719612800940339, -0.7103099363278282, -0.8692537532772378, 1.6391578696359308, -1.7415254621337797, 0.39563572565638755, 0.305056069563612, 1.4807320128496357, -1.3423938290126525, -0.6756099116737794, -0.564595551718583, 0.1834603965136725, 0.2760090965403665, -0.6059380378907708, -1.6921040788074402, 1.4298551275811766, -0.06995833382703352, 1.9218468691822044, -1.8716497673003805, 1.1572300040168493, 0.7904659534528773, 0.5933957323202832, -1.9002043989379818, -0.5096868762263748], [-1.1683786723076426, 0.3170289978870425, -0.6160611342882374, 1.502264687477598, 1.8704858061368856, 0.28886167719146977, -1.9413269057475284, -0.09035383518346504, -1.4838401675675346, 1.1755743423220724, -1.035376745176103, 0.7729116220594675, -0.0957988729833673, 1.5885588695598345, 0.1649837753092865, 1.0401797024813868, 1.9056272660814682, -0.2838176847271306, -1.0628426886507465, -0.21265733633150552, 0.23435559136254228, 1.4953241026448816, 0.5034721725207222, -1.527192993980739, -0.894051193248687], [0.7481576202501596, 1.2530174368108309, -1.2179456453569357, -1.4506799466424862, 1.6106177946535682, -1.5050742058577915, -0.6390781452747587, -1.6692948709401754, -0.9884446641410202, -1.4082983481613525, 0.5005433395906197, 0.48337063801423985, 0.804898077356445, -1.456065588476805, -0.4970301519540926, 0.6366955213190192, 1.0505759998757325, 1.162390879833661, 0.30591828672533056, 1.9414065008698762, 1.6083598933712233, -0.7989422515644948, -1.894766218344454, 1.7285620569735352, -1.9539157775918201], [-0.007555935819779677, -1.2389379175896469, -1.449553235132485, -1.9260957494113915, 0.4283400034172468, -1.5671445491878524, 1.1272816413184863, -0.570764451051748, -0.42782376867541, -0.7600063598811843, 1.6103481816875451, -1.6456576486353423, -0.8571235003363131, -1.6122476819031777, 0.35371175410532757, 0.43918136573238126, -0.5956290860564483, -1.1544697989440438, -1.7570455227585011, 0.332293845690462, -0.8100717569599496, -1.225170455512203, 1.4519300506919162, 1.6485431204446916, 1.550807571673106], [0.40108471397073175, 1.8892147847262137, -1.539254840829614, 1.6989007084927994, 0.2577805802398845, -0.48611403418900023, -0.1552685592535899, 0.31063648598332844, 0.9437705023982255, 1.6913786605211143, -1.6603153853350536, -1.3760975663622745, 0.9870112572661071, -1.1010361491164828, -1.420954851648968, -0.9621812287025637, 0.6217124457609727, -0.36642193401739465, 0.7874912579581458, 1.400081457295263, 1.671664160161034, 0.447827925157087, -0.8178213769343448, -1.7749432836639953, 0.1583526345401914], [1.1415675191759906, 1.4391094887468179, -1.2972722290907792, 1.916495587534387, 0.8844054155358696, -0.26900224602247524, 0.27879660910758164, -0.5213646236153444, 0.9202415223498241, 1.3139336932601529, -0.47895266514411255, -1.2111587502215608, 1.1607039645688093, -0.4187707908828209, -0.31299776275879787, -1.3132306897693702, 1.739108071526574, 0.07114350163116397, 1.3359052158425184, -0.6705039025055123, 0.770142066149859, -0.18059786920784374, -0.5086641622587925, 1.0721191998325277, -0.4298908806967957], [-0.7453205346434313, 1.6244165558711754, 1.1477770896665815, 1.6526188802564985, 1.9414534157312278, -0.632732389333126, 1.2616797708146053, 1.237099943931733, 0.224996817104549, 1.110920701754451, -1.876754704818457, 0.5291699595636586, 1.2396011330021115, 1.3609263354338517, -0.4567485955516275, 1.4466472231440946, -0.13222584280407537, -0.4862271482500398, 0.5532058896612512, -0.8635771824148357, -0.8259958750241051, -1.6888453493171487, 1.9379304746704589, 0.9870568709761898, 1.6433730564046056], [-1.7857993836365325, 0.08599292167490984, 0.4429052814714917, -0.7073361602508558, 0.2831699313295734, 1.2178141841430492, 1.907738038531716, -0.12023513471280131, -1.6275896296927697, -1.2266692045459213, 0.2711290701087637, -0.6527260020975048, -0.674078695919104, 0.6844019545615424, -1.287868245683365, -0.7000424408126636, -1.3802736828026745, -1.235904288107976, 0.6262366643209437, -0.21012231937027465, -1.8609210406298693, 1.0941559006305777, -1.2566806414297087, 0.63335183153347, 1.8940734993229102], [-1.0985692568189205, -1.638095971690217, 1.962506760682087, 1.6307007390012922, 1.4753856895902338, 1.084331871356989, -1.3989004256115163, -0.4371986226120725, -0.264738716812543, 1.6386863013485573, 0.3807831567257139, -0.025257599402283996, -1.072201859890182, -1.5645795847879795, 1.4669049036409312, -1.1963480611593096, -0.942117849257499, -0.9576758969488759, -0.06900067853095468, 1.6886886697030046, -0.715216894354752, 1.397993476875561, 0.2913537193156804, 1.8098121192012628, -1.8033185804622907], [-0.6036132376608218, 0.5188461131314952, 1.2816721547051828, -1.05729670032074, -1.98345231906108, 1.718440244523347, 1.83284808247653, 0.5952973662918049, -0.6708634372811968, 1.6175786518399136, 0.19212018011951595, -0.47589498770264044, 1.7520075629140013, -1.9626064586712793, -1.9348947432497594, -0.6282019504742258, 1.0929697096611404, 1.7265094648404646, -1.9113777916756485, -1.7097564895452741, 1.3881823666612638, -0.19654205994376395, 0.0032498620441732957, 0.8234736602614458, 1.7559016858058125], [0.3798072725198994, 1.2050346706582282, -1.828447359082638, -1.6316363058397785, -1.9362412943094376, 0.7261692398524833, -0.6975955238874044, 1.9778672406697602, 0.4403395749065059, 1.6888178438084442, -0.16038878246715232, 0.32986106645552593, 0.5515868705659103, -1.2907312069726415, -1.8949662466906299, 0.5606344332734112, 0.9257954590396502, -0.8426259787312254, -0.6674150762870148, 1.012851033718719, 1.6831197877294872, -0.6607934714562104, 0.17943755652180246, 0.9151034289214736, 0.45807418443388204], [0.7632127127176315, 1.448554511387628, 1.9045732666401998, -0.18576148964810904, -0.642328845277997, 1.0235215218604117, 0.0786292424984329, 0.3837567103889871, 1.217933127467357, -1.9332052771281805, 1.4217340984441862, -0.694612700382728, 0.7393792520081177, 0.06386005187261509, 1.1502192221480325, 0.6612040197581041, 1.6915943814132717, -0.5183943443534688, 0.13796786034209785, -1.9929564702022047, 0.3370099984527203, -0.16770950971598264, -1.5629464768277106, -0.5496900980368393, 1.8297173285825887], [1.1499228793984502, 1.2455003083628524, -0.8302247608150508, -0.7789424360891565, 1.4607896402251626, -1.6956141997944074, -1.5383930686558842, 0.9693326747152754, 0.6758489028433801, 0.6700966359289753, 0.49993477163396927, 0.6133203603653111, 0.8072989943654578, 0.16373887686853283, 1.2907561979589421, 0.09946370024678725, -0.8609000878111168, 1.2150798989884457, 0.25497465374998485, 1.1525470425404702, -1.8895276720661383, 0.6771630285609042, -0.5653441755600815, -0.5495023825110406, 0.7413864069670154], [-0.5002633947149383, 0.6770660421662044, -1.1407609380921184, -0.48984886185278886, 1.0767398718883665, -1.4085247134288672, -1.6808496084011664, -0.6022182422917414, 1.0273980650545143, -1.6223262768548952, -0.6308066948505836, -0.13219206699299751, -1.3704283090718825, 0.5488942525047563, 1.997278478602305, -0.5644735095014077, 0.42350292771038855, 1.7215407247137895, 1.2925054120712485, 0.20245546310923665, -1.064516963935886, -0.726509584488986, -0.302505277308895, -0.21878236736719434, -0.9305623317197493], [1.3442918662745316, -1.4043882195404853, -0.5431620915354698, -0.17076287557110942, 0.5967948368477787, 0.5126068778656324, -0.6601189096460368, 0.2466145924388185, 1.941317024949435, 1.8181939781880776, 0.6566718947485487, 0.5641501740407833, 0.47552962500576906, 1.008069986390073, -0.8495451102783289, 1.1351628176053858, -1.7305348495493282, -1.3112089053530323, -0.787854509179256, 0.2359333499080206, -0.0774431911399285, 1.7813110562775654, 1.4535664636656032, 0.457524348019172, 0.20855571583386998], [-1.8933567116146028, -0.3171414206986159, -0.6649468088670252, 0.2516530191585767, 1.0929819069116486, 1.8744140460139727, -0.003382622641154228, -0.21849762862961006, 0.9342865475259241, 1.7436508720004227, -1.7746505011805804, 1.302169758733793, -1.9224334846736162, -1.6032415425059199, 1.9660840861769102, -0.4515729586064322, 1.2710320239315118, 0.42233951414637416, -1.7952247633946998, -0.24697207467581367, 0.49218943872810744, 0.28506839404925327, 1.825089531055703, -1.185826704952644, -1.1068870435886322], [1.8828166026401374, -0.8474131196225311, 0.6148590998212967, -0.5914707282147036, 0.2527843059165386, -1.3445141926096844, -1.6630396549311133, -1.4228013998983653, -0.5305625213001072, -1.4715899526539333, -1.2458446651546133, 1.6161991867131666, 1.3699627108511483, 1.3134745656234512, -0.18328209692855035, 0.03859865453314756, -1.220232845342408, -1.5741544365350342, 0.9230208373907742, -1.3408945406207984, 0.4702138988541394, 0.5044884365286968, 0.38918416549224283, -1.5971991814623996, 0.01035233456119562], [0.7419826125728237, -0.16916042089376976, 1.1476431473734559, 1.3140263353980015, -1.8483331885515661, -1.0920269843819537, 0.24347926278660678, -1.3181953243828681, 0.35107073666784716, 0.6951435856647931, -0.06790627159631588, -0.15464383031193382, -1.3650626528752725, -1.8026776939995837, 1.984852082149646, 1.1275074315959448, -0.5150391277273964, -0.3873910965412032, 1.9819519718298888, 1.320008181830186, -0.16935545291547383, 1.4129782268624014, -1.68732159834972, 0.8011424214014714, 1.1674521934436963], [-0.27230025129009555, -0.9347807581020018, 1.7510416244206486, -1.8226098041594752, 0.27598876659472765, -0.2066825943629038, -0.3511516871680711, -0.9925139303342396, -0.9580925068349865, 0.20353569057177445, 1.0046551572639268, -0.14622021584067044, 1.0256603189775126, 1.0711732048145879, 1.157077771332426, 0.742476058371313, -0.8044106150334298, 1.1782038611255876, -0.6853720201509725, -0.5410466623416942, -0.32372696921545596, -0.9029698533573467, 1.5407061067987184, -0.6383596957097147, 1.3169897257194314], [-0.9467174053303347, 1.9671007698777132, -1.2522407503046724, 0.38148262695986085, -0.35717324558901364, 1.9257353778875765, -0.6818634250904516, -1.0399170257812766, 0.6461528627133091, -0.3898747056736872, -1.1984838211906383, -0.8732904854460901, -0.5702095855912591, -0.17605531762024867, -0.16129552087935992, 0.7401831345471154, 0.9532815100769103, -0.1791531214269986, 1.3113743838754346, -1.5097627747287055, 0.3745062329922503, -1.3633107384649756, 1.2611725458300747, -0.06112140051480088, 1.5652255326109301], [-0.355877551226514, -0.036185909637814616, 0.36515072718705593, 0.18995640048008505, -0.17027289999618764, 0.7062986274978595, -1.3132929383815162, 1.0091926538131843, 0.4201988856228257, 1.3160974231913483, -1.486525924067947, -1.6269755303130662, -1.198610031300534, 0.8445074325342262, -1.2107217517194966, 1.515081409142356, -0.558318365123812, -1.087580265069276, -1.8535380127523584, -0.002563597296173338, -0.17206323164250414, -0.9090907956182153, -0.9696077947433241, -0.852510045285307, -0.06457635494481234], [-1.2589146051174285, -1.1434088841925654, -1.4701849128186368, -0.2921300428462254, 0.11054234204422693, 0.6596300382867785, 0.03544345080338157, 0.829618291353508, 0.4235077074229875, -0.11096446290440655, 1.5822817301334924, 1.130061997328868, -1.281056489926365, -1.9213285156085795, -0.641096450223572, -0.5040153698093183, 1.5162233347532081, -0.910387758214871, -0.8025826019522739, -0.6897221403519583, -1.6597035849920587, -1.755725447404649, 1.2754303551730863, -0.9346277342033272, -0.7873981676542688], [0.2729453701402624, -0.36051740575731855, -1.5533345018455773, -1.4979623126587807, 0.343622351474679, 1.429355138521941, 1.5390955587486692, -0.4018608343764432, 1.704780565118873, 0.5747183080421312, 0.7474039567255827, -1.7500776393139563, 0.7404649237473121, -0.12351036592902895, 1.5791359906687918, 0.32756979108572626, -1.7656365434052947, 1.7226974501350494, -0.41941063937631046, 1.3070263423466388, 1.8749688867786558, -1.6230840606839227, 0.7066840379766219, -0.7974833897129774, 1.4439738925611822], [0.7460436318964554, -1.0858580684956027, -0.2809694283708282, -1.5156312931712463, 0.10525294626489895, 1.1054870632429838, 0.992474196376083, 1.6745458904957704, 1.9329829429272154, 1.9081449694929553, 1.9875872609089915, 0.698182881755007, 0.6428993093234667, -0.821694150395926, 0.7021984243720455, -0.07572403285664152, 1.2513478400233045, 0.8269996146196648, -1.0602090653515057, 1.7624589236612929, -0.09149983719764683, -1.0085307120428055, -0.6475252165779309, 1.841095732451427, 0.5628169862662503], [-0.8548408716341742, -0.2443253419804014, -0.18018652648590056, -0.8323751303790932, -0.8202210900444153, 0.10229528076240893, -0.4037234859907896, 0.8476602864599219, -0.7076582443631957, 0.2682022645202651, -1.3329564173284902, -0.7691671672213676, -0.8711959911947422, -0.5929152130517622, -0.9026465546454152, -0.04804665884883396, -1.0377960503732653, 0.2332050616233425, 0.18828942917957087, 1.857822220282222, -1.1645529208598338, -0.891139390314472, -0.21219087664808572, 1.499660896703952, 0.6906249004971364], [0.25507688776086557, -0.015659040330422366, 0.41454714349310645, -0.534917698724675, -0.5907159498267261, 0.07965020748966525, 1.808172296798999, -1.4106496364640588, 0.1711721614748698, -0.6462817605381683, 0.11707257966689147, -0.7358912367938772, -0.6578763617451274, -0.26187421513578585, -0.27345296897913085, -0.98300679513246, 1.300175476330095, 0.026801694052298958, -0.34816856461337364, -1.8305197266181903, -0.1650884233727249, 1.7739682669348087, -1.531041725467659, -0.728729750041712, 1.056536218596463], [0.05362204181605243, -1.9353349128034292, -0.062329048805928884, -0.8139712318797246, -0.39268336751837757, 0.17179099974377282, -0.0037561404837276146, 0.11339781774346076, -0.0847052854469431, 0.23381118770147943, -1.0390613474942394, 0.2662725067240376, 1.0467139430298438, -1.7842449707852934, 0.7171728068160562, 1.7725964066515612, -0.7854077626342484, -1.3499065620942876, -0.09412590876456692, 1.630793383090484, 1.9095460738962653, 0.5003315013684982, -1.324130174859912, 1.5323839899712366, 1.2356888481227553], [1.390944594174607, 1.9083055783976917, 0.5478814984373898, 0.8617406499912192, -1.0541483958678475, -0.5517977416757868, 1.3803977658637199, 1.8525157556769305, -1.4140142204056783, -0.536245829095968, -0.43510923705558513, 1.7200182429844781, -0.9692552915283258, 0.771263239806714, 0.9254895702584903, -1.7928409672753898, -0.7011723695277399, 0.5062830758608651, 0.9463808155785525, -0.25326779503980945, 0.6061954084726837, 1.0984145166691277, 1.190150352725271, -0.3016416456143543, -0.8771789953916604], [0.6017284922454604, 1.7640050688598596, 0.7621241108932384, -1.3288488617998269, 0.6676794672244658, -1.62605907495829, -1.8534901937365673, -0.5916046903522854, -0.2302109744205417, 1.8721071946821564, -0.264739353870375, 0.38596844921606166, -0.7812622101574994, 1.7123073533972824, 0.8985946821343173, 1.0235663278637739, -1.395416907268172, 0.08379284179968793, -1.0966147685653338, 1.8477422255246416, -0.9631434123040535, 0.4854448069241902, 0.37525286177082107, 1.534446628582859, -1.0050100799491108], [0.048827119317987853, 0.9699594117154665, 0.3031291727923306, 0.01378802097385496, -1.2354906291291525, 0.1992795602092405, 1.8555411307930425, -0.04041141252092512, -0.09839088601983734, 1.128570205343052, 1.7358901176342345, -0.3657657927244169, -1.4310525355563428, 0.982528961023665, 0.8952276553219293, 0.8948701717903885, -0.29436539347742635, -1.1550955969538883, 1.7720950931416435, 0.7557756642566321, 0.6612213991940801, -0.15192249965568963, -1.402897000110241, 0.9169407635098713, 1.2945560742481], [0.1984094860034794, 1.3006192164282453, 1.162130281931663, -1.6422351918212057, -1.1553036931466232, 1.2536329378055984, -1.8848578146835435, -1.9917771832579327, -1.843548719997263, -0.28562075097077394, 0.7090204888061239, 1.3664445615886511, -0.08720115277842297, 1.8777893230332399, -1.9790689430539428, 0.2534127460932165, -0.8488694082792871, -0.8176866422655549, 0.7968681902355881, 0.7208469251918238, -0.9447979431867478, 0.20533454684745714, 1.9442290773063768, -0.2821797603383023, 1.8717502082451682], [-0.5018422959127654, 0.957946571434861, -0.6340438664684233, -1.9668904641692553, 0.9625550497776094, 0.36962277980438496, 1.2903537130843792, -1.7497755956206875, -1.3560960826394999, 1.0821994896504261, -1.1609734971744836, 1.852188431589432, -0.6140142747919927, -1.1413739660651947, 1.0375527557402815, -1.882834628320865, -1.5779744335017414, -1.8041974584798717, -0.050048020686628863, -1.2685507105091107, 1.8372609395815929, 1.1166997700771677, -1.184367461208802, 0.5764239436466319, -0.5251699614833545], [-0.8226507634940737, 1.1455245388094164, 0.27983169026185895, -0.6471222521784756, 0.712016211069758, -1.8775144090754, -1.4014199789900492, -0.2098520219329583, -0.16106058989346383, -1.6108123808907273, -1.730498094539449, -1.0502660419716516, -1.394484006529616, 1.4007512682374563, 0.5376065783772674, 1.6884284232725628, 1.3075985031775121, -1.4093914544457882, 0.23462141264843403, -1.2937265341006958, -1.5295261679929881, -0.8551928270127385, 1.4743819109662464, -0.8041679894560435, 1.6851736322023658], [0.7120469164701618, 1.6884035721913053, -0.22927381914663997, 0.6916335279413196, 1.7237465540371324, -1.56228089511039, -0.5692466256957194, 1.8818339910910211, 1.7620769454706717, -0.00047761046936464866, 1.5665410614438515, -1.6040836348016647, 0.09574755382325152, 0.2180442296596568, -0.25224702166527524, 0.721415639301721, 0.4487031436733317, -0.7222619015646409, 1.9561030820316887, 1.9635007897386647, 1.8333080154920223, -0.3414736758484348, -0.6877875966444141, 0.24051539979088388, 1.3892106369607726], [1.9795511254211335, 0.9379990259530185, 0.53986588261023, -0.6735605591788792, -0.8748970771416141, 0.45156856495802933, 0.5064086100211301, 0.9126157575580912, 1.2282581694927155, -0.7535724803007375, -0.5709804983565583, -1.4800546171312916, -1.2779946008204954, -0.14632344538295022, 0.3363936142387824, 0.49686489962432745, 0.028053108017412023, 1.3016902918224544, -0.814192910952991, -1.6476055841293678, -1.394166027350539, 1.850355405624755, 0.9343771797907464, -0.08056617002699248, 0.5607283527039806], [-1.7683713063443303, -1.0142643074111628, 1.5754945675861678, 1.3087261486999922, -0.553769846464972, 0.7814292211134961, -0.028011184069140316, -1.9690531812442353, 0.8979621467431144, 0.07976197474107015, -1.827067435046038, -1.54487895894516, -0.9842419404005422, 0.7395791918736798, -0.8864828818785416, -0.8689368297202399, -1.010206142290179, 1.7648516906437233, -1.893479062745214, -1.2892767144148096, -1.5364338306166276, 0.18377254263732618, -0.3967480684385772, -1.0781500111912865, -0.3957471076200904], [1.8242932036708854, -0.1695358764811513, -1.0839151928271467, 1.9829113077908014, -0.7059661121083032, 0.060162197106083504, -1.1622019813390116, 0.806429854632033, -1.8534342560979815, -1.6510759593634154, 1.23509388191349, 0.00934304978153002, 0.9275047450681487, -0.9301271007764392, -1.914079826387345, 0.6742073802522619, -0.8210256789642927, 1.274254855395302, 0.4982502142033659, 0.6872482310506637, 0.6730871981331136, 1.7276546876115277, -1.167013780979557, 0.6031523079600032, 0.9271527119354426], [-0.48760170062675845, 0.17804533154610364, -1.8554666747577322, -1.9550972767708885, -1.9183387530613332, 0.987994442236025, 0.8654479916838903, -0.5922084637982167, -1.136295483725458, -0.2547685623325166, 1.411663432416795, -0.9302215837173101, 1.6537039575492778, 1.6944648041449435, 0.657224269774439, -0.554307724188759, 0.17002544267802547, -1.2479594921948267, -1.9462524597422097, 1.9672832341543613, -0.6456072432461393, -1.0412372320520094, -1.3915015679655394, -0.8015099336583189, -0.9864542854448883], [1.1066284802096742, 0.8950870835194052, -1.3937198533051616, -1.8934340297593735, 1.9855154851798975, -1.885966934567021, 1.9930674595860571, -0.6986994973659498, -0.6042505365044248, 1.167772902973431, 0.3730990571235586, 1.257841079874991, 0.5166235356149769, 1.32682411081948, 0.3846723352684269, -1.5109459893324553, 0.2869180107210644, -0.33334482981195473, 1.2224729568568564, 1.7308952509858004, -0.7540808614064716, -0.6652401940907084, -0.20545637843835232, 0.6954120439057179, -1.8641570904934592], [-1.025136749184067, 1.8095662810400575, -0.5161665012902165, -0.10803942861048024, 0.8201198005249271, 1.9462497416956799, 1.2051043266260997, -1.4976628609381277, 1.360752535546099, 1.932334285282685, -0.19797982959841615, -1.5255648826157573, -0.4975779614967538, -1.5580897726352905, -1.7055920827199125, 1.7863515991808117, -1.3154505058939543, 0.32530605225661413, 1.8185606241268122, 0.09103322272308889, -0.35295630587300497, -1.7101131348343557, -0.04417330695595123, -1.9008449344269065, -1.0607415046747608], [1.276022536986664, 0.7559642142967493, 1.1408643795608955, 0.08917045103282605, -0.00035589717983564733, -0.07596845694092975, 0.6339066934857945, -0.3485327859279422, -1.8450384581363253, -1.2538227325444982, 1.8391745345318888, -0.5446569183164744, 1.1738565141214292, 0.35519260880351416, -0.08873018584622562, -1.7520472389368371, -1.7768516942449537, 0.6700176642137587, 0.38317819881369397, -0.5381198583462459, 1.3402030551264426, -1.6003821797799362, -1.1752757634012019, 1.3644703193251633, -0.089950938983194], [0.7424936645069485, -1.6972370085226762, 1.3421749951661988, 1.358191679689371, 0.35557936138808877, 1.277800982970801, 0.704853159170921, 1.9858983327716795, -1.860026055680095, 1.0665746755012109, -1.7098073194979062, 0.8238008716594432, 0.05392049329127169, -1.4360106739015597, -1.6796115331580836, 1.7385884999145822, 0.1859113744281288, -0.8593362846139853, 1.90485931766102, 0.6294423563451356, 1.2608577251746205, -1.6947684698691046, -1.7775777144796783, 1.6517293229207028, 0.2645205774534989], [1.9216282450600735, 1.3027503420020696, -0.040502186990024724, 1.5019289349971539, 0.7462004183763995, 1.4618109870365772, -1.7573230669178221, -0.10857179912212571, 1.2366651666992596, 0.7908313468478484, 1.5475233477251287, 0.9183547839658004, 0.4119141383067532, -0.4944149948787541, -0.5893898824572342, -1.5685551979875503, 0.9742169306470082, -1.0913411223329428, -1.8712001606083866, -0.08508528101949468, 1.6808656640292698, -0.9632995584279542, -1.1767642480221832, 1.2494457507561534, -0.33626774212284183], [0.44446575396764354, 0.06836815817312483, -0.964420947659749, -1.080863584376635, 0.2306780914445851, 1.8905288046004725, -1.783592274801166, 0.5806024208178134, 0.17138812447620708, -1.309269570286845, -1.744581481049396, -0.9405140400738035, 1.4248729494153403, 1.7410037765119668, -1.7783707905263593, -0.023549133929479337, 1.129541847075956, -0.5956679389203181, -1.9003033434673908, -1.7763212030752211, 0.4620116903992292, -0.18337927083757452, -1.0408220827374435, 1.9296261759433242, -0.8850477891581702], [-1.7455072640608207, -0.5368248713240797, 1.410685918060755, -0.9690372594186591, -1.5913946788786193, -1.3436457522057255, 1.252296707885019, -0.938304267541899, -0.5521356605824359, -0.14109059690741327, -1.2597735810064612, 0.9152060508450427, 1.5773954742667797, 0.34809195369577406, -1.8835558136852124, 1.3039536891799282, 0.14551572755306683, -0.5971497677789759, -0.7317343001464888, -1.6732933371550764, 0.5247802765710311, -1.8182810691505682, 0.6344339375050364, 0.1689551411126577, -1.3131610477543383], [-0.8948200285995845, 1.956811463768782, 0.42211422901963636, -1.8533492001315424, 0.7324323971224765, -1.6800150849186766, -0.8477222471360143, -0.8515914289845413, 0.19428310251804007, -0.6469766444352728, 0.5942280037985566, 1.3016310943854004, -1.76555008484202, 1.5836531968735066, 1.508473993214587, -0.28515014941103706, 0.034284336434841065, -1.8537388678752529, -1.7977621223563114, -1.610695585538363, -0.19855540793127804, -0.7481036610873718, 1.6951595846933292, 1.453608214226628, 0.46498785746496313], [1.3516650268452395, 0.5746946670997629, -1.012795567952644, -1.1337681365063499, -0.440516569992201, -0.8257601990284368, 0.7248340103788388, 0.40750473323338443, 1.9682920296755475, -1.1893914454077763, 0.44545110035694263, 0.6147733718151417, -0.8486097525037767, -1.7616732050640955, 1.5281199694835812, 1.9521708936861857, -0.7009513915108732, -1.9333686888339576, 1.8024164447706286, -0.7305741258485751, 0.08632659920333863, 0.562693027430493, -0.8152924024763535, -1.0973133292083803, 1.5860039498765337], [0.7930373359203909, 0.5113048467467423, 1.8645619894619698, -1.7326944055774036, 0.4098227863770412, 0.5129772531433883, 1.6501077224806953, 0.4488177664325626, -0.10453186480077944, -0.27335324350255435, -1.7547212147301048, -1.5239921399858714, -1.9542593143949327, -1.0708292278883067, 0.17985826242550154, 0.21462399455589143, -0.7001011772395922, 1.5015226461898976, 1.7505532846578535, -0.4626876788979353, 1.4027053603241848, -0.0485795633006721, 1.6732339430247005, -1.186490668947417, -0.7655925733123364], [0.7945570975567198, 1.8192555365970235, -1.0885632511642014, 0.27942824137183103, 0.08562826432062443, 1.8941813430646564, -0.2704970974950744, -1.8760537681645189, -0.043970649339651106, -0.8716369262390629, -0.7552360772737159, 0.7741488145718111, 1.071183033328675, 1.5336293225590039, 0.518889380247419, 1.7148501226969783, -1.255309177924513, -1.0641250948266339, -0.8353586375018097, 0.8945486614061827, -1.981154558015541, -0.19960152460223451, -1.7843061057168965, -1.9036665858754915, 1.1705815308065937], [-0.9424284437365513, 1.2316278781492642, 1.2226725893693033, 0.7232202945822296, 0.6341355829989744, 0.19557123079440458, -1.3900773406368854, -0.40064031615427764, -1.5395295633945494, -0.23732173542406135, 1.9163065442434528, 0.7117315422103039, 0.08307032274273653, -0.9897805315078941, -0.47108668017403976, 0.9088978556234654, 0.20325194247476203, -0.5894534329305577, -1.8095272560577451, -1.1984633971962797, 0.04371269115957296, -1.4820612225856031, -1.0598110068366873, 1.46239445888777, 1.8522920582608482], [-1.7894301553407357, -0.46370979747568647, -0.6406079042131703, 0.7592776719671385, 0.3200372781067739, 1.1106628451875398, 0.7459539306139257, -0.49732633821332484, 1.1809329955699857, -1.7103446357558116, 0.6784205571844394, 1.357703021962699, 0.5618873656791576, -0.8007117761624697, -1.8507860742928812, -0.5903501686213752, 0.20034938513125247, 1.364162769879408, -1.815803419132377, -0.8857105856841341, 1.4114191495697084, 0.014904219531424304, 1.0846912096218069, -0.35966013367515987, -0.4223339744160956], [0.21461504314330246, -1.5912372225965206, 0.06857781603652319, -1.1854972571537676, 1.3064079518268519, 0.05884555651390033, -1.946685489144375, 0.5984314097617555, -0.3237860734325952, -0.9643251755632511, -0.7986092144460558, -0.5726774721903144, -0.1453206714620592, -0.6254198481866314, 1.3968424868316658, 1.9709055859318756, -0.20737570299050234, 0.539769192600003, -0.35743809905465623, 0.47329571796879544, 0.6813275377870706, -0.6502931807851097, -0.07523886817826556, -0.5043214344907033, 1.6885646325305605], [0.4473043350550121, 1.9629377855841161, -0.6399672375238076, 0.37558796436761516, -0.16804743247579712, -0.6009441744592995, 0.03784017248968567, -1.8693874976088856, -0.811918505554475, -1.3202095791265764, -1.9393043876379372, 0.023974427217625747, 1.5412645390798765, 0.44521089715580286, 0.09668028105000567, -1.287113850966856, -0.3751544412151556, 1.835776065617704, 0.8365733163892323, 0.3865879853987816, -1.9061932403104846, 1.5175460416584419, -0.44985162166716275, 1.0096969507414586, -0.7490801472425875], [1.535737659116681, -0.06721893248466175, -1.306611304838659, 1.881178569714661, -1.746895144234293, 1.4089934443364311, -0.7545042017018627, 0.7957391835769576, -1.4289920731066124, 1.696286983514182, 1.5580456002040597, 0.3737112799900553, 1.1569033672264535, -1.6892633788878664, 0.03545918098091376, 1.8149764543576572, 1.799112715076288, -0.2994357818159349, 1.2158112927110225, 0.7880319975921825, 0.2437960691628078, -0.23550167470075783, -1.3156268531288595, -1.6011670328758156, 0.6603652778858015], [1.1943944548549355, 1.5904426128390063, -0.18362243006811016, 0.6580171208389112, -1.7784914873783833, 1.9888902899592582, -0.18947024359589873, 0.3871460344345567, -0.3014607756411021, 0.2372568822836135, 0.10700371125321476, -0.4619635860029767, 1.5415000574560025, 1.7987456356186724, -0.7828330772249551, 1.1509544587796614, 0.5366129646267707, -1.5153233605231409, -1.3894610629546604, 0.8915158233788405, 0.15149273582001602, -1.193042333828906, 1.6218539658915299, 0.8318970095805964, 1.7888199985644526], [-0.2643940349963666, -0.24539207923666953, 0.8685328667733017, -1.8881458166235605, 0.08144451484711641, 0.9509307458689715, -1.0738213924836764, -0.003361003938066645, 1.860946406880769, 1.4715655341154348, 0.9834742926787441, 0.9227132880329451, -0.22350632985737534, 0.09743568285114068, 1.4768003513141743, -1.4118790684007294, -0.6607789987801446, -1.7322084607256483, 0.7269258779927635, -1.766663500828572, -1.1724620582036964, -0.4716118713954247, -0.2585042188768172, -0.34798176369527767, 0.8450180698860172], [-0.8217798026012554, -1.3197207009813938, 1.7971421213854586, -1.5756487541164481, -1.7548083131610641, 1.17726616139248, 1.9991887938755593, 0.998361547212789, 0.4292673765692756, 1.2593883172578413, 0.2878950109962173, -1.6570197790330286, 0.35123810407200673, 1.5259206695705774, -1.1623575352095494, 1.3361347394737404, -1.4552949622956202, 0.703826809919638, -0.14446006999721323, -0.8549477662662489, -1.892828682804373, 0.8950653010757411, 1.0984273274092398, 0.35070654414801783, -0.3061553036567417], [0.20375232315672312, 1.9044617342511334, 0.8289320667345667, 0.6321348994000773, -0.9195490345425774, -1.1758523439214799, -0.33253652320393884, -0.4716213526007171, -1.0291160158963684, -1.9583291949867039, 0.9399720468964167, 0.0272657306578372, -1.9636053379149312, -0.8012662748689837, 1.9563510687772283, 1.6769707824216689, -1.599658276660459, -0.7062128856264764, -1.9818473572751272, -1.069811709097454, -1.8042337141990579, -0.12030661502946945, -1.64911142012579, 0.8849047290023249, -1.7998540706566786], [-1.2574206185642076, -0.02255415279240616, -0.9723847681730515, -0.5613857228984771, -0.46748073596494155, 1.5260773334486013, 0.3140262959839202, -0.46257042752730093, -0.4503266022536605, -1.0543440613121013, -1.9086806066752704, 1.3204604375034137, 1.3351009178262707, 1.1740256197705652, 1.8825184450726984, 1.8439741341260447, 0.3314651712245054, -0.649913263653915, -0.5677484616450533, -1.2103166231991924, -1.9316578817126118, 1.3858563041583531, -0.6160161478112884, 1.623256136085374, -1.4379478620443875], [1.7961624601260275, -1.4202173420752908, -0.8766783541066717, 1.5965251983282192, 0.8398393747298035, 1.3122832748974236, 0.6874883973760609, -1.6743260189907745, 1.21402039495746, -0.1587093147216039, 1.9930743817286585, 0.4752610462512825, -1.9255863913025846, 1.771220645578511, -0.3330156094916405, 0.15114899320877498, -1.9417289660394128, 1.9299258144169633, 1.2657184212739399, -0.4075667998930646, 1.556200599811488, 1.8643282730687787, 0.024328988168363107, -0.7306727041802996, -0.5693140635334708], [1.0212245785201255, -0.27372781411644986, -1.8043621458271284, -1.1972668671378197, 1.715120914978808, -0.722492952784594, 0.35940052873883616, -0.40167546506639307, 0.6417526195150015, -0.05727297947989993, -1.0189139162233094, 0.9675690392945767, 1.1372775565627449, -0.8031094296853128, 1.0287389549194712, 0.3303946528414534, 0.831702438302642, 1.4372194193547096, 1.4735643457893604, 0.4619248190632811, 0.20138974240949065, 1.9524016120857326, -0.589526567215251, -1.553318030553261, 0.9163494733685245], [1.533298572974198, 0.39463498003657266, 0.25602553745560774, -0.5226848401012679, -0.9965748560627171, 0.6845205901861805, 0.4693764987077091, -1.599009300170595, 0.05172829361041263, 0.08953022802240469, -1.4251951242562726, -1.7057378755794201, 0.9716695335192945, 1.7482252154225377, 0.47339127540273984, -0.025217317526776563, -1.1421585222512132, -1.772550648729133, 0.5770507574230285, -0.6845804972845266, -0.9919107618117544, -1.7719469340539655, 1.7261787512566946, 0.43182044385383506, -0.6171322912977859], [-0.9108085418941851, 1.0197397839511817, 1.227101857304551, 0.7929168173783785, 0.08265186989965624, -0.9195523211217558, 1.740259311788823, -1.3656059586428106, -1.51427809589317, 1.9941268348724503, -0.6750351207373502, -1.529886277410046, -1.2138238036444373, 0.24060508084230417, -1.1365279688266097, -1.2652139181627478, -0.696485739597731, -0.3235631362427866, 1.5049168365499574, 0.7658063616378973, -0.9570282445399794, 0.007490319373375415, 0.2501246652528612, -1.2682942686672638, -0.43580531746087764], [1.9697604214504552, -1.0366145898790735, 1.5563797957299361, -0.5185143183906558, 1.4545290428958564, 0.46084280386978277, 0.43567634171609704, -0.5974386596876569, -0.2289874618146106, 1.76131926494029, 1.8790602875721036, 0.9768411041471982, 0.04409494268265444, 1.5136894408754418, 1.466598609224014, 0.4893003889346152, -1.050273142659815, -0.7281414441893406, 0.507807866088135, 1.2016502755778264, 0.19074441104852286, 1.3715019615826363, -0.06722759741183709, -1.4420862381392245, -0.7707174625682329]], "second_weights": [[0.05624611135041071, -0.0427308650862616, 0.0067417366111195455, 0.020520928328140526, 0.014756179080350002, 0.03169839761806124, 0.03358340056166645, -0.01858870144580725, 0.011940253717500734, -0.015513967907925912, -0.007827115402061057, -0.01862426046094345, 0.004769086091661026, -0.058004289698833915, 0.020845163956110066, -0.020263845923281575, 0.04851776746220554, 0.010336111801787048, 0.04585977694843777, 0.017265426572731918, 0.019222892137231426, 0.020167828504025216, 0.021433286493248598, 0.010341340209536703, 0.04064167912919882, 0.026933097818936814, 0.10328696324567545, -0.009206363794023453, 0.01631203806964096, 0.011809612755007885, 0.05110370699335799, -0.0043655532725917785, -0.008815985296523847, 0.01577911559689543, -0.0003437723974731047, 0.011232298197563951, -0.009728975816283696, -0.02259063469640743, 0.021970881498778464, 0.024411372320356426, -0.03051526762965598, 0.014958132468265443, 0.02075495759775259, -0.01530414542262438, -0.03488556291853765, -0.013561683559976638, -0.005371033645251676, 0.019541554608278545, 0.03136956162620357, 0.010894079351676765, 0.02907005314019, 0.04051757911470903, -0.056394172095553155, 0.0200890962455306, -0.0014463571850652482, 0.03830016064712023, 0.0024151778555624925, -0.0032833788756635894, 0.02041157297268913, 0.02183321579078873, 0.0012856189397112596, 0.01632574835367747, -0.0950603836659773, 0.016789045410192806, 0.015801968632986094, 0.021204164039355544, 0.03951715811955492, -0.02205172608774994, -0.017983756359636883, 0.02093645696314273, 0.041090723633185014, -0.00010934666863521931, 0.029016037708493963, 0.0016962064578116935, -0.04455112630695408, 0.019823350610764144, -0.024247827770604784, 0.007482047700881014, 0.04445127501449638, 0.010573593026668467, -0.0010937527065105345, 0.038555417184367655, -0.04413325198607216, -0.06592253234298757, -0.00025208820247026584, 0.012304217282336456, 0.04409768465991746, 0.007099027527773322, -0.033599816319574885, -0.014731794475008515, 0.02322011595914531, -0.04387619136588693, -0.042152084256250354, 0.00038271977928636813, -0.024798318730436305, 0.028885328789364104, 0.017195090068940967, -0.03360527057490167, -0.027236366525405502, 0.0215137534036631, 0.020793470654193052], [-0.03183954341258608, 0.0434976225517272, 0.005473525636028999, 0.00840999443190468, 0.017555354476418674, -0.03707463976403509, -0.028553021110871355, 0.029430657371701092, -0.011279801492251999, 0.04118876766765648, 0.012004500148238005, 0.033792622692023606, 0.0024339283497918384, 0.04935226049296727, 0.012429716628569459, 0.029513602389958676, -0.0313144038298742, -0.01350055418837638, -0.0349073734674268, -0.006854641477366033, -0.006719511309566919, 0.012819154845123922, -0.03162142885025318, -0.006179761792525582, -0.02434205630219045, 0.0055754689782312634, -0.10045728501371118, 0.01166567195981679, 0.014718275332264772, 0.009092476217709533, -0.04901013111424188, 0.02315144863626259, 0.017662298884958717, 0.01669245143558088, 0.0020641839544080333, -0.00375907431361182, 0.016254155579905172, 0.037430207757966634, -0.010531923200323458, -0.012991248102762263, 0.044480149495489577, 0.015517884252371043, 0.01254453796605864, 0.021867260505795946, 0.04763078578493986, 0.02694455632121256, 0.010887678899977002, 0.012707686988665912, -0.000902778345138972, 0.0012823722934524892, 0.0018386493439021085, -0.02183987991319856, 0.059020850968177496, -0.0008060336092861185, 0.02054052810487159, -0.028671894803665048, -0.0015145716290713724, 0.005220447497631024, 0.012125846359012496, 0.01145856479324369, 0.0027176356441055887, -0.008666648954257712, 0.096450436938836, 0.010482273615214522, -0.0011256105849784378, 0.011793495601620746, -0.04308809650567985, 0.02137287663337426, 0.03031225889562009, 0.012432677772194322, -0.02677512973895986, 0.00020152766889547442, -0.010361307917384877, -0.0007021633649378667, 0.061971093885197864, -0.015608516034025813, 0.03359481074188127, -0.0020319511125724515, -0.02377120312793845, -0.009896449335910025, 0.0014113510127410289, -0.01900280120889877, 0.05395595767134163, 0.06737542477981835, 0.004161339695507433, 0.0064275090024868906, -0.024805818860601698, 0.0069856806382536, 0.044753852455616416, 0.03530542416328638, 0.009435262965699017, 0.04305959991589156, 0.07204042444328482, -0.0002698782938309525, 0.022973047029356746, 0.002916776426277305, 0.013391536752470764, 0.04631783323486265, 0.03344939646396884, 0.011424853797262177, 0.012584860509272523]]}